tree
version=v4
num_class=1
num_tree_per_iteration=1
label_index=0
max_feature_idx=8
objective=binary sigmoid:1
feature_names=total_rooftops Unemployment_Rate Average_Age Elderly_Population Young_Population Total_Population tile_encoded employed panel_area_lag1
feature_infos=[0:238] [2.1000000000000001:7.7000000000000002] [38.299999999999997:43.5] [3154:23161] [1843:20164] [18876:118147] [0:1563] [63.399999999999999:80.5] [0:21447.982]
tree_sizes=3459 3461 3457 3461 3463 3481 3465 3465 3458 3481 3472 3474 3458 3473 3463 3466 3469 3471 3471 3476 3468 3477 3454 3469 3460 3464 3482 3467 3477 3469 3471 3476 3465 3476 3474 3475 3481 3482 3474 3475 3488 3483 3468 3477 3487 3470 3495 3488 3485 3475 3476 3473 3470 3471 3493 3482 3494 3489 3489 3491 3496 3476 3472 3505 3499 3486 3476 3486 3474 3490 3473 3490 3499 3480 3488 3499 3472 3497 3482 3477 3486 3487 3502 3484 3479 3483 3492 3492 3510 3486 3493 3488 3485 3496 3481 3507 3495 3491 3493 3510 3470 3509 3501 3478 3467 3501 3489 3498 3495 3495 3501 3509 3501 3489 3496 3497 3504 3496 3502 3511 3512 3517 3506 3496 3505 3501 3491 3495 3497 3526 3503 3498 3502 3503 3498 3489 3504 3516 3496 3511 3496 3504 3503 3501 3501 3498 3499 3525 3489 3512 3518 3529 3510 3504 3510 3506 3504 3507 3508 3508 3521 3522 3474

Tree=0
num_leaves=32
num_cat=0
split_feature=0 8 8 6 6 1 0 7 0 8 7 0 7 3 0 8 3 8 7 0 6 7 3 8 8 3 3 8 7 8 8
split_gain=5978.62 300.432 266.133 130.619 152.081 173.009 97.0744 49.3619 48.3177 48.0967 43.8215 28.9348 26.1946 36.5673 21.8318 29.2699 21.6402 22.1665 20.9434 16.5191 18.8184 15.5281 17.8344 17.6077 17.1857 15.1011 14.622 11.821 11.7799 13.4061 11.1526
threshold=9.5000000000000018 24.640000000000004 3.4510000000000005 1079.5000000000002 1331.5000000000002 3.3500000000000001 19.500000000000004 66.550000000000011 3.5000000000000004 420.95100000000008 66.550000000000011 1.5000000000000002 66.450000000000017 16064.500000000002 14.500000000000002 157.53750000000002 8913.0000000000018 1.1845000000000001 73.250000000000014 13.500000000000002 953.50000000000011 66.450000000000017 17300.500000000004 24.640000000000004 150.33900000000003 13301.500000000002 10193.500000000002 12.011000000000001 69.15000000000002 9.9775000000000009 18.990500000000004
decision_type=2 2 2 2 2 2 2 2 2 2 2 2 2 2 2 2 2 2 2 2 2 2 2 2 2 2 2 2 2 2 2
left_child=2 6 8 14 5 7 19 25 -1 11 -7 -4 -8 16 15 26 17 -14 21 27 -21 23 24 -13 -23 -5 -3 -2 30 -30 -18
right_child=1 3 9 4 -6 10 12 -9 -10 -11 -12 18 13 -15 -16 -17 28 -19 -20 20 -22 22 -24 -25 -26 -27 -28 -29 29 -31 -32
leaf_value=-0.097661312585376914 -0.054435734421592531 0.077249403401854447 -0.090691282171838028 -0.02383308365732725 0.097517067280148681 -0.009883888581823725 0.099999997144382485 -0.050893549058517736 -0.061666230300369031 0.075840782880848417 0.094942447956067488 -0.036181310641159203 -0.050597736233075792 -0.049757016243984042 0.098409967404938944 0.099999997144382485 0.099999997144382471 0.050924898224400356 0.07424621781276565 -0.023011207823182608 0.057972646776536393 -0.031917478356307039 -0.087957464190588752 0.067350370475435059 0.045434726138413539 0.099999997144382471 -0.01506865864923863 0.016104703952883739 0.011137064641118698 0.078263302411185814 0.022235395268310459
leaf_weight=863.05494467914104 39.008923098444939 6.4585519731044796 16.181409791111946 3.5596923977136594 118.35686075687408 12.034731209278105 19.882925570011139 61.34762841463089 104.52169175446033 12.163962826132773 58.105571150779724 7.5528078079223659 9.7568461894989031 10.792782098054884 739.2862584143877 22.443605378270149 24.703028738498691 11.976411283016203 5.7054108530282965 22.695346742868423 10.488590702414511 64.603129416704178 12.508012488484381 9.0007701218128187 8.0785391181707364 7.9832958728075027 12.769410669803618 7.0056798905134192 16.53511627018452 13.519616842269896 5.6684875339269629
leaf_count=1228 100 39 26 12 778 45 132 163 248 73 378 23 26 29 4877 149 164 64 34 77 58 204 21 52 42 53 46 31 71 82 26
internal_value=-2.9984e-09 0.0755976 -0.0845736 0.0861853 0.0555911 0.0208978 0.0181282 -0.0330455 -0.093773 -0.0190255 0.0769563 -0.0283594 0.0479113 0.0367693 0.0964252 0.0612135 0.0481358 0.00534771 -0.0189724 -0.0243041 0.00258571 -0.0241997 -0.0328103 0.0201126 -0.0233198 0.0618116 0.0159404 -0.043696 0.0635251 0.0413327 0.0854861
internal_weight=2337.75 1234.38 1103.37 1042.35 261.388 143.031 192.034 72.8906 967.577 135.794 70.1403 123.63 112.835 92.9523 780.958 41.6716 82.1595 21.7333 107.449 79.1985 33.1839 101.743 85.1897 16.5536 72.6817 11.543 19.228 46.0146 60.4262 30.0547 30.3715
internal_count=9351 7400 1951 6540 1429 651 860 228 1476 475 423 402 594 462 5111 234 433 90 376 266 135 342 267 75 246 65 85 131 343 153 190
is_linear=0
shrinkage=1


Tree=1
num_leaves=32
num_cat=0
split_feature=0 8 8 6 6 1 0 7 0 8 7 0 0 7 8 0 8 7 4 7 3 8 8 3 2 1 2 7 1 8 2
split_gain=5407.24 272.224 241.201 118.406 137.731 156.424 88.0275 44.5937 44.5667 43.4592 39.6975 28.2185 26.1946 20.6818 21.8258 19.8217 27.3525 18.9216 17.7144 14.0218 16.1512 15.9075 15.5154 13.6737 13.6666 11.7995 17.9315 14.4643 12.8852 10.6794 9.08459
threshold=9.5000000000000018 24.640000000000004 3.4510000000000005 1079.5000000000002 1331.5000000000002 3.3500000000000001 31.500000000000004 66.550000000000011 2.5000000000000004 420.95100000000008 66.550000000000011 13.500000000000002 1.5000000000000002 69.15000000000002 6.3755000000000015 14.500000000000002 71.637500000000017 73.250000000000014 13472.000000000002 66.450000000000017 17300.500000000004 24.640000000000004 150.33900000000003 13301.500000000002 42.850000000000001 3.3500000000000001 42.050000000000004 72.250000000000014 4.1500000000000012 12.011000000000001 39.95000000000001
decision_type=2 2 2 2 2 2 2 2 2 2 2 2 2 2 2 2 2 2 2 2 2 2 2 2 2 2 2 2 2 2 2
left_child=2 6 8 15 5 7 11 23 -1 12 -7 29 -4 24 -15 16 -3 19 25 21 22 -14 -21 -5 30 -13 27 -27 -29 -2 -8
right_child=1 3 9 4 -6 10 13 -9 -10 -11 -12 18 17 14 -16 -17 -18 -19 -20 20 -22 -23 -24 -25 -26 26 -28 28 -30 -31 -32
leaf_value=-0.09387219742607672 -0.051752938971732325 -0.010687487808232863 -0.08633710547818324 -0.022644695462436696 0.092865505953878713 -0.0093899268234201964 0.032612179504244193 -0.048380733327158844 -0.064119066362415239 0.072154222726501183 0.090402306562954615 -0.046779116625169898 -0.034383690369640861 -0.018352940137192054 0.063888278200251114 0.093719986121073739 0.08209030641024033 0.070632867790703463 0.062887746510643258 -0.030329459444761869 -0.083724146731663548 0.064056713290342002 0.043185661571438438 0.095241866221836988 -0.010355012528310392 -0.039405184905138092 0.061090083821695187 0.10013330070943938 -0.010301749906117232 0.01530048312878134 0.095802190379952232
leaf_weight=816.63183164596558 38.980038046836853 10.691775143146513 16.148182809352875 3.5591870248317701 118.075923204422 12.034437239170073 6.7170395851135245 61.307920455932617 148.79083772003651 12.146487966179846 57.974828362464905 11.972828373312948 7.5503364205360439 14.837285369634627 17.680733069777489 737.49920055270195 30.913426488637924 5.6975552886724463 12.58201916515827 64.586677759885788 12.483851656317709 8.9905704855918867 8.0743713676929456 7.9633709788322449 4.0063422173261634 17.901444509625438 11.982961446046827 4.367257818579672 6.6833420097827911 7.0052258670330039 37.12223307788372
leaf_count=1146 100 40 26 12 778 45 33 163 330 73 378 33 23 52 102 4877 194 34 72 204 21 52 42 53 15 53 68 29 25 31 247
internal_value=1.69608e-07 0.0719678 -0.0805138 0.0820626 0.0529097 0.0198809 0.0172403 -0.0314192 -0.0892866 -0.01809 0.0732482 -0.0115172 -0.0269634 0.0571309 0.0263633 0.0918257 0.0582481 -0.0180349 0.00956277 -0.0230031 -0.0311866 0.0191222 -0.0221602 0.058828 0.0780419 -0.00311844 0.0096516 -0.0116383 0.0333428 -0.0415383 0.0861202
internal_weight=2332.96 1231.86 1101.1 1040.02 260.916 142.84 191.839 72.8305 965.423 135.678 70.0093 111.475 123.532 80.3636 32.518 779.104 41.6052 107.383 65.4899 101.686 85.1449 16.5409 72.661 11.5226 47.8456 52.9078 40.935 28.952 11.0506 45.9853 43.8393
internal_count=9351 7400 1951 6540 1429 651 860 228 1476 475 423 411 402 449 154 5111 234 376 280 342 267 75 246 65 295 208 175 107 54 131 280
is_linear=0
shrinkage=0.05


Tree=2
num_leaves=32
num_cat=0
split_feature=0 8 8 6 6 1 0 4 0 8 7 0 7 3 0 8 3 8 7 7 3 8 8 3 0 6 3 7 8 8 8
split_gain=4909.49 248.589 220.292 108.178 125.531 141.899 80.2369 42.6684 41.3766 39.6226 36.2086 26.7481 22.0384 31.5755 18.2659 25.1059 18.2175 19.1442 17.3007 13.4813 15.3308 17.141 15.2049 13.244 13.1972 16.3188 11.5649 9.76003 11.309 10.0673 9.66613
threshold=9.5000000000000018 24.640000000000004 3.4510000000000005 1079.5000000000002 1331.5000000000002 3.3500000000000001 19.500000000000004 12764.500000000002 3.5000000000000004 518.43450000000018 66.550000000000011 1.5000000000000002 66.450000000000017 16064.500000000002 14.500000000000002 157.53750000000002 8913.0000000000018 1.1845000000000001 73.250000000000014 66.450000000000017 17300.500000000004 150.33900000000003 24.640000000000004 10193.500000000002 13.500000000000002 953.50000000000011 13301.500000000002 69.15000000000002 9.9775000000000009 18.990500000000004 12.011000000000001
decision_type=2 2 2 2 2 2 2 2 2 2 2 2 2 2 2 2 2 2 2 2 2 2 2 2 2 2 2 2 2 2 2
left_child=2 6 8 14 5 7 24 26 -1 11 -7 -4 -8 16 15 23 17 -14 19 22 21 -21 -13 -3 30 -26 -5 29 -29 -18 -2
right_child=1 3 9 4 -6 10 12 -9 -10 -11 -12 18 13 -15 -16 -17 27 -19 -20 20 -22 -23 -24 -25 25 -27 -28 28 -30 -31 -32
leaf_value=-0.08898911692970779 -0.049269913127029295 0.072120288402354654 -0.083614603431871048 -0.021521227908672964 0.088826642751150181 -0.0089210499814976457 0.091588301585642282 -0.047289015181719102 -0.055604611037251228 0.078455561875094448 0.086439785041761114 -0.032695189037385913 -0.047346126457255777 -0.047078154371254004 0.089655228069043455 0.09167631073744674 0.092080763717022646 0.047084636852098766 0.068029495648555913 -0.02883404539882552 -0.079980871738432491 0.045510320979401615 0.062583663033319595 -0.01584894283418993 -0.021960466857526541 0.053531841243254809 0.08525012180661648 0.010211291333807786 0.071950731463070502 0.018080593607787066 0.01453816435785792
leaf_weight=855.30346807837486 38.899162247776985 6.4364823251962688 16.785962983965874 3.5577707290649405 117.29083406925201 12.033613264560698 19.709559723734856 60.272416636347771 104.10934194922447 10.018670558929442 57.609392642974854 7.5434135794639614 9.7423080354928988 10.779598549008368 732.50552925467491 22.258587807416916 24.509464293718342 11.951565206050871 5.8253827393054953 64.540591716766357 12.416296005249022 8.8117306828498823 9.4114448428153974 12.761872455477713 22.676028415560722 10.460890442132948 8.8320061266422254 16.52554085850716 13.457206100225447 5.6568443775176993 7.0039527267217627
leaf_count=1228 100 39 27 12 778 45 132 161 248 63 378 23 26 29 4877 149 164 64 35 204 21 47 55 46 77 58 55 71 82 26 31
internal_value=6.86553e-07 0.0687673 -0.076942 0.0784596 0.0505288 0.018963 0.0164212 -0.0299174 -0.0853664 -0.017228 0.0699624 -0.0248765 0.0435787 0.0333625 0.0878279 0.0555401 0.0439575 0.00467757 -0.0157933 -0.0205468 -0.0286003 -0.0199031 0.020193 0.0136438 -0.0221751 0.00187146 0.0545903 0.0581245 0.0379219 0.0782041 -0.039534
internal_weight=2319.7 1224.93 1094.77 1033.56 259.596 142.305 191.372 72.6622 959.413 135.353 69.643 125.335 112.332 92.6225 773.962 41.4569 81.8429 21.6939 108.549 102.723 85.7686 73.3523 16.9549 19.1984 79.04 33.1369 12.3898 60.1491 29.9827 30.1663 45.9031
internal_count=9351 7400 1951 6540 1429 651 860 228 1476 475 423 412 594 462 5111 234 433 90 385 350 272 251 78 85 266 135 67 343 153 190 131
is_linear=0
shrinkage=0.05


Tree=3
num_leaves=32
num_cat=0
split_feature=0 8 8 6 6 1 0 7 0 8 7 0 0 7 8 0 8 5 7 3 7 3 8 8 2 4 5 3 8 7 2
split_gain=4472.53 228.358 202.524 99.6939 115.139 129.074 73.2217 39.7449 39.2953 35.9778 33.222 24.4433 22.8756 17.5996 18.2876 16.9659 23.5879 15.8389 15.6902 12.3482 12.1983 14.0411 15.4967 13.7886 11.7285 10.0553 17.5196 11.8686 8.76298 8.18839 7.88228
threshold=9.5000000000000018 24.640000000000004 3.4510000000000005 1079.5000000000002 1331.5000000000002 3.3500000000000001 31.500000000000004 66.550000000000011 2.5000000000000004 518.43450000000018 66.550000000000011 1.5000000000000002 13.500000000000002 69.15000000000002 6.3755000000000015 14.500000000000002 71.637500000000017 46272.000000000007 73.250000000000014 13301.500000000002 66.450000000000017 17300.500000000004 150.33900000000003 24.640000000000004 42.850000000000001 13472.000000000002 76992.500000000015 11689.500000000002 12.011000000000001 70.40000000000002 39.95000000000001
decision_type=2 2 2 2 2 2 2 2 2 2 2 2 2 2 2 2 2 2 2 2 2 2 2 2 2 2 2 2 2 2 2
left_child=2 6 8 15 5 7 12 19 -1 11 -7 -4 28 24 -15 16 -3 -14 20 -5 23 22 -22 -13 30 26 27 -19 -2 -10 -8
right_child=1 3 9 4 -6 10 13 -9 29 -11 -12 18 17 14 -16 -17 -18 25 -20 -21 21 -23 -24 -25 -26 -27 -28 -29 -30 -31 -32
leaf_value=-0.086268200426004693 -0.04696100966624156 -0.010851419185958007 -0.080130069045615815 -0.020458072372485286 0.085287442719144943 -0.0084759201186166318 0.029434598944270692 -0.04451946148149407 -0.04596928709873907 0.075093947489897589 0.08294939607998357 -0.031105652087457358 -0.050964135694317819 -0.017012148167797825 0.058419917995074504 0.086099981129618308 0.075492666129483299 0.0038391820271312643 0.065031288912527102 0.091724253132767664 -0.027423364812668879 -0.076641132343123877 0.043352167779045034 0.059766219611375897 -0.010248603980263497 0.058158014657723925 -0.048045937925801946 0.067686749618410272 0.013815231954379753 -0.069550255976815079 0.088461890173059721
leaf_weight=802.68533861637115 38.774183332920074 10.677229151129721 16.643590733408928 3.5555807501077634 116.07979571819305 12.032339751720427 6.6920093894004813 61.055195331573486 71.062536329030991 9.9455814361572248 57.045626878738403 7.5327104330062893 9.5737150311470014 14.822594106197355 17.54646623134613 724.80293104052544 30.516999423503876 21.375211477279663 5.7901238501071921 7.9103244096040726 64.469331800937653 12.31203882396221 8.7884468883275968 9.3635304421186429 3.9924246966838828 12.495705828070639 10.762719541788099 11.036908701062201 7.0019844621419898 76.38649845123291 36.521819859743118
leaf_count=1146 100 40 27 12 778 45 33 163 182 63 378 23 25 52 102 4877 194 88 35 53 204 21 47 55 15 72 29 66 31 148 247
internal_value=1.52352e-06 0.0659199 -0.073772 0.075276 0.0483732 0.0181117 0.0156689 -0.0284788 -0.0819101 -0.0164301 0.0670245 -0.023718 -0.0105685 0.0522744 0.0238777 0.084326 0.0531129 0.00844243 -0.0150451 0.0569365 -0.01957 -0.027236 -0.0189327 0.0192536 0.0717458 0.0186586 0.00722668 0.0255804 -0.0376646 -0.0581855 0.079321
internal_weight=2299.25 1214.27 1084.98 1023.68 257.679 141.599 190.596 72.5211 950.134 134.845 69.078 124.9 111.02 79.5753 32.3691 765.997 41.1942 65.2443 108.256 11.4659 102.466 85.5698 73.2578 16.8962 47.2063 55.6705 43.1748 32.4121 45.7762 147.449 43.2138
internal_count=9351 7400 1951 6540 1429 651 860 228 1476 475 423 412 411 449 154 5111 234 280 385 65 350 272 251 78 295 255 183 154 131 330 280
is_linear=0
shrinkage=0.05


Tree=4
num_leaves=32
num_cat=0
split_feature=0 8 8 6 6 1 0 4 0 8 7 0 8 7 3 0 8 3 8 3 0 6 0 5 5 7 8 8 8 7 3
split_gain=4086.34 211.079 187.25 92.3166 106.056 117.71 67.1638 38.0846 37.2961 32.7362 30.6387 22.8484 19.749 18.863 27.4821 15.9643 22.0645 15.5115 16.6851 12.0676 10.4724 14.0626 9.5793 8.72699 13.3997 8.27145 9.55639 9.16022 7.95507 7.55811 7.36521
threshold=9.5000000000000018 24.640000000000004 3.4510000000000005 1079.5000000000002 1331.5000000000002 3.3500000000000001 19.500000000000004 12764.500000000002 2.5000000000000004 518.43450000000018 66.550000000000011 4.5000000000000009 150.33900000000003 66.450000000000017 16064.500000000002 14.500000000000002 157.53750000000002 8913.0000000000018 1.1845000000000001 10193.500000000002 13.500000000000002 953.50000000000011 1.5000000000000002 89902.500000000015 82710.000000000015 69.15000000000002 9.9775000000000009 18.990500000000004 12.011000000000001 70.40000000000002 14326.500000000002
decision_type=2 2 2 2 2 2 2 2 2 2 2 2 2 2 2 2 2 2 2 2 2 2 2 2 2 2 2 2 2 2 2
left_child=2 6 8 15 5 7 20 -5 -1 11 -7 22 23 -8 17 16 19 18 -15 -3 28 -22 -4 24 -13 27 -27 -19 -2 -10 -21
right_child=1 3 9 4 -6 10 13 -9 29 -11 -12 12 -14 14 -16 -17 -18 25 -20 30 21 -23 -24 -25 -26 26 -28 -29 -30 -31 -32
leaf_value=-0.083125566479196222 -0.044805011680157179 0.067797456595813002 -0.077016924678949383 0.052802415440802664 0.0821609926888799 -0.0080532624681943377 0.085005004619353008 -0.043649743346694608 -0.043901157165253717 0.072063458085366461 0.079849671731715546 -0.0084200474104985587 0.062066403203727999 -0.044415864631158146 -0.044580483245282361 0.082965394576867496 0.085260512894352727 0.085893483368474993 0.043939255542567238 -0.052063312499994518 -0.021035114484549422 0.049238867735212785 -0.032407241237770903 0.045954656208032865 -0.078154424364554206 0.0097159118868183608 0.066674235646110691 0.015031787620242038 0.013129378613605431 -0.066631501602800042 0.024127514924039906
leaf_weight=791.65437853336334 38.612050563097 6.3775306493043926 16.455216750502586 12.344166591763495 114.51113963127136 12.030685901641844 19.251367703080177 59.88348875939846 70.698897361755371 9.8480589389801008 56.315289974212646 39.015556856989861 10.230926856398581 9.7034004032611865 10.742078617215155 714.82619409263134 21.77285423874855 23.996694371104244 11.8913157582283 6.7866307497024518 22.649058237671852 10.382300749421118 44.791113540530205 5.4725199341773978 8.3658818304538709 16.511253491044048 13.292696118354796 5.6307425349950782 6.9994291365146628 75.761479109525681 5.955221563577652
leaf_count=1146 100 39 27 67 778 45 132 161 182 63 378 144 61 26 29 4877 149 164 64 18 77 58 137 29 14 71 82 26 31 148 28
internal_value=2.49571e-06 0.0633665 -0.0709354 0.0724484 0.0464399 0.0173416 0.0149648 -0.0271655 -0.0788375 -0.0156884 0.0643764 -0.0226391 -0.00151952 0.0400073 0.0305675 0.0812273 0.0508433 0.0405303 0.00423764 0.0116495 -0.0203875 0.00105316 -0.0443926 -0.0138278 -0.0207327 0.0537174 0.0351196 0.0724261 -0.0359145 -0.0556592 -0.0164536
internal_weight=2272.76 1200.47 1072.29 1010.8 255.085 140.574 189.662 72.2277 938.115 134.179 68.346 124.331 63.0849 111.02 91.7682 755.718 40.8922 81.0261 21.5947 19.1194 78.6428 33.0314 61.2463 52.854 47.3814 59.4314 29.8039 29.6274 45.6115 146.46 12.7419
internal_count=9351 7400 1951 6540 1429 651 860 228 1476 475 423 412 248 594 462 5111 234 433 90 85 266 135 164 187 158 343 153 190 131 330 46
is_linear=0
shrinkage=0.05


Tree=5
num_leaves=32
num_cat=0
split_feature=0 8 8 6 6 1 0 0 7 7 0 8 0 5 0 8 0 6 6 5 3 1 8 4 4 4 8 1 5 7 6
split_gain=3742.7 195.911 175.188 86.1163 98.192 107.563 61.4113 35.3749 34.7901 28.3836 26.3219 25.5697 18.6137 15.5197 15.0636 20.512 14.8012 14.6519 16.3961 13.8177 12.0586 11.0573 12.6481 8.72767 16.3209 10.6281 12.0177 7.75501 9.01321 7.60603 7.25803
threshold=9.5000000000000018 24.640000000000004 1.0000000180025095e-35 1079.5000000000002 1331.5000000000002 3.3500000000000001 31.500000000000004 5.5000000000000009 66.550000000000011 66.550000000000011 2.5000000000000004 150.33900000000003 13.500000000000002 75572.500000000015 14.500000000000002 71.637500000000017 1.5000000000000002 196.50000000000003 1163.5000000000002 46272.000000000007 13301.500000000002 3.0500000000000003 239.65700000000001 13472.000000000002 11453.500000000002 10721.500000000002 9.9775000000000009 4.2500000000000009 73888.000000000015 70.40000000000002 1217.5000000000002
decision_type=2 2 2 2 2 2 2 2 2 2 2 2 2 2 2 2 2 2 2 2 2 2 2 2 2 2 2 2 2 2 2
left_child=2 6 10 14 5 8 12 16 20 -7 -1 -9 -2 -8 15 -3 -4 -15 -19 -14 -5 -18 27 24 25 26 -21 28 -23 -12 -30
right_child=1 3 7 4 -6 9 13 11 -10 -11 29 -13 19 17 -16 -17 21 18 -20 23 -22 22 -24 -25 -26 -27 -28 -29 30 -31 -32
leaf_value=-0.080398394966592832 -0.034270802559097029 -0.010747666872446099 -0.075990701943944972 -0.022057547926780816 0.079379309306547435 -0.0076518776353902106 0.063079965683363326 -0.0084126826492035168 -0.040963776584866739 0.077076586413011822 -0.04307853502561123 0.066764697221121577 -0.048139404601446958 -0.045937885614014934 0.080182098578125277 0.070083832061107063 -0.056077453914023245 0.076315157455880175 -0.025881693603324964 -0.015536290931712927 0.088934672191139361 0.028147164620451876 0.059267411945789078 0.054103420428081722 -0.039081078319681752 0.07359129342005713 0.069925268834741747 -0.046992260274488572 0.0094237613850234186 -0.067434834957203718 -0.064306756264081374
leaf_weight=770.5414973795414 45.41527047753334 10.651122808456419 21.119481712579727 3.5585612207651121 112.64459204673767 12.028715014457701 54.083229228854179 48.159055858850479 60.602485597133636 55.446174263954163 60.574323564767838 14.782659739255903 9.5287150889635068 7.0251919627189663 702.95525640249252 29.827622950077057 24.437679842114449 10.993826091289522 6.1036335080862036 15.066107675433164 7.8347830921411514 11.238384008407595 5.1401508897542945 12.345691487193106 13.516840785741804 8.7209540307521802 5.6585763841867438 19.701882004737854 5.8882075846195203 68.077320516109467 7.7062403410673141
leaf_count=1133 131 40 34 12 778 45 336 176 163 378 155 93 25 20 4877 194 57 71 22 54 53 52 31 72 40 55 34 51 24 128 17
internal_value=3.68567e-06 0.0610615 -0.0683669 0.0699105 0.0446581 0.0166153 0.0143153 -0.0198416 -0.0258934 0.0619721 -0.0769029 0.00924368 -0.00972353 0.0482044 0.0784742 0.0488147 -0.0390649 0.0148533 0.0398318 0.0074707 0.0542677 -0.0285423 -0.0149963 0.0170514 0.00640418 0.0272839 0.00779776 -0.0235677 -0.00498315 -0.0559669 -0.0323716
internal_weight=2241.37 1184.01 1057.37 995.549 252.115 139.471 188.458 158.174 71.9958 67.4749 899.193 62.9417 110.252 78.2059 743.434 40.4787 95.232 24.1227 17.0975 64.8369 11.3933 74.1125 49.6749 55.3082 42.9625 29.4456 20.7247 44.5347 24.8328 128.652 13.5944
internal_count=9351 7400 1951 6540 1429 651 860 535 228 423 1416 269 411 449 5111 234 266 113 93 280 65 232 175 255 183 143 88 144 93 283 41
is_linear=0
shrinkage=0.05


Tree=6
num_leaves=32
num_cat=0
split_feature=0 8 8 6 6 1 0 4 0 7 0 8 7 1 3 8 0 8 0 3 1 8 7 8 7 0 6 8 1 1 5
split_gain=3435.1 183.023 164.288 80.5736 91.252 95.3269 56.3143 34.4669 32.1945 26.09 25.7763 23.3581 17.294 23.7446 14.9614 16.0397 14.3944 19.741 13.8488 11.046 10.0814 11.4882 8.87887 9.21478 8.64681 8.36722 12.3092 7.27712 7.21204 7.04864 8.14255
threshold=9.5000000000000018 24.640000000000004 1.0000000180025095e-35 1079.5000000000002 1325.5000000000002 3.3500000000000001 19.500000000000004 12764.500000000002 5.5000000000000009 66.550000000000011 1.5000000000000002 150.33900000000003 66.450000000000017 3.0500000000000003 8913.0000000000018 1.2755000000000003 14.500000000000002 157.53750000000002 1.5000000000000002 10193.500000000002 3.0500000000000003 239.65700000000001 69.15000000000002 3.4510000000000005 67.000000000000014 13.500000000000002 953.50000000000011 12.011000000000001 3.1500000000000008 4.2500000000000009 73888.000000000015
decision_type=2 2 2 2 2 2 2 2 2 2 2 2 2 2 2 2 2 2 2 2 2 2 2 2 2 2 2 2 2 2 2
left_child=2 6 10 16 5 7 25 28 18 -7 -1 -10 -8 -14 15 -15 17 19 -4 -3 -20 29 24 -24 -16 27 -27 -2 -5 30 -22
right_child=1 3 8 4 -6 9 12 -9 11 -11 -12 -13 13 14 22 -17 -18 -19 20 -21 21 -23 23 -25 -26 26 -28 -29 -30 -31 -32
leaf_value=-0.078940474296563465 -0.041259850948597507 0.064082695991775615 -0.073450767908944045 0.082468914656539924 0.076048766700200762 -0.007270671953197529 0.080638116319801112 -0.041047361736587372 -0.0079965394230580057 0.074375921489841429 -0.058292023329921797 0.064177410677850211 -0.046429073553315992 -0.049214128815845248 0.014137434721954369 0.039364514223228259 0.077695089766866635 0.080187238413823081 -0.053620404717347948 -0.016932890955566753 0.026701327501424867 0.056834573687280482 -0.0064317330139476245 0.050887173207076752 0.08194872346070764 -0.020160550709663383 0.045855336037177098 0.014179374335628939 0.0043186717713019603 -0.0448447466319511 -0.030828380994614615
leaf_weight=689.64047805964947 38.246251106262207 6.2909560501575497 20.766221284866333 7.3581346273422223 113.6732904613018 12.026481807231901 18.699444070458412 58.156077116727829 48.132699012756348 52.486017763614655 193.56370523571968 14.61394542455673 9.6229362189769727 9.2034749239683169 5.8484186232090023 11.492396637797354 689.52251598238945 21.073443815112114 24.28349007666111 12.702953174710272 11.254144072532656 5.0933533012866965 10.955988183617594 19.477005481719971 23.961628884077072 22.598268881440163 10.270153343677519 7.0030686110258094 4.9301642328500748 19.615271091461182 13.562993183732031
leaf_count=1015 100 39 34 45 796 45 132 157 176 364 401 93 26 23 28 62 4877 149 57 46 52 31 42 113 168 77 58 31 22 51 41
internal_value=4.75574e-06 0.0589538 -0.06603 0.0676252 0.0430435 0.0152435 0.0136842 -0.0249707 -0.0189559 0.0591553 -0.0744151 0.00881306 0.0368614 0.0278223 0.0366501 -2.64975e-05 0.0760021 0.0468677 -0.0373794 0.00990021 -0.0272307 -0.0142913 0.04925 0.0302522 0.0686449 -0.0187331 0.000466946 -0.0326797 0.0511144 -0.0224446 -0.00473965
internal_weight=2206.13 1165.6 1040.53 978.22 248.63 134.957 187.379 70.4444 157.322 64.5125 883.204 62.7466 109.261 90.5618 80.9389 20.6959 729.59 40.0674 94.5755 18.9939 73.8093 49.5258 60.243 30.433 29.81 78.1177 32.8684 45.2493 12.2883 44.4324 24.8171
internal_count=9351 7400 1951 6540 1429 633 860 224 535 409 1416 269 594 462 436 85 5111 234 266 85 232 175 351 155 196 266 135 131 67 144 93
is_linear=0
shrinkage=0.05


Tree=7
num_leaves=32
num_cat=0
split_feature=0 8 8 6 6 1 0 7 0 8 0 7 0 7 8 0 8 5 3 0 3 2 3 2 2 4 4 4 8 2 8
split_gain=3158.98 171.252 154.663 75.9312 85.2274 90.477 51.569 31.3347 29.5505 32.989 25.4326 24.6413 15.19 14.0521 14.0137 13.7607 18.4852 12.0337 11.5136 10.3958 10.2113 9.46722 8.22867 7.9136 8.35887 7.47692 14.5589 9.39971 10.6334 6.85193 6.62291
threshold=9.5000000000000018 24.640000000000004 1.0000000180025095e-35 1079.5000000000002 1331.5000000000002 3.3500000000000001 31.500000000000004 66.550000000000011 4.5000000000000009 150.33900000000003 3.5000000000000004 66.550000000000011 13.500000000000002 69.15000000000002 6.3755000000000015 14.500000000000002 157.53750000000002 46272.000000000007 13301.500000000002 1.5000000000000002 11283.000000000002 42.850000000000001 17978.500000000004 43.050000000000004 39.550000000000004 13472.000000000002 11453.500000000002 10721.500000000002 9.9775000000000009 39.95000000000001 12.011000000000001
decision_type=2 2 2 2 2 2 2 2 2 2 2 2 2 2 2 2 2 2 2 2 2 2 2 2 2 2 2 2 2 2 2
left_child=2 6 10 15 5 7 12 18 19 22 -1 -7 30 21 -15 16 20 -14 -5 -4 -3 29 23 24 -10 26 27 28 -19 -8 -2
right_child=1 3 8 4 -6 11 13 -9 9 -11 -12 -13 17 14 -16 -17 -18 25 -20 -21 -22 -23 -24 -25 -26 -27 -28 -29 -30 -31 -32
leaf_value=-0.074995716815130065 -0.039446332407483832 0.052333274445187733 -0.071142708150684117 -0.021838794980332948 0.074668576394618949 -0.0069085826162653121 0.023027608097073913 -0.038052165882426048 0.021188580362263853 0.065313615614072659 -0.046288853218570243 0.072320307118518584 -0.045420451817817967 -0.016527202306237759 0.050020274113187747 0.075460201196662108 0.077861120953121851 -0.01459939369123716 0.086787718654231516 -0.029342574639185545 -0.02199685251267669 -0.011504321445499621 0.045244423160243942 0.035153988962173553 -0.033728200740637669 0.050255035498432389 -0.037234412250978101 0.069603283436673519 0.066092321007531457 0.078691899065850529 0.013474877733767522
leaf_weight=780.13474716246128 38.010403692722321 8.0072540938854235 20.377772614359856 3.5574933886527997 108.24684262275696 12.02403402328491 6.590630128979682 60.01641383767128 8.2106228172779065 16.766796365380287 85.621930256485939 53.387993454933167 9.4592989832162839 14.759550407528879 17.048997029662132 674.81846661865711 20.629080593585968 15.02436095476151 7.7612778842449188 55.078322321176529 10.924368143081663 3.9324544817209235 5.4616228789091101 6.0662746727466574 44.394723877310753 12.147839203476904 13.458326652646063 8.5790373831987363 5.6062444001436225 34.301128417253494 7.0008000135421744
leaf_count=1211 100 47 34 12 778 45 33 163 36 109 205 378 25 52 102 4877 149 54 53 169 38 15 29 29 129 72 40 55 34 247 31
internal_value=6.15821e-06 0.0570311 -0.0638911 0.0655424 0.0415224 0.0152844 0.0131112 -0.023661 -0.0181239 0.00286871 -0.0721567 0.0577565 -0.00893975 0.0445581 0.0191414 0.07378 0.0451192 0.00665956 0.0526464 -0.0406312 0.00944156 0.0625945 -0.0134567 -0.0189211 -0.0251568 0.0156468 0.00579356 0.0256187 0.0073281 0.0697203 -0.0312153
internal_weight=2167.41 1145.29 1022.11 959.373 244.994 136.747 185.919 71.3352 156.356 80.9 865.757 65.412 109.286 76.6328 31.8085 714.379 39.5607 64.2751 11.3188 75.4561 18.9316 44.8242 64.1332 58.6716 52.6053 54.8158 42.668 29.2096 20.6306 40.8918 45.0112
internal_count=9351 7400 1951 6540 1429 651 860 228 535 332 1416 423 411 449 154 5111 234 280 65 203 85 295 223 194 165 255 183 143 88 280 131
is_linear=0
shrinkage=0.05


Tree=8
num_leaves=32
num_cat=0
split_feature=0 8 8 6 6 1 0 0 4 8 7 7 3 0 0 8 3 7 7 6 7 3 8 8 8 2 0 8 7 0 1
split_gain=2910.12 160.867 146.476 71.6586 79.6418 83.0942 47.5068 34.5003 30.7178 24.3616 23.0695 15.4673 21.3951 14.818 13.3126 20.3492 15.0644 12.4315 11.9268 16.863 10.2024 10.9272 9.38463 9.04144 8.96275 8.11619 9.04002 7.52206 7.35241 6.984 6.97159
threshold=9.5000000000000018 24.640000000000004 4.3550000000000013 1079.5000000000002 1331.5000000000002 3.3500000000000001 19.500000000000004 3.5000000000000004 12764.500000000002 420.95100000000008 66.550000000000011 66.450000000000017 16064.500000000002 1.5000000000000002 17.500000000000004 164.53650000000002 11283.000000000002 73.250000000000014 67.65000000000002 1019.5000000000001 66.450000000000017 17300.500000000004 18.990500000000004 1.2755000000000003 24.640000000000004 42.650000000000013 5.5000000000000009 151.91400000000002 66.15000000000002 13.500000000000002 3.1500000000000008
decision_type=2 2 2 2 2 2 2 2 2 2 2 2 2 2 2 2 2 2 2 2 2 2 2 2 2 2 2 2 2 2 2
left_child=2 6 7 14 5 8 28 -1 30 13 -7 -8 18 -4 15 16 -3 20 22 -20 24 25 -13 -21 -15 -22 -27 -26 -2 -30 -5
right_child=1 3 9 4 -6 10 11 -9 -10 -11 -12 12 -14 17 -16 -17 -18 -19 19 23 21 -23 -24 -25 27 26 -28 -29 29 -31 -32
leaf_value=-0.07287047803259776 0.029190356081811641 0.060553594826278138 -0.066117769919020394 0.080135393973564603 0.072634958909643915 -0.0065646196470172807 0.076526797469066682 -0.041760438955200603 -0.037660730141697407 0.057410957375020569 0.070257740041119718 0.07782757627162401 -0.04105227836769932 -0.023099854236618651 0.074056845594103915 0.075510248466953159 -0.0095335077858618323 0.060478601107568711 0.039239164543525218 -0.062202143457648323 -0.023657222495242259 -0.068045892726943877 0.0019290924988905876 0.014281970537242693 0.088772280500924283 -0.01572296425098399 0.072474930619482972 -0.007754406611765104 -0.035969579777524435 -0.0039578953289149763 0.0030714454611460991
leaf_weight=772.2754352837801 7.6730215698480597 13.589419141411783 14.638675481081007 7.3623113036155683 105.77622175216675 12.02141350507736 17.93176557123661 100.74245616793633 58.642086580395699 11.430896192789076 52.236741274595261 20.442188769578937 10.597943529486654 6.5978329032659522 628.93120233714581 38.00723934173584 17.591617166996002 5.5425248295068732 37.438047528266907 7.504058822989462 58.783131882548332 11.78135225176811 5.0861029475927344 7.9656458795070648 5.6116215437650663 6.8615179359912855 5.0388820320367813 3.1518977731466293 40.12450709939003 29.613207578659058 4.8799818903207779
leaf_count=1229 37 89 26 45 778 45 132 252 161 73 378 149 29 21 4664 282 76 34 206 16 190 21 23 39 38 23 30 14 111 118 22
internal_value=7.84638e-06 0.0552689 -0.0619212 0.0636528 0.0401407 0.0147073 0.0125695 -0.0692805 -0.0226218 -0.0122847 0.0558858 0.0341605 0.0256278 -0.0190359 0.0717668 0.0509496 0.0210121 -0.0123683 0.0346373 0.021094 -0.0164956 -0.0234646 0.062706 -0.022819 0.0209165 -0.016034 0.0216219 0.0540554 -0.0172649 -0.0223762 0.0494164
internal_weight=2125.87 1123.41 1002.46 939.038 240.919 135.143 184.376 873.018 70.8844 129.438 64.2582 106.966 89.034 118.007 698.119 69.1883 31.181 103.369 78.436 52.9078 97.8262 82.4649 25.5283 15.4697 15.3614 70.6835 11.9004 8.76352 77.4107 69.7377 12.2423
internal_count=9351 7400 1951 6540 1429 651 860 1481 228 470 423 594 462 397 5111 447 165 371 433 261 337 264 172 55 73 243 53 52 266 229 67
is_linear=0
shrinkage=0.05


Tree=9
num_leaves=32
num_cat=0
split_feature=0 8 8 6 6 1 0 7 0 0 8 7 0 8 7 8 0 3 5 5 5 0 0 2 3 3 2 6 2 3 8
split_gain=2684.71 151.689 139.039 67.9738 74.6945 76.4021 43.4842 28.2449 25.4727 25.4649 28.6993 21.6576 12.9777 17.071 12.8277 12.4835 12.4759 10.9896 10.6083 9.40618 16.7969 9.40841 9.35481 8.4784 7.02687 7.22261 7.94213 6.92834 6.69347 6.55316 12.215
threshold=9.5000000000000018 24.640000000000004 1.0000000180025095e-35 1079.5000000000002 1331.5000000000002 3.3500000000000001 31.500000000000004 66.550000000000011 1.5000000000000002 4.5000000000000009 150.33900000000003 66.550000000000011 14.500000000000002 71.637500000000017 69.15000000000002 6.3755000000000015 13.500000000000002 13301.500000000002 55154.000000000007 76992.500000000015 86896.500000000015 15.500000000000002 1.5000000000000002 42.850000000000001 17978.500000000004 17300.500000000004 42.650000000000013 1019.5000000000001 39.550000000000004 17300.500000000004 72.884000000000015
decision_type=2 2 2 2 2 2 2 2 2 2 2 2 2 2 2 2 2 2 2 2 2 2 2 2 2 2 2 2 2 2 2
left_child=2 6 8 12 5 7 16 17 -1 22 24 -7 13 -3 23 -16 -2 -5 27 21 -21 -20 -4 -8 25 26 28 -18 -11 30 -24
right_child=1 3 9 4 -6 11 14 -9 -10 10 -12 -13 -14 -15 15 -17 18 -19 19 20 -22 -23 29 -25 -26 -27 -28 -29 -30 -31 -32
leaf_value=-0.072935107121997161 -0.02850164794791666 -0.012444488834953501 -0.067311784934065907 -0.021569104325371468 0.070784615031166467 -0.0062378533936583731 0.066050071299532512 -0.035366776982489703 -0.051871587629101878 0.021230841365372788 0.062078564503480406 0.068368267174237551 0.071618096433449227 0.062212194930236379 -0.016467100598608456 0.046639740194835015 -0.0015804356216098923 0.084770867481582787 -0.012115439856450741 -0.057724018841521091 0.04018874405207512 0.05675517156823684 -0.031718289329878871 -0.011246327954290553 0.042401264528420052 -0.066544226275659743 0.033924011435035643 -0.062266062983066001 -0.028957686566742594 -0.059451813708999893 0.033734323516447527
leaf_weight=642.68800073862076 44.553009197115898 10.55620154738426 19.54449500143528 3.5548082143068296 103.18003714084625 12.018659949302672 39.314662218093872 59.310596108436584 184.80662687122822 8.1887356489896757 16.376183956861496 51.027086466550827 642.64135728776455 27.880381405353546 14.72782474756241 16.747952774167061 12.770022869110109 7.6754096001386642 6.6779722124338177 8.6936574131250399 8.8280473947525007 19.264088168740273 33.384120956063271 3.8994792252778998 5.4042545408010474 6.5781609416007987 8.2903990596532804 7.4454118162393561 35.200066342949867 12.102464735507963 9.0633973479270917
leaf_count=1015 131 40 34 12 778 45 280 163 401 36 109 378 4877 194 52 102 51 53 26 20 49 118 96 15 29 12 40 16 106 27 46
internal_value=9.38924e-06 0.0536215 -0.0601096 0.0619075 0.0388297 0.0141482 0.0120447 -0.0215995 -0.0682309 -0.0165081 0.0030461 0.0541458 0.0699302 0.0417085 0.0413908 0.0171114 -0.00820668 0.0511101 0.00599264 0.0199105 -0.00839215 0.0390266 -0.0376307 0.0590751 -0.0121393 -0.0171987 -0.0109176 -0.0239312 -0.0194856 -0.0269964 -0.0177428
internal_weight=2082.39 1100.77 981.627 917.845 236.767 133.587 182.922 70.5408 827.495 154.132 80.0378 63.0457 681.078 38.4366 74.6899 31.4758 108.232 11.2302 63.6792 43.4638 17.5217 25.9421 74.0945 43.2141 63.6616 58.2574 51.6792 20.2154 43.3888 54.55 42.4475
internal_count=9351 7400 1951 6540 1429 651 860 228 1416 535 332 423 5111 234 449 154 411 65 280 213 69 144 203 295 223 194 182 67 142 169 142
is_linear=0
shrinkage=0.05


Tree=10
num_leaves=32
num_cat=0
split_feature=0 8 8 6 6 1 0 1 7 0 8 7 0 7 1 0 8 3 3 8 8 3 7 7 8 8 8 0 7 1 8
split_gain=2480.15 143.403 132.062 64.5461 70.1512 70.3334 40.3075 28.0521 34.5929 25.3383 23.5876 20.382 16.9367 14.0182 18.8576 12.8466 19.1993 14.0719 11.0432 12.2763 10.7644 10.1443 7.68977 7.24216 8.02611 7.46686 6.98675 6.62831 6.58363 6.90147 6.99599
threshold=9.5000000000000018 24.640000000000004 1.0000000180025095e-35 1079.5000000000002 1331.5000000000002 3.3500000000000001 19.500000000000004 2.7500000000000004 66.550000000000011 2.5000000000000004 420.95100000000008 66.550000000000011 4.5000000000000009 66.450000000000017 3.0500000000000003 17.500000000000004 164.53650000000002 11283.000000000002 8913.0000000000018 1.2755000000000003 150.33900000000003 13301.500000000002 70.40000000000002 69.15000000000002 18.990500000000004 9.9775000000000009 292.70450000000005 1.5000000000000002 66.15000000000002 3.2500000000000004 8.7025000000000023
decision_type=2 2 2 2 2 2 2 2 2 2 2 2 2 2 2 2 2 2 2 2 2 2 2 2 2 2 2 2 2 2 2
left_child=2 6 9 15 5 7 28 -5 21 -1 12 -7 27 -8 -15 16 17 -3 19 -16 -14 -9 -11 24 -20 -25 -22 -4 -2 -30 -31
right_child=1 3 10 4 -6 11 13 8 -10 22 -12 -13 20 14 18 -17 -18 -19 23 -21 26 -23 -24 25 -26 -27 -28 -29 29 30 -32
leaf_value=-0.070215435788924183 0.028126065733257512 0.057254186222446726 -0.064701122590396606 0.07617395972676938 0.069093326542757946 -0.0059274038966152234 0.07316436337705047 -0.020503471414218939 -0.048051561396246868 -0.032122416692813474 0.054273810985145582 0.066628756633103262 -0.011577595449566352 -0.043052511796255619 -0.043527950937455706 0.07057418924168625 0.072130086650430456 -0.011191417536528876 0.074711206745698186 0.034800340588482463 0.080865451746508457 0.081966563131556119 -0.057369722215861875 0.0048135658181871479 0.0077476026285884618 0.05566464689764869 -0.011565180275760058 -0.029685929269185608 -0.041442298834618148 -0.020770667140737751 0.024475077800911488
leaf_weight=686.20128048956394 7.6396741122007361 13.199660047888758 18.374589771032333 6.7567597031593314 100.48871958255768 12.015803396701811 17.106748834252357 3.5526379346847516 52.188743159174919 57.36622354388237 11.129842475056646 49.7731753885746 63.436393857002258 9.4450294971466047 9.0006048530340212 596.68716537952423 36.131485491991043 17.419190406799316 22.253376275300983 11.260688677430151 5.6318946033716184 7.5443917363882065 63.591966569423676 17.507393851876262 5.6009927392005912 12.284331038594244 3.2096432745456696 51.107628673315048 25.525444746017456 32.088893696665764 11.643449947237967
leaf_count=1133 37 89 33 41 778 45 132 12 122 155 73 378 223 26 23 4664 282 76 169 62 40 53 128 75 27 80 15 151 70 104 55
internal_value=1.0777e-05 0.0520957 -0.0584251 0.0603047 0.0376234 0.0136355 0.0115498 -0.0206662 -0.0310055 -0.0664961 -0.015816 0.0525191 -0.0213189 0.0317743 0.0236686 0.0682471 0.0474448 0.0183152 0.0317575 4.8326e-06 -0.00437388 0.0491615 -0.0453958 0.0429179 0.0612461 0.0257815 0.0473114 -0.0389457 -0.0159237 -0.0207827 -0.00872428
internal_weight=2037.16 1077.11 960.049 895.758 232.32 131.832 181.357 70.0425 63.2858 807.159 152.89 61.789 141.76 104.459 87.3524 663.438 66.7503 30.6189 77.9074 20.2613 72.2779 11.097 120.958 57.6461 27.8544 29.7917 8.84154 69.4822 76.8975 69.2578 43.7323
internal_count=9351 7400 1951 6540 1429 651 860 228 187 1416 535 423 462 594 462 5111 447 165 436 85 278 65 283 351 196 155 55 184 266 229 159
is_linear=0
shrinkage=0.05


Tree=11
num_leaves=32
num_cat=0
split_feature=0 8 8 6 6 1 0 4 0 0 7 8 0 8 3 5 6 6 0 0 5 1 8 3 1 5 6 3 4 4 4
split_gain=2293.92 135.938 126.088 61.3119 66.165 59.3579 36.9387 26.1532 25.4726 21.8083 18.4865 15.2858 12.5769 18.3657 12.9415 11.9841 11.6723 14.2523 10.8015 10.4312 9.65289 8.78242 8.7046 8.5281 6.5351 7.22991 6.49622 6.3797 9.77455 5.84617 12.2278
threshold=9.5000000000000018 24.640000000000004 1.0000000180025095e-35 1079.5000000000002 1301.5000000000002 3.3500000000000001 31.500000000000004 12764.500000000002 1.5000000000000002 5.5000000000000009 66.550000000000011 150.33900000000003 17.500000000000004 164.53650000000002 11283.000000000002 75572.500000000015 196.50000000000003 1163.5000000000002 13.500000000000002 1.5000000000000002 46272.000000000007 3.0500000000000003 239.65700000000001 13301.500000000002 4.2500000000000009 73888.000000000015 1217.5000000000002 14326.500000000002 14035.000000000002 13472.000000000002 11453.500000000002
decision_type=2 2 2 2 2 2 2 2 2 2 2 2 2 2 2 2 2 2 2 2 2 2 2 2 2 2 2 2 2 2 2
left_child=2 6 8 12 5 7 18 23 -1 19 -7 -11 13 14 -3 -8 -17 -18 -2 -4 -20 -21 24 -5 25 -23 -27 -16 -29 30 -22
right_child=1 3 9 4 -6 10 15 -9 -10 11 -12 -13 -14 -15 27 16 17 -19 20 21 29 22 -24 -25 -26 26 -28 28 -30 -31 -32
leaf_value=-0.069777577761467369 -0.026531746039413037 0.05530809101490243 -0.0640328293417399 -0.019494192445147503 0.065450370609579575 -0.0056324479918834032 0.052465892759678612 -0.035673474895570281 -0.048298938706982569 -0.0054337837164453234 0.064378208709389623 0.054654156947438928 0.069052419181782537 0.070590200695579877 -0.046123689504039028 -0.045727828245522309 0.067569553986678008 -0.030189200489852103 -0.041403190365414684 -0.047213184590710541 0.023474878951124697 0.029706151841848279 0.052847007318218925 0.072687329509536325 -0.038945752290072022 0.01490856188257036 -0.055570746760721101 0.061223501595026743 -0.037291650562236781 0.045031186703197085 -0.034570857548910511
leaf_weight=607.61526463925838 44.161655887961388 12.986358135938646 18.643357738852501 3.5498130768537512 105.77119852602482 12.012873888015745 49.573546946048737 53.819505155086517 178.61618818342686 47.585489585995674 43.837701603770256 13.611658230423926 579.77406623959541 35.099839746952057 7.3327555358409908 6.8795161098241833 10.265849366784098 5.8545904308557501 9.2679109275341016 23.429688900709152 28.700235486030579 11.168459638953211 4.9564303904771796 8.5575032234191877 19.159183651208878 5.7940717637538892 7.5035906434059143 5.3815085589885694 4.7316678464412689 11.746387973427771 13.267042741179464
leaf_count=1015 131 89 34 12 827 45 336 149 401 176 341 93 4664 282 24 20 71 22 25 57 143 52 31 55 51 24 17 34 18 72 40
internal_value=1.25895e-05 0.0506831 -0.056842 0.0588365 0.0365205 0.0113931 0.0110834 -0.0207367 -0.0648981 -0.015131 0.0493196 0.00793116 0.0667056 0.0459433 0.0175163 0.0386263 0.00879689 0.0320657 -0.00757278 -0.0306993 0.00572095 -0.0220695 -0.00994331 0.0456601 -0.0170771 4.79479e-05 -0.0248614 -0.0106151 0.0151311 0.0138519 0.00512498
internal_weight=1990.65 1052.57 938.083 872.855 227.549 121.777 179.717 65.9268 786.231 151.852 55.8506 61.1971 645.306 65.5321 30.4323 72.5735 23 16.1204 107.143 90.6548 62.9816 72.0114 48.5817 12.1073 43.6253 24.4661 13.2977 17.4459 10.1132 53.7137 41.9673
internal_count=9351 7400 1951 6540 1429 602 860 216 1416 535 386 269 5111 447 165 449 113 93 411 266 280 232 175 67 144 93 41 76 52 255 183
is_linear=0
shrinkage=0.05


Tree=12
num_leaves=32
num_cat=0
split_feature=0 8 8 6 6 1 0 8 7 0 6 3 2 3 6 6 0 2 6 6 6 2 2 3 0 0 5 5 5 5 3
split_gain=2123.34 211.608 63.0673 49.1718 59.6122 63.8939 44.2036 32.4598 19.4439 15.9145 14.3178 12.6268 27.1483 11.0096 10.7558 13.7202 10.2901 10.7723 10.3034 9.8786 15.7061 8.99196 12.1117 8.77845 8.61268 8.46959 7.30049 8.12433 8.53748 9.20807 7.6772
threshold=13.500000000000002 4.3550000000000013 29.236500000000003 1079.5000000000002 1331.5000000000002 3.3500000000000001 3.5000000000000004 235.88650000000004 66.550000000000011 31.500000000000004 581.50000000000011 13891.500000000002 42.250000000000007 13891.500000000002 196.50000000000003 1163.5000000000002 7.5000000000000009 41.850000000000001 419.50000000000006 1103.5000000000002 1343.5000000000002 43.050000000000004 42.850000000000001 13301.500000000002 5.5000000000000009 1.5000000000000002 46272.000000000007 76992.500000000015 86896.500000000015 89902.500000000015 9930.5000000000018
decision_type=2 2 2 2 2 2 2 2 2 2 2 2 2 2 2 2 2 2 2 2 2 2 2 2 2 2 2 2 2 2 2
left_child=1 6 9 -4 5 8 -1 10 23 26 16 -7 -13 -11 -15 -16 18 -18 -3 -9 -21 22 25 -5 -23 -12 -2 30 -29 -30 -28
right_child=2 7 3 4 -6 11 -8 19 -10 13 21 12 -14 14 15 -17 17 -19 -20 20 -22 24 -24 -25 -26 -27 27 28 29 -31 -32
leaf_value=-0.066417973794955149 -0.034150731504957427 -0.02539807901334859 0.066874692736659955 -0.018537537582671359 0.069246040352884397 0.068115372225360349 -0.03425285319835069 0.061342934274615291 -0.031790762106311182 0.052233810098960699 -0.061308409925563169 -0.06569899348615002 0.080872206193683044 -0.039681364428963591 0.065663716894482582 -0.017875149236463522 0.079201600328616659 -0.0096435064558208564 0.054059741822654966 -0.042551256579395687 0.075342403556062976 -0.027570169118642442 -0.065007375689883004 0.079582565062800537 0.054314962827629036 -0.012238624822083951 0.00054692277733317475 -0.049961815848086615 0.078698267833972324 -0.018872824702334322 0.045729780784162552
leaf_weight=693.66153179109097 9.6983545273542386 17.19937796890736 588.42124709486961 3.5464413613080961 88.995016098022461 41.264441981911659 126.25533027946949 22.49031326174736 52.36240166425705 53.076994948089123 10.031692430377005 6.0340478122234327 6.6311510801315308 7.1140032112598446 12.099503710865976 8.2774347364902479 9.448435463011263 5.3400471508502951 5.348643794655799 7.0359545871615392 4.7203561812639236 5.7734973728656751 16.731974139809608 6.3809013962745667 7.2356688156723976 71.260332301259041 16.63971896469593 8.8190901800990122 3.8174277096986753 6.5963525623083115 21.612613223493099
leaf_count=1229 29 53 4854 12 736 330 334 168 147 371 19 13 51 22 88 38 63 21 29 25 36 17 32 46 42 268 71 22 28 26 131
internal_value=1.39218e-05 -0.050624 0.0539409 0.0595249 0.0384504 0.0148685 -0.061465 -0.00194946 -0.0196272 0.023947 -0.0120771 0.0547118 0.0110417 0.0389318 0.0132496 0.0317289 0.0147081 0.0471201 -0.00654979 0.0419275 0.00478503 -0.021084 -0.0262676 0.0445302 0.0179742 -0.018294 0.00597691 0.0127469 -0.0137621 0.0168943 0.0260753
internal_weight=1943.92 1002.53 941.387 793.636 205.214 116.219 819.917 182.616 62.2897 147.751 148.37 53.9296 12.6652 80.5679 27.4909 20.3769 37.3365 14.7885 22.548 34.2466 11.7563 111.033 98.024 9.92734 13.0092 81.292 67.1836 57.4852 19.2329 10.4138 38.2523
internal_count=9351 2336 7015 6189 1335 599 1563 773 205 826 544 394 64 519 148 126 166 84 82 229 61 378 319 58 59 287 307 278 76 54 202
is_linear=0
shrinkage=0.05


Tree=13
num_leaves=32
num_cat=0
split_feature=0 8 0 6 6 0 1 8 4 4 4 4 0 8 6 2 7 7 7 8 0 1 8 7 4 2 3 7 1 6 4
split_gain=1969.66 186.235 63.1681 59.5683 64.6747 53.6583 52.9678 27.7712 26.8693 34.7761 16.4955 25.2922 13.9132 18.2477 13.713 13.0423 12.6154 16.4857 14.5086 21.1052 11.8748 11.0878 11.4012 9.15339 9.34542 8.83181 8.08187 8.05727 7.36928 7.72577 12.1709
threshold=6.5000000000000009 29.236500000000003 1.5000000000000002 1079.5000000000002 1331.5000000000002 19.500000000000004 3.3500000000000001 1.9105000000000001 14756.500000000002 12764.500000000002 12659.500000000002 11981.000000000002 15.500000000000002 157.53750000000002 599.50000000000011 42.95000000000001 66.450000000000017 67.000000000000014 67.65000000000002 9.9775000000000009 15.500000000000002 3.0500000000000003 384.8685000000001 66.15000000000002 11453.500000000002 42.650000000000013 10887.000000000002 72.250000000000014 4.5500000000000007 1217.5000000000002 11188.000000000002
decision_type=2 2 2 2 2 2 2 2 2 2 2 2 2 2 2 2 2 2 2 2 2 2 2 2 2 2 2 2 2 2 2
left_child=2 5 -1 12 6 15 8 -4 9 26 11 20 13 14 -3 23 -7 -18 -19 27 -8 -9 28 25 -25 -2 -5 -20 29 30 -23
right_child=1 3 7 4 -6 16 10 21 -10 -11 -12 -13 -14 -15 -16 -17 17 18 19 -21 -22 22 -24 24 -26 -27 -28 -29 -30 -31 -32
leaf_value=-0.066979406772461378 -0.016702720369884492 0.053287117166063637 -0.04855182306470824 -0.017630160477505218 0.065410016906226665 0.069943077388688268 -0.023283017067810798 -0.041045627567744464 0.081874444072171496 -0.045915173238299592 0.071318589885837294 -0.066197907205631581 0.066182790904330116 0.069074236067741976 -0.016330706174077694 0.054825639314378109 -0.030337464053761021 0.07030290239672031 -0.018077971535515474 0.051732670239096092 0.064152132157469025 0.095814579489467866 0.074407330475765962 -0.011243270283576594 -0.040594054966303063 0.066987436714259316 0.071350978143966834 0.045181531825095829 -0.034132178295032109 -0.015636317026263748 0.001902042175909449
leaf_weight=589.28128132224083 7.1691263914108259 12.093190878629686 153.65999060869217 3.5426167249679557 93.14705029129982 17.596988923847675 5.0179692655801835 23.172012105584145 6.1085102111101142 52.034965232014656 30.487201817333698 6.7423264980316153 554.98781947046518 28.034646257758141 17.040862113237381 6.1295721009373656 12.225710339844225 18.912741862237453 27.566998817026615 28.836925618350506 17.172604724764824 5.0851410627365103 4.7273416817188254 59.607990883290768 49.760994769632816 5.6264499127864838 9.1245522648096067 6.1579896807670584 16.573252111673355 18.265109106898308 10.728906437754629
leaf_count=1049 26 74 344 12 783 145 21 61 43 123 252 14 4739 234 68 35 45 155 102 198 137 35 36 207 134 32 60 34 49 62 42
internal_value=1.54735e-05 0.0445553 -0.0582758 0.0556989 0.0335981 0.00569394 0.0108448 -0.0361889 -0.0183655 -0.0278292 0.0456546 0.018612 0.0637635 0.0402772 0.0125668 -0.0163451 0.0310986 0.0238036 0.0319278 0.0203268 0.0443804 -0.0120049 0.000146373 -0.019916 -0.0245974 0.0200974 0.0464657 -0.00652715 -0.00678433 0.00651537 0.0321004
internal_weight=1896.62 1075.13 821.493 835.534 223.378 239.591 130.231 232.212 70.8106 64.7021 59.4201 28.9329 612.157 57.1687 29.1341 128.294 111.297 93.7004 81.4747 62.5619 22.1906 78.5518 55.3798 122.165 109.369 12.7956 12.6672 33.725 50.6524 34.0792 15.814
internal_count=9351 7673 1678 6560 1445 1113 662 629 238 195 424 172 5115 376 142 434 679 534 489 334 158 285 224 399 341 58 72 136 188 139 77
is_linear=0
shrinkage=0.05


Tree=14
num_leaves=32
num_cat=0
split_feature=0 8 8 6 6 1 0 8 4 7 8 7 3 2 0 0 2 2 8 8 4 6 6 1 7 2 2 1 3 0 4
split_gain=1827.99 188.866 58.718 44.7817 53.4516 54.752 43.651 27.3776 16.5516 13.9264 18.0769 12.5417 11.1024 23.0494 9.78277 9.59372 10.6232 13.091 10.2628 9.21971 9.24327 8.80579 13.9642 8.34398 8.29308 10.1152 7.81633 6.99194 6.32299 6.25724 6.00504
threshold=13.500000000000002 4.3550000000000013 29.236500000000003 1079.5000000000002 1331.5000000000002 3.3500000000000001 2.5000000000000004 235.88650000000004 12764.500000000002 69.050000000000011 5.4170000000000007 73.700000000000003 13891.500000000002 42.250000000000007 55.500000000000007 5.5000000000000009 42.95000000000001 42.150000000000013 66.422500000000014 18.990500000000004 11981.000000000002 1103.5000000000002 1343.5000000000002 2.3500000000000001 67.65000000000002 42.850000000000001 40.350000000000001 4.1500000000000012 13301.500000000002 24.500000000000004 10895.000000000002
decision_type=2 2 2 2 2 2 2 2 2 2 2 2 2 2 2 2 2 2 2 2 2 2 2 2 2 2 2 2 2 2 2
left_child=1 6 9 -4 5 8 -1 11 28 14 -11 15 -7 -14 19 -3 17 18 26 24 -21 -9 -23 -8 25 -2 -17 -28 -5 -12 -20
right_child=2 7 3 4 -6 12 23 21 -10 10 29 -13 13 -15 -16 16 -18 -19 30 20 -22 22 -24 -25 -26 -27 27 -29 -30 -31 -32
leaf_value=-0.064790876652401033 0.067147002711048245 -0.029269932992499709 0.06436761553176655 -0.016769015402982243 0.066821355882377462 0.065233681925086884 0.0070861932291573062 0.058354238708054819 -0.030088465986628593 -0.018512809401889214 0.0032039158654986293 0.05563941249915022 -0.05974676146208574 0.077087971350168913 0.062073190487872347 -0.030096852494635423 0.052861931090361441 -0.031718127661188845 0.014861258697513228 0.043918809392167253 -0.047227763436565116 -0.040125920763906218 0.072817332370757867 -0.03856724141985398 -0.012870576477648938 -0.0047196832013213707 0.072917982236607309 -0.0048593914367661981 0.064691806071833197 0.046273867442038971 0.088599069578088538
leaf_weight=615.60290393978357 20.226908177137378 60.48745172470808 552.59945493191481 3.5384228080511075 83.5304114818573 38.875277124345303 10.724787190556524 21.414523012936115 50.194932729005814 35.711164861917496 12.928536251187323 6.7232227474451056 5.9720955491065961 6.3497441709041595 26.467729263007641 14.676684923470022 7.7283138185739508 33.367348618805408 5.5132028162479383 4.3916709721088392 7.5867033079266548 6.9902423620223981 4.4975945577025414 149.84231805801392 6.593250483274459 6.4599117413163176 4.5757918432354909 7.8411300107836723 7.2896490395069122 24.250824674963951 5.531051367521286
leaf_count=1147 156 175 4854 12 736 330 40 168 145 124 59 43 13 51 211 46 46 107 29 31 27 25 36 376 26 28 28 30 48 164 40
internal_value=1.7501e-05 -0.0480496 0.0514516 0.0570879 0.0365374 0.0139958 -0.0587351 -0.00180517 -0.0179939 0.0222853 0.00689373 -0.0110649 0.0521251 0.0107675 0.0379267 -0.0142747 -0.00282715 -0.00884605 0.0111651 0.0238056 -0.0138104 0.0394088 0.00409241 -0.0355179 0.0373445 0.0497507 -0.00539491 0.0238025 0.0380718 0.031297 0.0517897
internal_weight=1848.48 955.517 892.967 748.35 195.751 112.22 776.17 179.347 61.023 144.617 72.8905 146.444 51.1971 12.3218 71.7262 139.721 79.2335 71.5052 38.1379 45.2584 11.9784 32.9024 11.4878 160.567 33.2801 26.6868 27.0936 12.4169 10.8281 37.1794 11.0443
internal_count=9351 2336 7015 6189 1335 599 1563 773 205 826 347 544 394 64 479 501 326 280 173 268 58 229 61 416 210 184 104 58 60 223 69
is_linear=0
shrinkage=0.05


Tree=15
num_leaves=32
num_cat=0
split_feature=0 8 0 6 6 0 1 4 4 8 4 4 0 8 6 0 7 7 7 8 2 1 8 7 4 2 6 1 3 1 1
split_gain=1699.66 167.114 62.034 54.569 57.8393 44.8449 43.5904 25.0581 30.1069 24.7842 15.1931 20.9627 13.6961 17.1313 12.2251 11.7109 11.6874 14.8847 13.4015 18.3002 11.2877 9.93399 9.84188 8.09617 8.67912 7.73867 7.42222 6.95988 6.87176 6.78194 6.71928
threshold=6.5000000000000009 29.236500000000003 1.5000000000000002 1079.5000000000002 1325.5000000000002 19.500000000000004 3.3500000000000001 14756.500000000002 12764.500000000002 1.9105000000000001 12659.500000000002 11981.000000000002 15.500000000000002 157.53750000000002 599.50000000000011 14.500000000000002 66.450000000000017 67.000000000000014 67.65000000000002 9.9775000000000009 42.95000000000001 3.0500000000000003 384.8685000000001 66.15000000000002 11453.500000000002 42.650000000000013 1019.5000000000001 4.9500000000000011 10887.000000000002 3.6500000000000008 4.5500000000000007
decision_type=2 2 2 2 2 2 2 2 2 2 2 2 2 2 2 2 2 2 2 2 2 2 2 2 2 2 2 2 2 2 2
left_child=2 5 -1 12 6 20 7 8 28 -4 11 15 13 14 27 -8 -7 -18 -19 26 23 -11 30 25 -25 -2 29 -3 -5 -20 -23
right_child=1 3 9 4 -6 16 10 -9 -10 21 -12 -13 -14 -15 -16 -17 17 18 19 -21 -22 22 -24 24 -26 -27 -28 -29 -30 -31 -32
leaf_value=-0.064751405230595291 -0.01513302609427483 0.083596660923623028 -0.045634979714522038 -0.015951329265421491 0.062231612112484805 0.067611107702287662 -0.028712947947674539 0.080196461636836913 -0.043942804141110597 -0.038472233324767707 0.06894270087646899 -0.060880552291794968 0.06390093753868295 0.066819994106072741 -0.016183520580739078 0.061082210809850428 -0.029396131516939872 0.068031412832592897 -0.037361072114606104 0.048728972139115173 0.0516084161710786 0.0071816059286611339 0.071598212256805543 -0.0096971541038562425 -0.038152735450414532 0.063256140180571269 -0.041622067332044377 0.006434210251732176 0.066462706225249121 0.02496453891656274 -0.031810634726544065
leaf_weight=551.97045964002609 7.1244685649871808 6.7030369713902491 147.69590959697962 3.5339326262474051 90.126284264028072 16.595466904342175 4.6766310110688272 6.0269271731376639 49.829061985015869 22.789802737534046 27.489518724381924 6.6547270417213431 519.89623253792524 26.394570000469685 16.953739576041698 16.239634372293949 12.205949537456034 17.867419049143791 5.8062950521707561 27.954684592783451 6.0914021730422965 33.877693742513657 4.5062616616487494 59.121256582438946 49.010729670524597 5.6415247470140457 10.200255945324896 5.1811859607696533 8.8975518122315389 17.580695159733295 16.395754083991051
leaf_count=1049 26 49 344 12 801 145 18 43 119 61 241 14 4739 234 68 137 45 155 17 198 35 139 36 207 134 32 29 25 60 90 49
internal_value=1.95599e-05 0.0423407 -0.0557274 0.0533728 0.0317843 0.00535119 0.00953745 -0.0171526 -0.0265761 -0.0336159 0.0426391 0.0164132 0.061386 0.0377133 0.0110728 0.0410051 0.0290025 0.0220089 0.0299103 0.0188426 -0.0148027 -0.010731 0.000810103 -0.0181488 -0.0225946 0.0195086 -0.00603179 0.049956 0.0430346 0.00949094 -0.00553499
internal_weight=1801.04 1023.8 777.236 788.603 213.474 235.2 123.348 68.2875 62.2605 225.265 55.0605 27.571 575.129 55.2325 28.838 20.9163 108.211 91.6153 79.4093 61.5419 126.989 77.5695 54.7797 120.898 108.132 12.766 33.5872 11.8842 12.4315 23.387 50.2734
internal_count=9351 7673 1678 6560 1445 1113 644 234 191 629 410 169 5115 376 142 155 679 534 489 334 434 285 224 399 341 58 136 74 72 107 188
is_linear=0
shrinkage=0.05


Tree=16
num_leaves=32
num_cat=0
split_feature=0 8 0 6 6 1 0 8 4 4 4 4 0 8 7 1 6 0 2 5 1 7 4 2 1 6 1 0 6 8 6
split_gain=1579.36 159.013 61.4822 52.1884 54.6574 42.0253 41.0698 23.2729 22.9386 27.1434 14.4195 19.4917 13.5967 16.4449 11.1769 13.8594 11.1604 10.5733 10.2243 9.07445 9.06727 7.3383 7.95274 6.94512 6.70744 6.61782 6.50794 6.47271 6.87481 6.34219 8.06341
threshold=6.5000000000000009 29.236500000000003 1.5000000000000002 1079.5000000000002 1331.5000000000002 3.3500000000000001 19.500000000000004 1.9105000000000001 14756.500000000002 12764.500000000002 12659.500000000002 11981.000000000002 15.500000000000002 157.53750000000002 66.450000000000017 3.0500000000000003 599.50000000000011 14.500000000000002 42.95000000000001 48012.000000000007 3.0500000000000003 66.15000000000002 11453.500000000002 42.650000000000013 2.7500000000000004 1019.5000000000001 4.9500000000000011 75.500000000000014 1373.5000000000002 5.4170000000000007 467.50000000000006
decision_type=2 2 2 2 2 2 2 2 2 2 2 2 2 2 2 2 2 2 2 2 2 2 2 2 2 2 2 2 2 2 2
left_child=2 6 -1 12 5 8 18 -4 9 -5 11 17 13 16 -8 -16 26 -7 21 25 24 23 29 -2 -9 -17 -3 28 -21 -23 -31
right_child=1 3 7 4 -6 10 14 20 -10 -11 -12 -13 -14 -15 15 19 -18 -19 -20 27 -22 22 -24 -25 -26 -27 -28 -29 -30 30 -32
leaf_value=-0.063741742684936223 -0.014387150183134485 0.081081302103452962 -0.04424406133421583 0.0413720400590648 0.061936954076007439 -0.024747523222444723 0.066473406794971684 -0.0041254873016337941 0.077907108863637636 -0.041512468844249084 0.067647315815757128 -0.058383721243614989 0.062876555972723777 0.065737829657766936 -0.035551607203003432 0.019822346643714187 -0.015356878101666286 0.059796640791292016 0.04918026192129063 0.033008112232177429 0.00077540691014733334 -0.018947707681717656 -0.036537329347754048 0.059781454538964822 -0.059556680128562495 -0.04960715867130857 0.0061175974323424403 0.062756347115923788 -0.027925518920323647 -0.014276656058402679 0.058583448382189166
leaf_weight=533.15510449558496 7.1192658543586713 6.56882092356682 144.7966131195426 12.289861515164374 84.621432900428772 4.8093207105994287 16.049371883273125 9.23129650950432 5.8971090018749228 50.327626302838326 27.779704876244068 6.5938918888568869 502.39219648391008 25.51004396378994 9.6153011918067914 8.4828372001647931 16.972519770264626 16.005719289183617 6.0729954391717902 44.824253499507904 54.589711919426918 43.665300294756889 48.628591164946556 5.6701572090387344 13.349490061402319 5.7644509375095359 5.1769800558686256 16.592970445752144 5.162079542875289 8.4631282687187177 6.8878620490431777
leaf_count=1049 26 49 344 72 783 19 145 34 43 123 252 14 4739 234 30 45 68 139 35 284 224 137 134 32 27 15 25 135 25 30 40
internal_value=2.15396e-05 0.0413041 -0.0545361 0.0523194 0.0309717 0.00978936 0.00514047 -0.0324246 -0.0163664 -0.0252448 0.0422608 0.0165309 0.0603091 0.0365235 0.0280205 0.0211968 0.0105728 0.0402627 -0.0141194 0.0279477 -0.0102475 -0.0173114 -0.0215656 0.0184953 -0.0368957 -0.00826882 0.0480409 0.0356976 0.0267155 -0.00922911 0.0184151
internal_weight=1753.07 997.944 755.122 764.945 208.325 123.703 232.999 221.967 68.5146 62.6175 55.1886 27.4089 556.621 54.2284 106.491 90.4419 28.7183 20.815 126.507 80.8266 77.1705 120.434 107.645 12.7894 22.5808 14.2473 11.7458 66.5793 49.9863 59.0163 15.351
internal_count=9351 7673 1678 6560 1445 662 1113 629 238 195 424 172 5115 376 679 534 142 158 434 504 285 399 341 58 61 60 74 444 309 207 70
is_linear=0
shrinkage=0.05


Tree=17
num_leaves=32
num_cat=0
split_feature=0 0 8 8 6 6 1 0 3 7 7 8 8 2 2 3 2 0 8 3 8 5 6 7 2 3 7 3 4 8 6
split_gain=1469.15 165.161 53.1671 42.1084 39.2991 46.0007 43.8559 22.2925 17.481 12.9448 12.116 14.4501 12.0835 11.8248 11.6735 9.16874 18.2326 8.51418 8.36546 8.3619 8.31545 8.47477 7.81012 7.42271 9.2406 7.01097 9.07711 7.0054 6.47705 6.40622 6.15755
threshold=13.500000000000002 3.5000000000000004 29.236500000000003 103.84550000000002 1079.5000000000002 1331.5000000000002 3.3500000000000001 1.5000000000000002 17300.500000000004 66.550000000000011 69.050000000000011 5.4170000000000007 4.3550000000000013 43.050000000000004 42.850000000000001 13891.500000000002 42.250000000000007 55.500000000000007 18.990500000000004 16823.000000000004 6.3755000000000015 89902.500000000015 935.50000000000011 67.65000000000002 42.850000000000001 9430.5000000000018 70.000000000000014 13301.500000000002 15010.500000000002 21.217000000000002 455.50000000000006
decision_type=2 2 2 2 2 2 2 2 2 2 2 2 2 2 2 2 2 2 2 2 2 2 2 2 2 2 2 2 2 2 2
left_child=1 7 10 13 -4 6 9 -1 -5 27 17 -12 -9 14 20 -8 -17 18 23 -15 22 25 -3 24 -2 26 -22 -6 -24 -20 -13
right_child=2 3 4 8 5 -7 15 12 -10 -11 11 30 -14 19 -16 16 -18 -19 29 -21 21 -23 28 -25 -26 -27 -28 -29 -30 -31 -32
leaf_value=-0.062805324138626814 0.064808676422851874 -0.037234399082157213 0.061237319213140774 0.047835176346800748 -0.017191403195508392 0.063896809059223278 0.061603046886919956 -0.047728913115666932 -0.02530459546061883 -0.026026034508616788 -0.016910609125455289 0.009595435465862048 -0.0102945738709473 0.067173753624127114 -0.060534087263142057 -0.052338017643575985 0.072485383448510715 0.058812931912767853 -0.057506247837321972 -0.010923750802050707 -0.0075914340447735948 0.051266699107536597 0.00093518276560658497 -0.012215239337396672 -0.0050070468010788936 -0.020166995319928559 0.085171806616980247 0.072123312813271209 -0.050577619294661535 0.017282692019953045 0.051171406470175144
leaf_weight=514.52162378281355 19.10694798827172 72.815543994307518 499.23591589927673 37.236791156232357 3.5405485779046995 75.46941351890564 35.254380635917187 89.058395154774189 10.465724319219587 49.678138628602028 35.453454703092575 20.079324662685394 28.441568531095982 6.2394137009978277 19.223096415400505 5.8088730275630933 5.8936183825135231 24.494125925004482 4.9292514473199827 7.6050802022218704 7.9609095677733404 6.0924088060855857 30.623752385377884 6.5467281863093367 6.3029810860753051 43.499068401753902 3.9434859603643417 5.778946191072464 7.6207464486360541 6.8317048847675323 16.003478869795799
leaf_count=1049 156 185 4854 285 12 736 330 207 40 147 124 111 101 37 38 13 51 211 15 27 34 34 109 26 28 145 28 46 17 43 112
internal_value=2.29862e-05 -0.0446456 0.0482273 -0.0105347 0.0539948 0.034065 0.0128164 -0.0583179 0.0317886 -0.0158819 0.0201362 0.00576003 -0.0386677 -0.0203533 -0.0235749 0.0488736 0.0105256 0.0352131 0.0219905 0.0242731 -0.0194575 -0.00470712 -0.0276251 0.0352592 0.0474908 -0.0108623 0.0231376 0.038192 -0.00932946 -0.0140628 0.0280352
internal_weight=1705.76 885.348 820.408 253.326 680.66 181.424 105.955 632.022 47.7025 58.9976 139.748 71.5363 117.5 205.624 191.779 46.9569 11.7025 68.2117 43.7176 13.8445 172.556 61.4959 111.06 31.9567 25.4099 55.4035 11.9044 9.31949 38.2445 11.761 36.0828
internal_count=9351 2336 7015 979 6189 1335 599 1357 325 205 826 347 308 654 590 394 64 479 268 64 552 241 311 210 184 207 62 58 126 58 223
is_linear=0
shrinkage=0.05


Tree=18
num_leaves=32
num_cat=0
split_feature=0 8 0 6 6 0 1 8 2 7 0 8 4 4 8 6 7 7 7 8 3 1 0 2 3 8 7 1 7 4 2
split_gain=1367.7 143.821 60.2142 48.1796 49.2832 34.5211 32.9194 21.0298 20.0409 23.8669 13.4946 15.6697 13.1946 15.9879 12.9605 11.2927 10.4211 13.0039 12.3852 15.8539 10.1853 14.4161 9.79739 8.63959 7.26168 6.9681 6.79091 6.75418 6.61247 7.32469 6.21715
threshold=6.5000000000000009 29.236500000000003 1.5000000000000002 1079.5000000000002 1301.5000000000002 19.500000000000004 3.3500000000000001 72.884000000000015 43.150000000000013 66.550000000000011 15.500000000000002 157.53750000000002 12659.500000000002 11981.000000000002 44.778500000000008 443.50000000000006 66.450000000000017 67.000000000000014 67.65000000000002 9.9775000000000009 17300.500000000004 4.5500000000000007 14.500000000000002 42.95000000000001 13301.500000000002 1.2755000000000003 72.250000000000014 3.0500000000000003 66.15000000000002 11453.500000000002 42.250000000000007
decision_type=2 2 2 2 2 2 2 2 2 2 2 2 2 2 2 2 2 2 2 2 2 2 2 2 2 2 2 2 2 2 2
left_child=2 5 -1 10 6 23 8 25 9 24 11 14 13 22 -3 -16 -7 30 -19 26 21 -9 -8 28 -5 -4 -20 -27 -2 -30 -18
right_child=1 3 7 4 -6 16 12 20 -10 -11 -12 -13 -14 -15 15 -17 17 18 19 -21 -22 -23 -24 -25 -26 27 -28 -29 29 -31 -32
leaf_value=-0.061934759648141748 0.018254875100257219 0.091625564561983189 -0.042063980694024533 -0.0163524465966302 0.057912007231345958 0.064638123223283869 -0.026334825509585921 0.064265757668703169 0.062769414895695264 -0.041534783955264026 0.061040734887231621 0.064032121931524688 0.065960498371276308 -0.054186190009840866 0.045893891426739851 -0.02772885964273113 0.0077069296887889082 0.065602601760382767 -0.017099123418512201 0.045313106106028872 -0.039492526763364844 -0.027296512361598465 0.056957330271369101 0.04542770711821828 0.071628505201860954 -0.048394048807724695 0.041359373086998177 -0.0095221375903239286 -0.008017911200172775 -0.034404146686475144 -0.063987795943713774
leaf_weight=496.1323906481266 12.716640464961527 4.0732649266719845 135.99451439827681 3.5361970216035825 85.882021531462669 15.049398176372049 4.6616983860731187 11.987318709492689 7.1586510837078086 46.058197125792503 468.16507488489151 23.950430631637573 23.088389709591866 6.4589326679706565 7.5704734846949604 16.694114245474339 5.9816003143787366 16.509833090007305 27.118839152157307 26.790277630090714 6.9427980482578269 6.702544428408145 14.550094611942766 6.0508097633719435 6.9640971571207047 15.771008655428885 6.0820710062980643 38.344451375305653 58.422667786478996 47.836473360657692 6.1151744052767754
leaf_count=1049 58 29 335 12 830 145 18 80 46 112 4739 234 223 14 49 64 32 155 102 198 21 25 134 35 56 36 34 132 207 134 13
internal_value=2.41995e-05 0.0393711 -0.0523455 0.0503586 0.0293904 0.00483336 0.00761259 -0.0302934 -0.0160502 -0.0260264 0.0583501 0.034259 0.0385345 0.0138673 0.00909543 -0.0047588 0.02617 0.0196358 0.027253 0.016699 0.0122199 0.0314298 0.0367467 -0.0128548 0.0419991 -0.0360255 -0.00639012 -0.0208507 -0.0158189 -0.0198966 -0.0285363
internal_weight=1659.36 947.485 711.875 718.812 198.358 228.674 112.476 215.743 63.7171 56.5585 520.453 52.2883 48.7591 25.6707 28.3379 24.2646 103.647 88.5978 76.501 59.9912 25.6327 18.6899 19.2118 125.027 10.5003 190.11 33.2009 54.1155 118.976 106.259 12.0968
internal_count=9351 7673 1678 6560 1445 1113 615 629 226 180 5115 376 389 166 142 113 679 534 489 334 126 105 152 434 68 503 136 168 399 341 45
is_linear=0
shrinkage=0.05


Tree=19
num_leaves=32
num_cat=0
split_feature=0 0 8 8 6 6 1 3 0 4 3 3 8 7 8 8 6 3 2 0 8 7 2 7 7 7 2 4 6 8 6
split_gain=1272.95 152.608 50.1674 41.6797 36.3629 42.0068 38.1444 15.9071 12.0834 11.1602 10.9241 11.03 11.4933 10.9008 12.3093 10.6916 9.7058 8.13207 15.6768 7.85615 7.76181 6.76402 8.41631 6.44684 6.16719 6.11508 6.00128 5.85056 5.78462 5.74366 5.69262
threshold=13.500000000000002 2.5000000000000004 29.236500000000003 103.84550000000002 1079.5000000000002 1331.5000000000002 3.3500000000000001 17300.500000000004 1.5000000000000002 12764.500000000002 17772.500000000004 17300.500000000004 3.4510000000000005 69.050000000000011 5.4170000000000007 5.4170000000000007 1253.5000000000002 13891.500000000002 42.250000000000007 55.500000000000007 18.990500000000004 67.65000000000002 42.850000000000001 73.250000000000014 72.950000000000017 66.700000000000003 42.850000000000001 7369.5000000000009 581.50000000000011 72.884000000000015 455.50000000000006
decision_type=2 2 2 2 2 2 2 2 2 2 2 2 2 2 2 2 2 2 2 2 2 2 2 2 2 2 2 2 2 2 2
left_child=1 8 13 10 -4 6 9 -5 -1 -6 11 12 -3 19 -15 -10 -12 -8 -19 20 21 22 -2 24 27 -22 -21 -14 -29 -11 -16
right_child=2 3 4 7 5 -7 17 -9 15 29 16 -13 23 14 30 -17 -18 18 -20 26 25 -23 -24 -25 -26 -27 -28 28 -30 -31 -32
leaf_value=-0.061123520234392707 0.062957821643797499 -0.031707626633254639 0.05947202449301553 0.042341260847192336 0.032222550362328364 0.062303090669469485 0.059554531251556256 -0.025799728132852369 -0.047264258451336916 -0.063159826465375615 0.032132185536807308 -0.065357615365593258 -0.045263177345352325 -0.015710316138098646 0.0082604810044855283 0.0070186480128332689 -0.048806565245633378 -0.048207293820808295 0.069895995681006878 0.065384319995488646 -0.03957411846986611 -0.011420463175045685 -0.0045509091772207959 0.050704598154302921 -0.05573971559655503 0.037658052237076543 -0.019175388237119884 0.022733724259417481 -0.011021512179738874 -0.017072311040388852 0.048660964000363516
leaf_weight=478.03988187015057 18.234462812542922 128.61810199916363 464.81247022002935 39.541955471038818 10.376962140202521 70.276358127593994 32.920190751552582 10.932761289179323 53.295398361980915 8.1727149039506894 15.501642599701883 16.073543302714825 8.6085705459117872 35.324161201715469 19.847402006387711 10.931577980518339 4.866723731160163 5.6721194684505445 5.5679852515459061 20.84772548079491 7.7905167490243894 6.5312911495566359 6.1820524707436553 4.4610669091343871 7.0369860380887976 3.8195764720439911 2.3330633565783492 17.852191507816315 43.910172589123249 39.115599647164345 15.551066383719442
leaf_count=1049 156 347 4854 304 60 736 330 41 129 16 73 29 26 124 111 43 11 13 51 201 31 26 28 28 15 27 10 81 160 129 112
internal_value=2.5979e-05 -0.0426018 0.0463079 -0.0138187 0.0522024 0.0325686 0.0120469 0.027582 -0.0583877 -0.0147335 -0.0222814 -0.0254347 -0.0223861 0.0187959 0.00517126 -0.0380252 0.0127931 0.0470171 0.0102973 0.0334535 0.0206968 0.0337755 0.0458652 -0.00774169 -0.01111 -0.0141657 0.0568737 -0.00664708 -0.00126468 -0.0250375 0.026009
internal_weight=1613.05 839.671 773.376 297.404 636.914 172.102 101.826 50.4747 542.267 57.6653 246.929 226.561 210.487 136.461 70.7226 64.227 20.3684 44.1603 11.2401 65.7387 42.5579 30.9478 24.4165 81.869 77.4079 11.6101 23.1808 70.3709 61.7624 47.2883 35.3985
internal_count=9351 2336 7015 1115 6189 1335 599 345 1221 205 770 686 657 826 347 172 84 394 64 479 268 210 184 310 282 58 211 267 241 145 223
is_linear=0
shrinkage=0.05


Tree=20
num_leaves=32
num_cat=0
split_feature=0 8 0 6 6 1 0 4 2 8 0 8 4 4 8 6 7 7 7 8 4 3 1 2 8 7 1 7 1 8 2
split_gain=1188.07 129.928 58.7686 44.6967 44.648 31.1706 28.9212 18.5193 21.1897 17.8774 13.4759 15.0191 12.4573 13.9222 12.0841 10.2231 9.73577 11.7873 11.491 13.8556 9.30758 8.6144 13.2108 7.78025 6.21902 6.17404 5.96162 5.7339 6.9188 11.9518 6.2148
threshold=6.5000000000000009 29.236500000000003 1.5000000000000002 1079.5000000000002 1331.5000000000002 3.3500000000000001 19.500000000000004 14756.500000000002 43.150000000000013 72.884000000000015 15.500000000000002 157.53750000000002 12659.500000000002 11981.000000000002 44.778500000000008 443.50000000000006 66.450000000000017 67.000000000000014 67.65000000000002 9.9775000000000009 9253.5000000000018 17300.500000000004 4.5500000000000007 42.95000000000001 1.2755000000000003 72.250000000000014 3.0500000000000003 66.15000000000002 3.6500000000000008 16.631500000000006 42.650000000000013
decision_type=2 2 2 2 2 2 2 2 2 2 2 2 2 2 2 2 2 2 2 2 2 2 2 2 2 2 2 2 2 2 2
left_child=2 6 -1 10 5 7 23 8 -5 24 11 14 13 20 -3 -16 -8 -18 -19 25 -7 22 -11 27 -4 -20 -26 30 -29 -30 -2
right_child=1 3 9 4 -6 12 16 -9 -10 21 -12 -13 -14 -15 15 -17 17 18 19 -21 -22 -23 -24 -25 26 -27 -28 28 29 -31 -32
leaf_value=-0.06036587962690159 -0.013965860536629543 0.088349609286878905 -0.039715041682663585 -0.032999437687464626 0.05829867568818653 -0.022066773939126341 0.063107161163940148 0.073363570965220365 0.05947809979929735 0.060731666320039193 0.059430381580092222 0.062592587282636225 0.063994766688821467 -0.050520154396882712 0.043147275025696083 -0.027462126776509839 -0.027900721807408914 0.064008841242136696 -0.016101146402781274 0.042929551735381738 0.056762409702246087 -0.036786291246081036 -0.027339840101864972 0.043877927186871141 -0.045789894042522768 0.039811083955738104 -0.0089060305606206563 -0.030253464675913156 -0.012837704244042911 0.068878296190410526 0.056522887632116207
leaf_weight=460.287602879107 7.0355327874422056 3.9847215861082104 130.7071365788579 53.054636210203171 73.729557618498802 5.1473554670810762 14.072604246437548 5.5366798043251029 7.0131124705076209 11.746882915496832 435.06459855288267 22.463136799633503 24.269965663552284 6.3067002296447745 7.4149886220693615 16.607354938983917 11.921384632587431 15.468026667833326 27.007593736052513 25.96157082170248 13.740325234830378 6.8721384629607192 6.6788584887981406 6.0165998935699454 15.361541219055651 6.0419218912720671 38.195845678448677 55.997737646102905 43.924472749233246 4.9821800142526618 5.6287332773208618
leaf_count=1049 26 29 335 149 783 28 145 43 46 80 4739 234 252 14 49 64 45 155 102 198 130 21 25 35 36 34 132 164 146 31 32
internal_value=2.69605e-05 0.0376056 -0.0503729 0.0485661 0.0279227 0.00845953 0.00461843 -0.0141371 -0.0222024 -0.028424 0.0565933 0.0321365 0.0384294 0.013802 0.00770919 -0.00566709 0.0245415 0.01826 0.0256487 0.0155937 0.0352795 0.0109894 0.028808 -0.0115787 -0.0338351 -0.00587959 -0.0194852 -0.0144167 -0.0182533 -0.0045132 0.0173634
internal_weight=1568.24 898.391 669.85 674.333 188.798 115.069 224.058 65.6044 60.0677 209.562 485.535 50.4702 49.4643 25.1944 28.0071 24.0223 100.473 86.4005 74.4791 59.0111 18.8877 25.2979 18.4257 123.585 184.265 33.0495 53.5574 117.569 104.904 48.9067 12.6643
internal_count=9351 7673 1678 6560 1445 662 1113 238 195 629 5115 376 424 172 142 113 679 534 489 334 158 126 105 434 503 136 168 399 341 177 58
is_linear=0
shrinkage=0.05


Tree=21
num_leaves=32
num_cat=0
split_feature=0 8 0 6 6 1 0 4 4 8 0 8 4 4 8 7 3 6 4 2 1 1 5 1 1 6 4 3 7 4 6
split_gain=1106.4 124.121 58.5 43.0133 42.3549 28.9243 26.5059 17.1042 19.7172 16.6956 13.4383 14.4565 11.9222 12.8019 11.1028 9.36063 10.802 9.35545 8.71186 7.06136 6.91233 6.31457 6.0052 5.94117 5.45574 6.09001 9.65951 5.42108 5.20189 6.44316 5.71496
threshold=6.5000000000000009 29.236500000000003 1.5000000000000002 1079.5000000000002 1331.5000000000002 3.3500000000000001 19.500000000000004 14756.500000000002 12764.500000000002 1.9105000000000001 15.500000000000002 157.53750000000002 12659.500000000002 11981.000000000002 44.778500000000008 66.450000000000017 16064.500000000002 599.50000000000011 9253.5000000000018 42.95000000000001 4.9500000000000011 3.0500000000000003 48012.000000000007 2.7500000000000004 4.5500000000000007 1217.5000000000002 11188.000000000002 10887.000000000002 66.15000000000002 11453.500000000002 1241.5000000000002
decision_type=2 2 2 2 2 2 2 2 2 2 2 2 2 2 2 2 2 2 2 2 2 2 2 2 2 2 2 2 2 2 2
left_child=2 6 -1 10 5 7 19 8 27 -4 11 14 13 18 -3 -8 22 20 -7 28 -16 23 -17 -11 25 26 -23 -5 -2 -30 -31
right_child=1 3 9 4 -6 12 15 -9 -10 21 -12 -13 -14 -15 17 16 -18 -19 -20 -21 -22 24 -24 -25 -26 -27 -28 -29 29 30 -32
leaf_value=-0.059656753189864589 0.0164899102636278 0.08539607212439676 -0.038195662802268465 -0.015517818129012387 0.057473086223686035 -0.020869842282699169 0.062316782159742283 0.071748713164280595 -0.035714683413628733 -0.00064331739084233866 0.058691365758747144 0.061832292933812087 0.063180243667756514 -0.048683125602917432 0.074458013504553028 -0.0045541295254208254 -0.030565883273316392 -0.030302706388241327 0.055586122541091909 0.041924365426033894 -0.011780477789629458 0.087629702843342525 0.031121819277905173 -0.054090440526975959 -0.022568769091831854 -0.0073999765348764625 0.0069631575005952772 0.058427681602796579 -0.0062678393174891338 -0.041859610832007767 -0.0023561389577675365
leaf_weight=442.91132020950317 12.66734843701124 3.9180851057171848 131.18845497071743 3.5313518494367591 71.115611188113689 5.1698419004678788 13.551732763648031 5.3821467235684386 47.55008590221405 8.9591742008924502 418.92485269904137 21.623644396662712 23.376357272267342 6.2196770906448355 4.9242127835750598 14.657131433486937 10.249228924512861 14.653247766196726 13.339755713939665 5.9829686209559432 4.3997098058462143 5.5397076383233097 60.416088499128819 12.390366084873675 17.398870646953583 19.69654519110918 11.243092432618139 8.3139449059963209 57.684067249298096 34.123447306454182 12.512754976749418
leaf_count=1049 58 29 344 12 783 28 145 43 123 34 4739 234 252 14 40 66 33 53 130 35 20 41 435 27 59 77 47 60 207 86 48
internal_value=2.91595e-05 0.0367483 -0.0494113 0.0477338 0.0272495 0.00820879 0.00444012 -0.0136021 -0.0213362 -0.0274275 0.0557798 0.0311479 0.0375786 0.0133776 0.00736227 0.0237143 0.0175831 -0.00538915 0.0342315 -0.0110572 0.0337644 -0.00864918 0.0241565 -0.0316618 0.000469676 0.0114579 0.0335898 0.0363828 -0.0137668 -0.0174408 -0.0312606
internal_weight=1523.61 874.287 649.328 652.443 183.999 112.883 221.845 64.7775 59.3954 206.416 468.444 49.5189 48.1056 24.7293 27.8953 98.8742 85.3224 23.9772 18.5096 122.971 9.32392 75.2278 75.0732 21.3495 53.8782 36.4793 16.7828 11.8453 116.988 104.32 46.6362
internal_count=9351 7673 1678 6560 1445 662 1113 238 195 629 5115 376 424 172 142 679 534 113 158 434 60 285 501 61 224 165 88 72 399 341 134
is_linear=0
shrinkage=0.05


Tree=22
num_leaves=32
num_cat=0
split_feature=0 0 8 8 6 6 1 3 0 7 8 7 3 5 2 0 8 3 3 2 8 5 2 8 7 3 8 2 6 6 6
split_gain=1032.01 138.807 46.3121 39.6796 32.2198 36.378 31.1367 13.7587 10.6625 9.38248 10.1399 9.07179 9.79903 7.78989 9.22447 7.32435 7.22519 7.07328 6.86564 12.588 6.79866 6.7847 6.28237 8.1811 6.20658 8.03873 5.46983 5.45536 5.2056 7.73952 7.73101
threshold=13.500000000000002 1.5000000000000002 29.236500000000003 71.637500000000017 1079.5000000000002 1331.5000000000002 3.3500000000000001 17300.500000000004 4.5000000000000009 69.050000000000011 5.4170000000000007 66.550000000000011 6238.5000000000009 86896.500000000015 43.050000000000004 55.500000000000007 18.990500000000004 17772.500000000004 13891.500000000002 42.250000000000007 147.09700000000001 77618.500000000015 41.150000000000013 123.14900000000002 67.65000000000002 17300.500000000004 21.217000000000002 42.850000000000001 455.50000000000006 935.50000000000011 413.50000000000006
decision_type=2 2 2 2 2 2 2 2 2 2 2 2 2 2 2 2 2 2 2 2 2 2 2 2 2 2 2 2 2 2 2
left_child=1 -1 9 8 -4 6 11 20 -3 15 -11 12 -6 14 21 16 24 -9 -8 -20 22 -10 23 -5 25 -2 -18 -17 30 -30 -12
right_child=2 3 4 7 5 -7 18 17 13 10 28 -13 -14 -15 -16 27 26 -19 19 -21 -22 -23 -24 -25 -26 -27 -28 -29 29 -31 -32
leaf_value=-0.058991616794642369 0.062356772010681155 -0.034886170635384517 0.057188225096266011 0.089152686737511339 -0.040484724166681196 0.060296210707812173 0.057124331306096121 -0.056263223714240009 -0.017895519342484099 -0.014528970716200906 0.02240467743107066 -0.021561736653490798 0.071751650038424805 0.012179451677927989 0.028567785775028023 0.063568259508808483 -0.055297062351953613 0.015927772189158123 -0.042727952220023895 0.066691834745860337 0.047822170902655226 -0.047534812339325438 -0.015484429278715335 -0.011777047005058119 -0.01141787809899625 -0.0032083505976799004 0.014820888378518447 -0.018319554684145457 0.072559627922540948 -0.0025999082863655733 -0.05621082027564981
leaf_weight=425.93995530903339 16.591121330857284 129.41620478779078 415.63751457631588 4.3631862103939074 2.9306746423244459 62.793038368225098 29.74096355587244 7.6302807256579381 102.08840476721525 35.092914506793022 15.595752954483034 46.980070523917675 5.7804852649569511 21.876543022692204 9.122277766466139 19.082454808056358 4.859697148203848 6.1102222129702568 5.4403923451900464 5.0855055525898933 28.979467116296291 23.811309941112995 10.882550805807112 3.7191965281963348 6.5020996853709212 6.5091293752193442 6.5034995153546333 2.2765152081847182 9.6390121802687627 5.3132533282041541 3.9115740135312072
leaf_count=1049 145 356 4854 32 8 736 330 17 337 124 99 147 50 90 46 201 15 34 13 51 262 55 43 15 26 39 43 10 81 31 12
internal_value=3.06259e-05 -0.0398518 0.0437346 -0.0164254 0.0498696 0.0307082 0.0113464 0.0199491 -0.024262 0.0170137 0.00438906 -0.012872 0.0339922 -0.0154988 -0.0199833 0.0311024 0.0187256 -0.0241608 0.0448418 0.0101374 0.0325907 -0.0235012 0.00931606 0.0427088 0.0317355 0.043882 -0.0151664 0.0548404 0.0236548 0.0458519 0.00664084
internal_weight=1480.21 773.94 706.266 348 574.389 158.751 95.9581 61.6849 286.315 131.877 69.5525 55.6912 8.71116 156.899 135.022 62.3245 40.9655 13.7405 40.2669 10.5259 47.9444 125.9 18.9649 8.08238 29.6024 23.1003 11.3632 21.359 34.4596 14.9523 19.5073
internal_count=9351 2336 7015 1287 6189 1335 599 403 884 826 347 205 58 528 438 479 268 51 394 64 352 392 90 47 210 184 58 211 223 112 111
is_linear=0
shrinkage=0.05


Tree=23
num_leaves=32
num_cat=0
split_feature=0 8 0 6 6 1 0 8 2 7 0 8 4 4 3 7 7 7 8 0 6 2 8 6 0 5 6 1 2 8 7
split_gain=961.761 113.543 57.6316 40.0362 38.3583 22.6305 22.2668 15.0612 14.7608 17.3685 13.1887 13.5234 10.9954 10.4616 9.7372 8.88544 10.3828 10.6879 12.2347 8.4201 7.91583 5.88749 5.64192 5.63753 5.88595 5.40909 5.15024 5.07709 4.97007 4.55649 4.52497
threshold=6.5000000000000009 29.236500000000003 1.5000000000000002 1079.5000000000002 1301.5000000000002 3.3500000000000001 19.500000000000004 1.2755000000000003 43.150000000000013 66.550000000000011 15.500000000000002 157.53750000000002 12659.500000000002 11981.000000000002 6238.5000000000009 66.450000000000017 67.000000000000014 67.65000000000002 9.9775000000000009 14.500000000000002 443.50000000000006 42.95000000000001 239.65700000000001 1019.5000000000001 47.500000000000007 48012.000000000007 1145.5000000000002 3.0500000000000003 42.250000000000007 52.622500000000009 66.850000000000009
decision_type=2 2 2 2 2 2 2 2 2 2 2 2 2 2 2 2 2 2 2 2 2 2 2 2 2 2 2 2 2 2 2
left_child=2 6 -1 10 5 8 21 -4 9 14 11 20 13 19 -5 -8 28 -18 23 -7 29 -2 27 24 -19 -20 -24 -9 -17 -3 -29
right_child=1 3 7 4 -6 12 15 22 -10 -11 -12 -13 -14 -15 -16 16 17 18 25 -21 -22 -23 26 -25 -26 -27 -28 30 -30 -31 -32
leaf_value=-0.058366420087411858 -0.012559821646355957 0.00031365775236721579 -0.036492330607287196 -0.038619336301594226 0.053847912727151608 -0.027659588426028038 0.061127766084913472 -0.036266848022810473 0.055797081018294149 -0.03598981146157542 0.057342644435262137 0.060600669814801472 0.06205748049222564 -0.045540812243165724 0.070456757345194382 0.0052517791410143788 0.062235271769262968 0.034692498078969021 -0.0037540318713826441 0.051941655914658984 -0.01136718923350849 0.038607451551773829 0.0007296366021979396 -0.037749676388619979 -0.016210044435927388 0.052583225557772707 0.076150591987691835 0.018634995968732176 -0.059782694967376385 0.07524798439627467 -0.014877381046240408
leaf_weight=409.39641749858856 115.75581048429012 3.2898565828800219 123.41338870674372 2.9189184010028821 72.264524221420288 4.512211047112948 12.671780221164225 18.019712559878826 6.8058654740452758 43.327405586838722 388.01795683801174 20.144814632833004 19.304027184844017 6.0517734289169303 6.8420378044247627 5.8561905324459058 14.167265474796293 10.581360399723055 5.4595214873552349 12.596030645072458 18.93678841739893 5.9089115783572188 6.5935453772544843 9.9325340539216977 12.258009120821951 19.401895344257355 3.4467593282461166 14.137096516788004 5.8949431926012039 5.2917968779802322 35.03538852930069
leaf_count=1049 399 16 335 8 830 18 145 48 46 112 4739 234 223 14 60 32 155 58 31 134 82 35 37 29 49 167 28 62 13 44 119
internal_value=3.26575e-05 0.0351243 -0.0476076 0.0461861 0.0259579 0.00626772 0.00414 -0.0256555 -0.0135281 -0.0224155 0.0542937 0.0294726 0.0341891 0.0109607 0.0378386 0.0221131 0.016196 0.0233266 0.0137622 0.0309472 0.00668537 -0.0100748 -0.00833878 -0.00630293 0.00737284 0.0402117 0.0266211 -0.0135627 -0.0273727 0.0465212 -0.00524257
internal_weight=1438.23 828.192 610.042 610.304 174.623 102.358 217.888 200.646 59.8942 53.0884 435.681 47.6633 42.464 23.16 9.76096 96.2235 83.5517 71.8006 57.6333 17.1082 27.5184 121.665 77.2325 32.7719 22.8394 24.8614 10.0403 67.1922 11.7511 8.58165 49.1725
internal_count=9351 7673 1678 6560 1445 615 1113 629 226 180 5115 376 389 166 68 679 534 489 334 152 142 434 294 136 107 198 65 229 45 60 181
is_linear=0
shrinkage=0.05


Tree=24
num_leaves=32
num_cat=0
split_feature=0 0 8 8 6 6 1 3 5 3 8 0 6 4 5 0 7 3 0 3 2 3 2 8 3 4 4 2 8 4 0
split_gain=896.598 131.7 43.8613 33.3219 28.8766 31.8089 24.7794 12.2366 10.8453 11.4718 9.71338 8.14679 7.74087 7.1882 6.98482 6.45687 6.603 8.35116 6.54177 6.39107 10.5214 6.17148 6.14411 6.13582 5.98611 9.27864 7.46831 5.69611 7.59643 5.67478 5.57745
threshold=13.500000000000002 1.5000000000000002 36.83550000000001 71.637500000000017 1079.5000000000002 1331.5000000000002 3.3500000000000001 17300.500000000004 78408.500000000015 17772.500000000004 5.4170000000000007 63.500000000000007 168.50000000000003 12764.500000000002 86896.500000000015 3.5000000000000004 73.90000000000002 11283.000000000002 11.500000000000002 13891.500000000002 42.250000000000007 17772.500000000004 42.95000000000001 147.09700000000001 17772.500000000004 11453.500000000002 11103.500000000002 41.150000000000013 123.14900000000002 12764.500000000002 4.5000000000000009
decision_type=2 2 2 2 2 2 2 2 2 2 2 2 2 2 2 2 2 2 2 2 2 2 2 2 2 2 2 2 2 2 2
left_child=1 -1 8 10 -4 6 13 23 11 12 15 22 -10 -6 29 -3 17 18 30 -8 -21 -9 -2 27 25 26 -19 28 -5 -12 -17
right_child=2 3 4 7 5 -7 19 21 9 -11 14 -13 -14 -15 -16 16 -18 24 -20 20 -22 -23 -24 -25 -26 -27 -28 -29 -30 -31 -32
leaf_value=-0.0577775525844966 0.013354824405782792 -0.039775887378475205 0.056153511422280589 0.086187484250630442 0.027729601709623842 0.059185551874238351 0.055394193233926095 -0.054257237372575706 0.028596752743937637 0.047955300604084122 -0.0053592459515135601 0.048537260600536605 -0.03626711209242247 -0.019781384399744292 0.035780880186778961 -0.01941113945713482 -0.059700159967499104 -0.028577486937046412 -0.03872951850480208 -0.039534372411444058 0.065372767531337736 0.013992192400357954 0.068065440844466585 0.04574772303895968 0.0054051695836728527 -0.04960892525685541 0.035157487274553853 -0.01493520642111036 -0.011686089769088949 -0.036132138397794049 0.028671371143540837
leaf_weight=393.29828430712223 73.970590054988861 78.840529210865498 376.40469636768103 4.2726355269551304 9.8002531379461271 56.640790991485119 26.827922716736794 7.3542869538068754 5.8832698613405254 7.456475816667079 59.034604392945766 27.941947966814041 21.081620037555695 42.421548537909985 8.0273427590727788 8.8181251063942927 10.130456231534479 14.052121274173262 7.6452845782041541 5.281278192996977 4.3657356575131416 6.0266779288649559 5.5141750425100318 27.619231671094894 11.422043621540068 36.076247431337833 6.8304352462291709 10.812152430415152 3.6987719982862473 20.0761783644557 19.083021178841591
leaf_count=1049 465 215 4751 32 59 717 320 17 32 72 230 272 76 140 41 27 20 39 19 13 46 34 52 262 43 81 31 43 15 56 82
internal_value=3.47048e-05 -0.0380788 0.0421416 -0.01528 0.0488442 0.0299141 0.0112216 0.0186064 0.0174882 -0.00693609 -0.0225143 0.0253141 -0.0221149 -0.0108652 -0.00865925 -0.0287731 -0.0211675 -0.0174115 0.00224687 0.0428436 0.00794113 -0.0235182 0.0171503 0.0307537 -0.0276305 -0.0342552 -0.00773054 0.00870665 0.0407737 -0.0131686 0.0134749
internal_weight=1396.71 733.118 663.59 339.82 521.742 145.338 88.6967 59.7838 141.848 34.4214 280.036 107.427 26.9649 52.2218 87.1381 192.898 114.058 103.927 35.5464 36.4749 9.64701 13.381 79.4848 46.4028 68.3808 56.9588 20.8826 18.7836 7.97141 79.1108 27.9011
internal_count=9351 2336 7015 1287 6046 1295 578 403 969 180 884 789 108 199 327 557 342 322 128 379 59 51 517 352 194 151 70 90 47 286 109
is_linear=0
shrinkage=0.05


Tree=25
num_leaves=32
num_cat=0
split_feature=0 8 0 6 6 0 1 8 5 0 8 6 2 7 5 2 3 7 5 4 2 3 6 7 8 4 0 6 7 6 3
split_gain=836.297 104.038 56.7389 29.9946 30.9305 24.1126 19.8245 13.1062 10.6161 10.2327 13.0644 14.6546 9.85977 11.4047 9.66122 13.7606 9.10674 8.55681 8.36772 9.55437 6.9858 5.31686 9.69877 11.3387 13.9321 13.3903 8.82877 6.48629 6.60946 6.11975 7.23614
threshold=6.5000000000000009 51.473500000000008 1.5000000000000002 1079.5000000000002 1331.5000000000002 15.500000000000002 3.3500000000000001 1.2755000000000003 78408.500000000015 15.500000000000002 157.53750000000002 443.50000000000006 43.150000000000013 66.550000000000011 86896.500000000015 41.350000000000001 6238.5000000000009 69.750000000000014 86896.500000000015 14469.000000000002 42.95000000000001 9992.0000000000018 1151.5000000000002 69.15000000000002 18.990500000000004 11981.000000000002 31.500000000000004 605.50000000000011 69.15000000000002 1019.5000000000001 9581.5000000000018
decision_type=2 2 2 2 2 2 2 2 2 2 2 2 2 2 2 2 2 2 2 2 2 2 2 2 2 2 2 2 2 2 2
left_child=2 5 -1 9 6 18 12 -4 21 10 11 -3 13 16 -10 -16 -5 -8 20 -20 -2 26 -23 24 -24 -26 29 28 -28 30 -7
right_child=1 3 7 4 -6 8 17 -9 14 -11 -12 -13 -14 -15 15 -17 -18 -19 19 -21 -22 22 23 -25 25 -27 27 -29 -30 -31 -32
leaf_value=-0.057221744039324611 -0.018025489704783879 0.073283331548454178 -0.034402316140056288 -0.038121621156428281 0.056738365193035649 0.032148446173396898 0.044556102218903416 -0.007836341714180628 -0.031869320942337569 0.056829357749155832 0.059528691427373416 -0.024469229589631686 0.0509774481258225 -0.027688593241673706 -0.034587694620161778 0.051653708519886925 0.069377559453117618 -0.062180948539897689 0.07050191811744147 -0.015408878886771336 0.037481823097527567 0.05610461955299148 0.063443355298668097 -0.088338874891501926 0.061159229080231393 -0.051129429919896247 0.060251878171674801 0.05953285668002925 -0.01103010442310807 -0.037399071749305422 -0.043766560087879665
leaf_weight=377.65866066515446 92.734430491924286 5.2038629874587086 118.61745552718639 2.9153620451688749 55.782474040985107 12.81778328120709 33.704745881259441 76.28370938450098 15.930701263248919 335.46431026607752 18.73929401487112 14.565539717674254 6.085512049496173 40.764448210597038 7.2645067200064686 12.731727749109266 6.07632976770401 1.9884558171033848 6.5596403330564481 6.3877818137407303 6.0373718440532675 34.179042302072048 12.239381216466432 2.3799704313278189 4.0360193401575071 7.7588738799095154 4.8521110638976124 14.581408612430094 9.8609587550163251 9.0248299539089185 4.1570397317409506
leaf_count=1049 307 45 335 8 719 87 360 294 64 4439 234 59 42 115 33 118 55 12 39 23 37 346 136 6 48 31 59 142 63 30 16
internal_value=3.43667e-05 0.0335559 -0.0459145 0.0464995 0.0273902 0.00795227 0.00950506 -0.0240045 0.0209265 0.0540272 0.029616 0.00126199 -0.00909829 -0.016446 -0.00282023 0.0203227 0.0345233 0.0386098 -0.00967831 0.0281167 -0.0146326 0.0282884 0.0385191 0.0157641 0.0260728 -0.0127061 0.0170772 0.0358994 0.0124774 -0.00413035 0.0135573
internal_weight=1357.38 784.824 572.56 521.29 147.317 263.534 91.5349 194.901 151.814 373.973 38.5087 19.7694 55.8417 49.7561 35.9269 19.9962 8.99169 35.6932 111.719 12.9474 98.7718 115.887 60.5933 26.4142 24.0343 11.7949 55.2941 29.2945 14.7131 25.9997 16.9748
internal_count=9351 7673 1678 6088 1311 1585 592 629 1179 4777 338 104 220 178 215 151 63 372 406 62 344 964 567 221 215 79 397 264 122 133 103
is_linear=0
shrinkage=0.05


Tree=26
num_leaves=32
num_cat=0
split_feature=0 8 0 6 6 1 0 0 8 8 2 7 4 4 3 7 7 7 8 4 6 4 1 7 6 8 3 5 7 8 3
split_gain=778.887 100.198 56.7601 36.4035 33.4385 19.8662 17.3768 12.9353 12.3496 12.1803 11.6671 13.3767 10.7095 9.21122 8.71616 8.23746 8.6603 9.85785 11.0286 7.71108 6.67757 5.58011 8.46153 11.3335 8.28034 5.97188 5.32314 5.16457 4.93718 4.73105 5.62573
threshold=6.5000000000000009 29.236500000000003 1.5000000000000002 1079.5000000000002 1331.5000000000002 3.3500000000000001 19.500000000000004 15.500000000000002 1.2755000000000003 157.53750000000002 43.150000000000013 66.550000000000011 12659.500000000002 11981.000000000002 6238.5000000000009 66.450000000000017 67.000000000000014 67.65000000000002 9.9775000000000009 9253.5000000000018 443.50000000000006 11453.500000000002 2.7500000000000004 66.700000000000003 989.50000000000011 1.0000000180025095e-35 5840.5000000000009 48012.000000000007 72.250000000000014 239.65700000000001 17300.500000000004
decision_type=2 2 2 2 2 2 2 2 2 2 2 2 2 2 2 2 2 2 2 2 2 2 2 2 2 2 2 2 2 2 2
left_child=2 6 -1 7 5 10 21 9 -4 20 11 14 13 19 -5 -8 -17 -18 28 -7 -3 24 23 -23 -2 -26 -6 -20 -19 -10 -31
right_child=1 3 8 4 26 12 15 -9 29 -11 -12 -13 -14 -15 -16 16 17 18 27 -21 -22 22 -24 -25 25 -27 -28 -29 -30 30 -32
leaf_value=-0.056696052575216906 -0.0086349668434646584 0.043508727889957993 -0.033351524435584722 -0.036391538509096905 -0.040258335235244892 -0.023418636918698138 0.059611248832172906 0.055572817440841638 -0.012243867783424072 0.058980745657126535 0.051730827562008558 -0.03028439712652391 0.06031195567885661 -0.043662092408293739 0.068031043643578135 -0.026010781433082348 0.060524680250791808 -0.016248929739082037 -0.0052414188984845258 0.051280929139108082 -0.010496117941688032 0.075862845359135372 -0.031190112780704146 -0.023551923291059249 0.0080804020936330479 0.073510267400839074 0.056433295176391444 0.050388025072634846 0.034375878373158662 0.049685448083259899 -0.033007868203658773
leaf_weight=362.48652628809214 50.898024253547192 8.2190872356295603 116.29678899794817 2.9016141444444639 1.459433689713477 4.9280010908842149 11.445336326956747 344.95665909349918 66.379915289580822 17.986763872206211 6.5331574007868758 44.995764136314392 19.590630851686001 5.9420219957828513 6.4196445718407631 11.442453153431414 12.817071557044981 26.512962572276592 5.3954626098275211 11.556283868849276 18.85449057072401 4.797966353595255 42.636088214814663 7.1226630359888077 8.7581288516521436 5.7947968170046797 57.667696185410023 18.402267225086689 5.8850909769535056 6.8770240023732168 2.9343041554093361
leaf_count=1049 181 60 335 8 14 28 145 4739 229 234 46 124 252 14 60 45 155 102 31 130 82 31 124 24 35 39 769 167 34 55 10
internal_value=3.68054e-05 0.0327871 -0.0450438 0.0440067 0.0240834 0.00686084 0.00356059 0.0522818 -0.0231006 0.0270876 -0.0113979 -0.0189909 0.0333037 0.00971042 0.0355253 0.0199222 0.0142762 0.0209558 0.011931 0.0289494 0.00589885 -0.00896898 -0.0207782 0.0164618 0.000874602 0.0341338 0.0540467 0.0377756 -0.00705296 -0.0074538 0.0249541
internal_weight=1318.89 763.92 554.975 552.011 161.994 102.867 211.908 390.017 192.488 45.0603 60.8502 54.317 42.0169 22.4263 9.32126 91.9006 80.4553 69.0129 56.1958 16.4843 27.0736 120.008 54.5567 11.9206 65.4509 14.5529 59.1271 23.7977 32.3981 76.1912 9.81133
internal_count=9351 7673 1678 6560 1445 662 1113 5115 629 376 238 192 424 172 68 679 534 489 334 158 142 434 179 55 255 74 783 198 136 294 65
is_linear=0
shrinkage=0.05


Tree=27
num_leaves=32
num_cat=0
split_feature=0 0 8 6 6 8 1 3 5 3 0 0 1 3 5 4 7 3 3 2 4 3 3 5 6 8 6 6 7 0 6
split_gain=726.87 121.61 41.3158 27.4535 29.0139 26.0518 21.2666 10.3211 9.03824 8.84646 8.11757 7.80203 6.89085 6.80873 6.33098 7.46859 6.07447 7.61558 5.91281 9.30817 5.50056 5.41531 5.2821 7.06337 8.02426 6.35042 5.87213 8.39144 5.59269 5.65285 9.27092
threshold=13.500000000000002 1.5000000000000002 34.251000000000005 1079.5000000000002 1331.5000000000002 71.637500000000017 3.3500000000000001 17300.500000000004 78408.500000000015 17772.500000000004 4.5000000000000009 60.500000000000007 3.0500000000000003 14703.500000000002 86896.500000000015 11453.500000000002 66.550000000000011 6238.5000000000009 13891.500000000002 42.250000000000007 5420.0000000000009 17772.500000000004 10041.000000000002 65574.000000000015 1373.5000000000002 24.640000000000004 1169.5000000000002 1019.5000000000001 73.100000000000009 37.500000000000007 1163.5000000000002
decision_type=2 2 2 2 2 2 2 2 2 2 2 2 2 2 2 2 2 2 2 2 2 2 2 2 2 2 2 2 2 2 2
left_child=1 -1 8 -4 6 10 16 -7 11 12 -3 22 -10 -14 15 20 17 -5 -8 -20 -12 -9 25 -24 28 26 27 -2 29 -25 -31
right_child=2 5 3 4 -6 7 18 21 9 -11 14 -13 13 -15 -16 -17 -18 -19 19 -21 -22 -23 23 24 -26 -27 -28 -29 -30 30 -32
leaf_value=-0.056197800042919889 7.2143716175658196e-05 -0.029996362227030716 0.054416241583935133 -0.034756005933263459 0.057767095502716914 0.028447121339313777 0.05359925943492716 -0.05196480547714153 -0.050933063034697905 0.04391508856691962 -0.047690211648961846 0.046174259731338284 -0.031033137289631432 0.037558098671172636 0.01258704151179255 -0.031019245170306037 -0.017421396830467333 0.066981980221183221 -0.037747317275358377 0.062970921808706379 -0.0023161973222958362 0.0129629545520879 0.067397276089691038 0.05577259826931931 -0.046293388557080907 0.062101207714696953 0.041951746501731814 -0.064298647567649775 -0.040045390892213373 0.062954487222554201 -0.050841123045350135
leaf_weight=347.78749965876341 21.803149685263637 119.13597210496664 336.65962462127209 2.8866333663463584 50.81867403537035 44.150270566344261 24.693624056875706 7.0350468307733518 11.077081896364691 6.5428404584527007 7.3922925218939772 25.835260517895222 7.6437735781073552 6.8695299103856087 21.486949510872364 53.624952509999275 43.747704371809959 5.0702034160494804 5.1841422915458661 4.1147301718592644 69.253315813839436 5.9087944701313972 8.6197319552302343 13.182732149958619 4.4079295545816413 3.8366050198674193 5.4123903065919867 6.5941068753600112 2.718911111354827 3.273686170578002 3.9487265422940254
leaf_count=1049 109 356 4782 8 725 352 325 17 32 68 21 268 30 40 90 156 145 50 13 48 261 34 89 107 19 44 34 15 8 36 20
internal_value=3.93473e-05 -0.0355998 0.0398515 0.046747 0.0278339 -0.0137584 0.0100834 0.0169364 0.0150899 -0.00796883 -0.0202276 0.0225266 -0.0212343 0.00143291 -0.0125588 -0.0167064 -0.0101125 0.0300728 0.0408026 0.00682028 -0.00669242 -0.0223256 0.0142481 0.0278985 0.0155322 0.0011395 -0.00577823 -0.0148754 0.0273175 0.0362933 0.000738748
internal_weight=1280.72 675.775 604.942 473.175 136.516 327.988 85.697 57.0941 131.766 32.1332 270.893 99.6332 25.5904 14.5133 151.758 130.271 51.7045 7.95684 33.9925 9.29887 76.6456 12.9438 73.798 36.1517 27.532 37.6463 33.8096 28.3973 23.1241 20.4051 7.22241
internal_count=9351 2336 7015 6096 1314 1287 589 403 919 170 884 749 102 70 528 438 203 58 386 61 282 51 481 279 190 202 158 124 171 163 56
is_linear=0
shrinkage=0.05


Tree=28
num_leaves=32
num_cat=0
split_feature=0 8 0 6 6 0 1 8 0 8 7 7 4 7 8 1 2 7 7 3 5 4 2 8 6 6 6 7 7 3 2
split_gain=677.36 92.5462 56.1322 27.2725 27.0117 18.9048 15.6438 11.1995 10.5471 14.4787 10.3498 13.0112 10.9323 9.77582 9.53706 9.37453 8.266 8.93415 7.80316 7.46381 7.08606 7.20291 6.57203 5.87965 5.05746 9.00916 4.99007 4.94606 4.71431 6.45747 4.56551
threshold=6.5000000000000009 51.473500000000008 1.5000000000000002 1079.5000000000002 1331.5000000000002 19.500000000000004 3.3500000000000001 1.2755000000000003 17.500000000000004 164.53650000000002 66.450000000000017 67.000000000000014 12764.500000000002 69.050000000000011 9.9775000000000009 5.1500000000000012 43.150000000000013 66.550000000000011 69.750000000000014 6238.5000000000009 63075.000000000007 11103.500000000002 42.95000000000001 28.174000000000003 203.50000000000003 168.50000000000003 1019.5000000000001 72.250000000000014 72.050000000000011 9992.0000000000018 42.850000000000001
decision_type=2 2 2 2 2 2 2 2 2 2 2 2 2 2 2 2 2 2 2 2 2 2 2 2 2 2 2 2 2 2 2
left_child=2 5 -1 8 6 22 16 28 9 15 -7 12 23 -13 27 20 17 19 -8 -5 -3 -22 30 -12 25 -16 -26 -15 29 -4 -2
right_child=1 3 7 4 -6 10 18 -9 -10 -11 11 13 -14 14 24 -17 -18 -19 -20 -21 21 -23 -24 -25 26 -27 -28 -29 -30 -31 -32
