tree
version=v4
num_class=1
num_tree_per_iteration=1
label_index=0
max_feature_idx=11
objective=binary sigmoid:1
feature_names=year total_rooftops Unemployment_Rate Average_Age Elderly_Population Young_Population Total_Population tile_encoded employed pv_price panel_area_lag1 ev_points_164m
feature_infos=[2006:2020] [0:238] [2.1000000000000001:7.7000000000000002] [38.299999999999997:43.5] [3154:23161] [1843:20164] [18876:118147] [0:1563] [63.399999999999999:80.5] [1280:5440] [0:21447.982] [0:45]
tree_sizes=3472 3477 3476 3475 3477 3468 3473 3489 3473 3482 3481 3471 3465 3487 3465 3473 3471 3472 3479 3477 3488 3478 3483 3465 3480 3488 3471 3484 3485 3473 3483 3488 3489 3484 3491 3491 3488 3483 3484 3486 3485 3482 3479 3495 3485 3467 3488 3494 3498 3478 3487 3502 3489 3496 3489 3502 3507 3498 3504 3490 3485 3503 3504 3508 3498 3506 3497 3499 3491 3500 3492 3503 3514 3493 3501 3485 3496 3497 3501 3496 3486 3490 3487 3488 3498 3480 3503 3495 3505 3494 3506 3503 3487 3504 3496 3514 3504 3484 3503 3521 3505 3493 3495 3496 3515 3502 3521 3503 3519 3485 3512 3498 3516 3489 3508 3492 3485 3516 3502 3497 3514 3500 3508 3497 3504 3516 3499 3528 3508 3509 3503 3520 3497 3503 3501 3512 3516 3504 3524 3521 3504 3515 3509 3522 3518 3527 3518 3518 3507 3499 3549 3536 3545 3509 3498 3540 3503 3509 3487 3512 3520 3527 3530 3497

Tree=0
num_leaves=32
num_cat=0
split_feature=1 10 10 7 7 0 0 1 1 10 1 8 4 1 10 4 10 8 1 7 8 4 10 10 4 10 8 10 10 1 4
split_gain=5978.62 300.432 266.133 130.619 152.081 197.899 186.447 97.0744 48.3177 48.0967 28.9348 26.1946 36.5673 21.8318 29.2699 21.6402 22.1665 20.9434 16.5191 18.8184 15.5281 17.8344 17.6077 17.1857 14.622 11.821 11.7799 13.4061 11.1526 7.76678 7.70187
threshold=9.5000000000000018 24.640000000000004 3.4510000000000005 1079.5000000000002 1331.5000000000002 2013.5000000000002 2016.5000000000002 19.500000000000004 3.5000000000000004 420.95100000000008 1.5000000000000002 66.450000000000017 16064.500000000002 14.500000000000002 157.53750000000002 8913.0000000000018 1.1845000000000001 73.250000000000014 13.500000000000002 953.50000000000011 66.450000000000017 17300.500000000004 24.640000000000004 150.33900000000003 10193.500000000002 12.011000000000001 69.15000000000002 9.9775000000000009 18.990500000000004 1.5000000000000002 15125.000000000002
decision_type=2 2 2 2 2 2 2 2 2 2 2 2 2 2 2 2 2 2 2 2 2 2 2 2 2 2 2 2 2 2 2
left_child=2 7 8 13 5 -5 -7 18 29 10 -4 -9 15 14 24 16 -13 20 25 -20 22 23 -12 -22 -3 -2 28 -28 -17 -1 -11
right_child=1 3 9 4 -6 6 -8 11 -10 30 17 12 -14 -15 -16 26 -18 -19 19 -21 21 -23 -24 -25 -26 -27 27 -29 -30 -31 -32
leaf_value=-0.099554846825258225 -0.054435734421592531 0.077249403401854447 -0.090691282171838028 0.094709289446386846 0.097517067280148681 -0.068261832215496726 0.099999997144382485 0.099999997144382485 -0.061666230300369031 0.099999997144382485 -0.036181310641159203 -0.050597736233075792 -0.049757016243984042 0.098409967404938944 0.099999997144382485 0.099999997144382471 0.050924898224400356 0.07424621781276565 -0.023011207823182608 0.057972646776536393 -0.031917478356307039 -0.087957464190588752 0.067350370475435059 0.045434726138413539 -0.01506865864923863 0.016104703952883739 0.011137064641118698 0.078263302411185814 0.022235395268310459 -0.08577986333499571 0.010320117192651924
leaf_weight=744.41784505546093 39.008923098444939 6.4585519731044796 16.181409791111946 55.544891342520714 118.35686075687408 65.494306996464729 21.991720706224442 19.882925570011139 104.52169175446033 8.8870652168989164 7.5528078079223659 9.7568461894989031 10.792782098054884 739.2862584143877 22.443605378270149 24.703028738498691 11.976411283016203 5.7054108530282965 22.695346742868423 10.488590702414511 64.603129416704178 12.508012488484381 9.0007701218128187 8.0785391181707364 12.769410669803618 7.0056798905134192 16.53511627018452 13.519616842269896 5.6684875339269629 118.63709962368011 3.2768976092338553
leaf_count=1022 100 39 26 361 778 144 146 132 248 59 23 26 29 4877 149 164 64 34 77 58 204 21 52 42 46 31 71 82 26 206 14
internal_value=-2.9984e-09 0.0755976 -0.0845736 0.0861853 0.0555911 0.0208978 -0.0259652 0.0181282 -0.093773 -0.0190255 -0.0283594 0.0479113 0.0367693 0.0964252 0.0612135 0.0481358 0.00534771 -0.0189724 -0.0243041 0.00258571 -0.0241997 -0.0328103 0.0201126 -0.0233198 0.0159404 -0.043696 0.0635251 0.0413327 0.0854861 -0.0976613 0.0758408
internal_weight=2337.75 1234.38 1103.37 1042.35 261.388 143.031 87.486 192.034 967.577 135.794 123.63 112.835 92.9523 780.958 41.6716 82.1595 21.7333 107.449 79.1985 33.1839 101.743 85.1897 16.5536 72.6817 19.228 46.0146 60.4262 30.0547 30.3715 863.055 12.164
internal_count=9351 7400 1951 6540 1429 651 290 860 1476 475 402 594 462 5111 234 433 90 376 266 135 342 267 75 246 85 131 343 153 190 1228 73
is_linear=0
shrinkage=1


Tree=1
num_leaves=32
num_cat=0
split_feature=1 10 10 7 7 0 0 1 1 10 1 1 8 10 1 10 8 5 0 6 8 4 10 10 3 10 0 3 10 3 1
split_gain=5407.4 272.264 241.193 118.304 137.67 179.01 168.575 88.0275 43.9905 43.4696 28.2185 26.1946 20.6818 21.8258 19.8217 27.3525 18.9216 17.7144 36.6278 15.972 14.0218 16.1512 15.9075 15.5154 13.6666 10.6794 9.47209 9.08459 8.202 7.22766 7.08831
threshold=9.5000000000000018 24.640000000000004 3.4510000000000005 1079.5000000000002 1331.5000000000002 2013.5000000000002 2016.5000000000002 31.500000000000004 3.5000000000000004 420.95100000000008 13.500000000000002 1.5000000000000002 69.15000000000002 6.3755000000000015 14.500000000000002 71.637500000000017 73.250000000000014 13472.000000000002 2010.5000000000002 46272.000000000007 66.450000000000017 17300.500000000004 24.640000000000004 150.33900000000003 42.850000000000001 12.011000000000001 2007.5000000000002 39.95000000000001 4.3550000000000013 41.000000000000007 1.5000000000000002
decision_type=2 2 2 2 2 2 2 2 2 2 2 2 2 2 2 2 2 2 2 2 2 2 2 2 2 2 2 2 2 2 2
left_child=2 7 8 14 5 -5 -7 10 30 11 25 -4 24 -14 15 -3 20 18 19 -12 22 23 -13 -22 27 -2 28 -9 -21 -25 -1
right_child=1 3 9 4 -6 6 -8 12 -10 -11 17 16 13 -15 -16 -17 -18 -19 -20 26 21 -23 -24 29 -26 -27 -28 -29 -30 -31 -32
leaf_value=-0.094815759071263273 -0.051752938971732325 -0.010687487808232863 -0.08633710547818324 0.090179289456554845 0.092865505953878713 -0.064925639836419816 0.095241866221837002 0.032612179504244193 -0.058639606123270176 0.072183928407123163 -0.041598386880172117 -0.034383690369640861 -0.018352940137192054 0.063888278200251114 0.093719986121073739 0.08209030641024033 0.070632867790703463 0.062887746510643258 -0.054761022923650718 -0.0048374170586825312 -0.030329459444761869 -0.083724146731663548 0.064056713290342002 0.0021946579475036901 -0.010355012528310392 0.01530048312878134 0.084241339449052571 0.095802190379952232 0.071225806895451257 0.097779096162293508 -0.081643496921593811
leaf_weight=742.57634973526001 38.980038046836853 10.691775143146513 16.148182809352875 55.420520320534706 118.075923204422 65.418068870902061 21.936833262443542 6.7170395851135245 104.42238457500935 12.141695082187651 6.2123083621263495 7.5503364205360439 14.837285369634627 17.680733069777489 737.49920055270195 30.913426488637924 5.6975552886724463 12.58201916515827 20.822161436080933 9.8082227408885938 64.586677759885788 12.483851656317709 8.9905704855918867 4.6117095351219159 4.0063422173261634 7.0052258670330039 10.515784204006195 37.12223307788372 5.5493574142456064 3.4626618325710297 118.41913092136383
leaf_count=1022 100 40 26 361 778 144 146 33 248 73 18 23 52 102 4877 194 34 72 53 38 204 21 52 19 15 31 66 247 33 23 206
internal_value=1.62831e-07 0.0719716 -0.0805145 0.0820677 0.0529227 0.0198898 -0.0247039 0.0172403 -0.0892871 -0.0180905 -0.0115172 -0.0269634 0.0571309 0.0263633 0.0918257 0.0582481 -0.0180349 0.00956277 -0.00311844 0.0303953 -0.0230031 -0.0311866 0.0191222 -0.0221602 0.0780419 -0.0415383 0.0476813 0.0861202 0.0226475 0.0431857 -0.0930041
internal_weight=2332.89 1231.79 1101.09 1039.96 260.851 142.775 87.3549 191.839 965.418 135.673 111.475 123.532 80.3636 32.518 779.104 41.6052 107.383 65.4899 52.9078 32.0857 101.686 85.1449 16.5409 72.661 47.8456 45.9853 25.8734 43.8393 15.3576 8.07437 860.995
internal_count=9351 7400 1951 6540 1429 651 290 860 1476 475 411 402 449 154 5111 234 376 280 208 155 342 267 75 246 295 131 137 280 71 42 1228
is_linear=0
shrinkage=0.05


Tree=2
num_leaves=32
num_cat=0
split_feature=1 10 10 7 7 0 0 1 1 10 1 8 4 10 1 10 4 10 1 7 4 1 8 10 10 10 6 6 8 4 4
split_gain=4910.08 248.689 220.289 107.827 125.317 162.599 152.929 80.0347 40.9074 39.3653 23.9425 22.1281 31.4501 20.5896 18.2659 25.1059 18.2544 18.9903 13.2744 16.078 13.244 10.3632 9.72908 11.1251 9.85573 9.66613 9.58098 14.7976 8.1537 7.48498 7.04073
threshold=9.5000000000000018 24.640000000000004 3.4510000000000005 1079.5000000000002 1331.5000000000002 2013.5000000000002 2016.5000000000002 19.500000000000004 2.5000000000000004 420.95100000000008 4.5000000000000009 66.450000000000017 16064.500000000002 150.33900000000003 14.500000000000002 157.53750000000002 8913.0000000000018 1.1845000000000001 13.500000000000002 953.50000000000011 10193.500000000002 1.5000000000000002 69.15000000000002 9.9775000000000009 18.990500000000004 12.011000000000001 89902.500000000015 82710.000000000015 70.40000000000002 14326.500000000002 15125.000000000002
decision_type=2 2 2 2 2 2 2 2 2 2 2 2 2 2 2 2 2 2 2 2 2 2 2 2 2 2 2 2 2 2 2
left_child=2 7 8 14 5 -5 -7 18 -1 10 21 -9 16 26 15 20 17 -13 25 -20 -3 -4 24 -24 -18 -2 27 -12 -10 -22 -11
right_child=1 3 9 4 -6 6 -8 11 28 30 13 12 -14 -15 -16 -17 22 -19 19 -21 29 -23 23 -25 -26 -27 -28 -29 -30 -31 -32
leaf_value=-0.089784023600131518 -0.049269913127029295 0.072120288402354654 -0.082505953369798435 0.086223797044316292 0.088826642751150181 -0.061885920281519118 0.091131790269720708 0.091653951761949529 -0.049068904342176575 0.092091218450189291 -0.010303347778340601 -0.04725385186080848 -0.046974751137329865 0.064145041332611216 0.089655228069043455 0.09167631073744674 0.09185401890777585 0.046805644838698056 -0.021659918860850811 0.053283064481413095 -0.051725423231086733 -0.035661168017221377 0.010417120860346508 0.071657227619581598 0.018635682040728449 0.01453816435785792 0.046314246230578601 -0.083129436921817901 -0.07253161549306851 0.025021224627757323 0.0062078098171428429
leaf_weight=811.07632187008858 38.899162247776985 6.4364823251962688 16.055291697382927 55.072898030281067 117.29083406925201 65.204713001847267 21.78346648812294 19.710532203316689 71.473572939634323 8.8215196877717954 39.157934933900833 9.7411428093910235 10.778423383831976 9.4217914938926679 732.50552925467491 22.258587807416916 24.501029029488567 11.948214411735533 22.674196496605873 10.457314699888228 6.7961256802082044 44.610482007265091 16.526865512132648 13.452489361166952 5.6573438793420783 7.0039527267217627 5.5189288258552542 8.486985504627226 76.834956720471382 5.9657467752695084 3.2713275551795951
leaf_count=1146 100 39 26 361 778 144 146 132 182 59 144 26 29 55 4877 149 164 64 77 58 18 134 71 82 26 31 29 14 148 28 14
internal_value=6.45858e-07 0.0687822 -0.0769447 0.0784781 0.0505763 0.0189954 -0.0235674 0.0164232 -0.0853691 -0.0172289 -0.0256754 0.043549 0.0333101 -0.00397871 0.0878279 0.0555401 0.0438854 0.00456156 -0.0221252 0.00199437 0.0136438 -0.0480587 0.058068 0.0378971 0.0781191 -0.039534 -0.0160517 -0.0232759 -0.0612244 -0.0158489 0.0688582
internal_weight=2319.39 1224.67 1094.73 1033.31 259.352 142.061 86.9882 191.351 959.385 135.344 123.251 112.316 92.6055 62.5856 773.962 41.4569 81.8271 21.6894 79.0346 33.1315 19.1984 60.6658 60.1377 29.9794 30.1584 45.9031 53.1638 47.6449 148.309 12.7619 12.0928
internal_count=9351 7400 1951 6540 1429 651 290 860 1476 475 402 594 462 242 5111 234 433 90 266 135 85 160 343 153 190 131 187 158 330 46 73
is_linear=0
shrinkage=0.05


Tree=3
num_leaves=32
num_cat=0
split_feature=1 10 10 7 7 0 0 1 1 10 1 1 8 10 1 10 8 5 0 8 4 10 4 10 3 10 3 8 4 3 10
split_gain=4473.59 228.646 202.829 98.8441 114.62 148.224 139.137 73.225 40.0327 35.514 24.9757 22.8736 17.5989 18.2957 16.9549 23.4574 16.6325 15.2812 32.1 14.6148 14.6391 15.7976 14.5348 12.6004 11.7287 8.76298 7.88305 6.65338 7.96633 6.61972 6.52625
threshold=9.5000000000000018 24.640000000000004 4.3550000000000013 1079.5000000000002 1331.5000000000002 2013.5000000000002 2016.5000000000002 31.500000000000004 3.5000000000000004 518.43450000000018 1.5000000000000002 13.500000000000002 69.15000000000002 6.3755000000000015 14.500000000000002 71.637500000000017 73.250000000000014 13472.000000000002 2010.5000000000002 66.450000000000017 17300.500000000004 150.33900000000003 9780.0000000000018 24.640000000000004 42.850000000000001 12.011000000000001 39.95000000000001 71.950000000000017 13301.500000000002 41.000000000000007 228.58550000000005
decision_type=2 2 2 2 2 2 2 2 2 2 2 2 2 2 2 2 2 2 2 2 2 2 2 2 2 2 2 2 2 2 2
left_child=2 7 8 14 5 -5 -7 11 -1 10 -4 25 24 -14 15 -3 19 18 22 23 21 -21 -13 -12 26 -2 -9 28 -10 -23 -25
right_child=1 3 9 4 -6 6 -8 12 27 -11 16 17 13 -15 -16 -17 -18 -19 -20 20 -22 29 -24 30 -26 -27 -28 -29 -30 -31 -32
leaf_value=-0.085455748498355369 -0.04696100966624156 -0.01067764346653712 -0.080228980783311046 0.082738017032995617 0.085287442719144943 -0.059097646594300848 0.087549101174874092 0.029433016394082454 -0.022638642972439896 0.075026475754936442 -0.028027083561853725 -0.0028570486631319357 -0.017019507728685136 0.058428985744511233 0.086099981129618308 0.075438303362179104 0.067811394577607112 0.05815871645084586 -0.051729253843207139 -0.027523114989255054 -0.077733634904555052 0.0053425280616193069 0.064838525396105726 0.093316039145631358 -0.010248341346199424 0.013815231954379753 0.08846300979986392 -0.068981803321434498 -0.057903161928752771 0.092712478045937241 0.0066225134575487237
leaf_weight=847.16807508468628 38.774183332920074 10.673889443278311 16.645188271999359 54.536603555083275 116.07979571819305 64.875164642930031 21.546927690505981 6.6920511126518241 27.793677866458893 9.9294341802597028 6.6528940051794079 17.327938705682758 14.822628289461134 17.54686675965786 724.80293104052544 30.513910293579102 5.8204670399427405 12.495834216475485 20.768957927823067 63.446060180664062 12.347099810838698 4.898957282304762 14.618641600012777 5.9913494735956174 3.9924671053886405 7.0019844621419898 36.522120460867882 39.266654461622238 37.788974761962891 3.8890263438224792 3.4043590575456619
leaf_count=1229 100 40 27 361 778 144 146 33 89 63 21 69 52 102 4877 194 35 72 53 201 21 21 86 40 15 31 247 77 86 26 15
internal_value=1.53077e-06 0.0659569 -0.0737679 0.0753237 0.0484941 0.0181947 -0.0225354 0.0156717 -0.0818487 -0.0159359 -0.0232734 -0.0105725 0.0522755 0.0238796 0.0843267 0.0531212 -0.0143674 0.0084452 -0.00333902 -0.0191207 -0.0274208 -0.0188208 0.0281202 0.0246235 0.0717464 -0.0376646 0.0793218 -0.0527042 -0.0429582 0.0440071 0.0619043
internal_weight=2298.64 1213.59 1085.04 1023.03 257.038 140.959 86.4221 190.564 952.017 133.025 123.095 110.988 79.5761 32.3695 765.991 41.1878 106.45 65.2114 52.7155 100.63 84.5811 72.234 31.9466 16.0486 47.2066 45.7762 43.2142 104.849 65.5827 8.78798 9.39571
internal_count=9351 7400 1951 6540 1429 651 290 860 1481 470 407 411 449 154 5111 234 380 280 208 345 269 248 155 76 295 131 280 252 175 47 55
is_linear=0
shrinkage=0.05


Tree=4
num_leaves=32
num_cat=0
split_feature=1 10 10 7 7 0 0 1 1 10 1 8 4 10 1 10 4 10 4 1 7 0 1 6 6 10 0 8 10 8 4
split_gain=4087.99 211.509 187.566 91.0295 105.355 134.115 125.19 66.7303 36.9872 32.6356 20.5066 19.1502 27.2641 17.3155 15.9518 22.0598 15.6252 16.5237 12.0678 10.6315 13.9469 10.4486 8.6349 8.12031 12.8423 7.95507 7.31071 7.34169 7.66237 7.21395 6.64358
threshold=9.5000000000000018 24.640000000000004 3.4510000000000005 1079.5000000000002 1325.5000000000002 2013.5000000000002 2016.5000000000002 19.500000000000004 2.5000000000000004 420.95100000000008 4.5000000000000009 66.450000000000017 16064.500000000002 150.33900000000003 14.500000000000002 157.53750000000002 8913.0000000000018 1.1845000000000001 10193.500000000002 13.500000000000002 953.50000000000011 2019.0000000000002 1.5000000000000002 89902.500000000015 82710.000000000015 12.011000000000001 2007.5000000000002 69.15000000000002 3.4510000000000005 70.40000000000002 14326.500000000002
decision_type=2 2 2 2 2 2 2 2 2 2 2 2 2 2 2 2 2 2 2 2 2 2 2 2 2 2 2 2 2 2 2
left_child=2 7 8 14 5 -5 -7 19 -1 10 22 -9 16 23 15 18 17 -13 -3 25 -21 26 -4 24 -12 -2 27 -18 -29 -10 -20
right_child=1 3 9 4 -6 6 -8 11 29 -11 13 12 -14 -15 -16 -17 21 -19 30 20 -22 -23 -24 -25 -26 -27 -28 28 -30 -31 -32
leaf_value=-0.083113759301215728 -0.044805011680157179 0.067793945575396766 -0.076016972211000317 0.07948880413012667 0.081280786244523423 -0.057357511288933821 0.084401501553021674 0.085263231458466648 -0.04428357791531428 0.063374796265476027 -0.008942470526829319 -0.044495433961978165 -0.044441128634078245 0.059544358488545571 0.082965394576867496 0.085262430609643947 0.085859018057900305 0.043442610708332878 -0.050277235183566672 -0.020673989041550916 0.049322163588111007 -0.031680574307225241 -0.032901852623905617 0.043298948377793946 -0.077241235878830167 0.013129378613605431 0.074839391928759491 -0.024081835551313852 0.044742649480264275 -0.066488685801878333 0.022110378136146205
leaf_weight=791.58927538990974 38.612050563097 6.3775140494108227 15.723258361220358 52.381749331951141 117.72077651321888 63.28020653128624 20.658641308546066 19.25824448466301 70.756047606468201 11.902333512902258 39.081693962216377 9.7035171836614627 10.738797113299368 9.336181625723837 714.82619409263134 21.773058503866196 6.1465062797069576 11.884346961975096 6.7861821651458722 22.627735629677773 10.381603211164473 3.3879464119672766 44.421547397971153 5.4828384667634955 8.3538649976253492 6.9994291365146628 31.221051558852196 5.9310792386531856 12.710848957300184 75.719913110136986 5.9477022290229797
leaf_count=1146 100 39 26 351 796 140 142 132 182 73 144 26 29 55 4877 149 42 64 18 77 58 11 134 29 14 31 200 20 70 148 28
internal_value=2.51547e-06 0.0634253 -0.0709307 0.0725239 0.0466311 0.0167091 -0.0224684 0.0149696 -0.0788429 -0.0156655 -0.0233516 0.0399357 0.0304187 -0.00323561 0.0812281 0.050853 0.0403453 0.00391539 0.0116513 -0.020273 0.00134015 0.0535857 -0.0441732 -0.0143116 -0.0209705 -0.0359145 0.0587433 0.0384703 0.0228456 -0.0557624 -0.0164667
internal_weight=2271.72 1199.36 1072.37 1009.75 254.041 136.321 83.9388 189.603 938.065 134.302 122.399 110.982 91.7241 62.2546 755.711 40.8845 80.9853 21.5879 19.1114 78.6208 33.0093 59.3974 60.1448 52.9184 47.4356 45.6115 56.0095 24.7884 18.6419 146.476 12.7339
internal_count=9351 7400 1951 6540 1429 633 282 860 1476 475 402 594 462 242 5111 234 433 90 85 266 135 343 160 187 158 131 332 132 90 330 46
is_linear=0
shrinkage=0.05


Tree=5
num_leaves=32
num_cat=0
split_feature=1 10 10 7 7 0 0 1 1 1 10 1 8 10 1 1 10 6 0 5 2 10 4 3 2 6 0 8 3 10 7
split_gain=3745.08 196.608 175.12 84.2654 97.274 124.454 116.153 61.291 34.5103 26.1424 25.793 18.6414 15.304 15.4409 15.2298 15.0397 20.482 13.9894 12.0445 28.2386 11.4378 12.861 11.1125 10.2144 7.97164 8.85753 7.73069 7.3189 7.25427 7.23004 7.06445
threshold=9.5000000000000018 24.640000000000004 1.0000000180025095e-35 1079.5000000000002 1331.5000000000002 2013.5000000000002 2016.5000000000002 31.500000000000004 5.5000000000000009 2.5000000000000004 150.33900000000003 13.500000000000002 69.15000000000002 6.3755000000000015 1.5000000000000002 14.500000000000002 157.53750000000002 46272.000000000007 2010.5000000000002 13472.000000000002 3.0500000000000003 239.65700000000001 11283.000000000002 42.850000000000001 4.2500000000000009 73888.000000000015 2007.5000000000002 70.40000000000002 39.95000000000001 12.011000000000001 791.50000000000011
decision_type=2 2 2 2 2 2 2 2 2 2 2 2 2 2 2 2 2 2 2 2 2 2 2 2 2 2 2 2 2 2 2
left_child=2 7 9 15 5 -5 -7 11 14 -1 -10 29 23 -14 -4 16 22 -13 26 -20 -16 24 -3 28 25 -22 30 -11 -9 -2 -19
right_child=1 3 8 4 -6 6 -8 12 10 27 -12 17 13 -15 20 -17 -18 18 19 -21 21 -23 -24 -25 -26 -27 -28 -29 -30 -31 -32
leaf_value=-0.080385258901310555 -0.042784216675769461 0.055464018361581963 -0.076303719929160352 0.076872400517180972 0.079407980200989853 -0.054212066435814249 0.081619828685778495 0.025900278093442381 -0.0088567338927135978 -0.043404444376293462 0.066675970309284183 -0.048403826037734257 -0.015851373409744011 0.05370491673252166 -0.056146386227078585 0.080182098578125277 0.082380479946257967 -0.013555872325339086 -0.04569526854939681 0.053626361228773338 0.028605969135852189 0.060431828279186951 -0.021776244466654004 -0.010017258787640721 -0.046792354993455375 -0.031354411639117584 0.075616823579275377 -0.067295141337722547 0.082821170018864979 0.012478478389426105 0.054216657208476383
leaf_weight=770.45532278716564 38.418887034058571 8.1093183010816592 21.12346439063549 53.016236379742622 112.66635835170746 63.9501121789217 20.876482963562012 6.6454316079616538 48.212785765528679 60.62511833012104 14.763351202011107 9.5390622466802579 14.793979227542875 17.320146664977074 24.49978232383728 702.95525640249252 21.41693115234375 7.8341630697250366 17.309595048427585 12.200606971979139 11.25118510425091 5.1465333402156821 10.936621636152266 3.9733206182718268 19.7133629322052 13.609255492687224 10.337064355611801 68.030676603317261 35.494500547647476 6.9963834434747687 7.5515500754117966
leaf_count=1133 100 47 34 361 778 144 146 33 176 155 93 25 52 102 57 4877 149 29 46 71 52 31 38 15 51 41 66 128 247 31 43
internal_value=3.65342e-06 0.0611475 -0.0683629 0.0700248 0.0449451 0.0167767 -0.0207828 0.014318 -0.0198731 -0.0769013 0.00885022 -0.00971038 0.0481633 0.0216625 -0.0388453 0.0784759 0.0488338 0.0075103 0.017167 -0.00463204 -0.0281845 -0.0144062 0.0111109 0.0666189 -0.023047 -0.00421791 0.0421757 -0.0560374 0.0738448 -0.0342708 0.019708
internal_weight=2239.77 1182.34 1057.43 993.927 250.509 137.843 84.8266 188.415 158.32 899.111 62.9761 110.187 78.2274 32.1141 95.3436 743.418 40.4629 64.772 55.233 29.5102 74.2201 49.7203 19.0459 46.1133 44.5738 24.8604 25.7228 128.656 42.1399 45.4153 15.3857
internal_count=9351 7400 1951 6540 1429 651 290 860 535 1416 269 411 449 154 266 5111 234 280 255 117 232 175 85 295 144 93 138 283 280 131 72
is_linear=0
shrinkage=0.05


Tree=6
num_leaves=32
num_cat=0
split_feature=1 10 10 7 7 0 0 1 1 10 1 1 6 7 7 1 10 8 6 8 4 10 0 5 10 0 10 10 10 2 5
split_gain=3438.58 183.548 164.25 78.262 89.9635 114.389 106.384 55.9772 35.5359 27.6052 19.7862 16.9142 14.6614 14.3846 15.9709 14.3039 19.585 14.2297 12.6768 12.2594 12.3485 12.112 10.936 25.6254 10.7531 7.11393 6.81858 6.57755 6.40205 6.36376 6.36126
threshold=9.5000000000000018 24.640000000000004 4.3550000000000013 1079.5000000000002 1331.5000000000002 2013.5000000000002 2016.5000000000002 31.500000000000004 3.5000000000000004 518.43450000000018 1.5000000000000002 13.500000000000002 75572.500000000015 196.50000000000003 1163.5000000000002 14.500000000000002 71.637500000000017 73.250000000000014 46272.000000000007 66.450000000000017 17300.500000000004 150.33900000000003 2010.5000000000002 13472.000000000002 24.640000000000004 2007.5000000000002 4.3550000000000013 12.011000000000001 228.58550000000005 6.4500000000000002 10541.000000000002
decision_type=2 2 2 2 2 2 2 2 2 2 2 2 2 2 2 2 2 2 2 2 2 2 2 2 2 2 2 2 2 2 2
left_child=2 7 8 15 5 -5 -7 11 -1 10 -4 27 29 -14 -15 16 -3 19 -13 24 21 30 25 -24 -12 26 -20 -2 -26 -9 -21
right_child=1 3 9 4 -6 6 -8 12 -10 -11 17 18 13 14 -16 -17 -18 -19 22 20 -22 -23 23 -25 28 -27 -28 -29 -30 -31 -32
leaf_value=-0.077094489501014607 -0.040883799067777879 -0.011253105805854686 -0.072021894362566077 0.074374349059924169 0.076914170223498377 -0.051980283881656847 0.079141539472131942 0.067970479793064142 -0.045864819056987478 0.067819546234396996 -0.025189064137273898 -0.04612202863998488 -0.046508140105381256 0.074845345962577095 -0.026342359786656347 0.077695089766866635 0.067972681652360756 0.064120948532949112 -0.0064460960490204935 -0.045917029123561479 -0.071265444729850261 0.038919986577408722 -0.043561106155566832 0.051316352040793579 0.089476169462272159 0.072593106915186334 0.062812449095035097 0.011860556750945179 0.0031710534998219846 0.019024758308634652 -0.012564917023658476
leaf_weight=806.79490996897221 38.200072750449181 10.619498237967489 15.974735826253889 52.080690026283264 110.55659830570221 63.375639736652374 20.46409997344017 45.643421843647957 102.68376925587654 9.6213471293449384 6.6223477423191062 9.5111248493194562 7.0028134733438518 10.904826372861864 6.070238232612609 689.52251598238945 29.387471616268158 5.7571600079536429 9.7605503201484662 21.872692629694939 12.020268827676771 8.6659168750047666 17.251207143068317 12.11450584232807 5.9261262416839582 10.231872200965881 5.5884881615638742 6.9929319173097602 3.3710627555847168 7.771581530570983 41.276335746049881
leaf_count=1229 100 40 27 361 778 144 146 299 252 63 21 25 20 71 22 4877 194 35 38 57 21 47 46 71 40 66 34 31 15 37 144
internal_value=4.99786e-06 0.0590835 -0.0660263 0.0677789 0.0434203 0.0161767 -0.0199753 0.0137102 -0.0735685 -0.0137066 -0.0201632 -0.00926973 0.0462684 0.013787 0.0386609 0.0760087 0.0469429 -0.0123117 0.00717355 -0.0167229 -0.0243611 -0.0165103 0.0163989 -0.00442044 0.0235011 0.0402985 0.0187705 -0.0327224 0.0581828 0.0608492 -0.024117
internal_weight=2203.64 1163.05 1040.59 976.007 246.477 135.92 83.8397 187.044 909.479 131.108 121.487 109.651 77.3929 23.9779 16.9751 729.529 40.007 105.512 64.4577 99.7548 83.8352 71.8149 54.9466 29.3657 15.9195 25.5809 15.349 45.193 9.29719 53.415 63.149
internal_count=9351 7400 1951 6540 1429 651 290 860 1481 470 407 411 449 113 93 5111 234 380 280 345 269 248 255 117 76 138 72 131 55 336 201
is_linear=0
shrinkage=0.05


Tree=7
num_leaves=32
num_cat=0
split_feature=1 10 10 7 7 0 0 1 1 1 10 8 2 4 10 1 10 1 4 2 10 8 10 8 1 7 8 2 6 7 8
split_gain=3163.48 172.13 154.941 72.9132 83.4457 105.36 97.6048 51.2477 29.6853 25.0149 21.5901 16.6651 22.5313 14.0303 15.1407 13.7592 18.484 13.1947 10.2427 10.0265 10.7982 8.20525 8.72155 8.66204 7.66325 11.1893 6.98795 6.92886 7.93107 6.9549 6.20426
threshold=9.5000000000000018 24.640000000000004 1.0000000180025095e-35 1079.5000000000002 1331.5000000000002 2013.5000000000002 2016.5000000000002 19.500000000000004 5.5000000000000009 2.5000000000000004 150.33900000000003 66.450000000000017 3.0500000000000003 8913.0000000000018 1.2755000000000003 14.500000000000002 157.53750000000002 1.5000000000000002 10193.500000000002 3.0500000000000003 239.65700000000001 69.15000000000002 9.9775000000000009 67.000000000000014 13.500000000000002 953.50000000000011 70.40000000000002 4.2500000000000009 73888.000000000015 1217.5000000000002 68.90000000000002
decision_type=2 2 2 2 2 2 2 2 2 2 2 2 2 2 2 2 2 2 2 2 2 2 2 2 2 2 2 2 2 2 2
left_child=2 7 9 15 5 -5 -7 24 17 -1 -10 -9 -13 14 -14 16 18 -4 -3 -19 27 23 -23 -15 -2 -26 30 28 -21 -30 -11
right_child=1 3 8 4 -6 6 -8 11 10 26 -12 12 13 21 -16 -17 -18 19 -20 20 -22 22 -24 -25 25 -27 -28 -29 29 -31 -32
leaf_value=-0.075679863063585345 -0.031260012683004754 0.061910175158424556 -0.071429892124472469 0.072109652942635535 0.074668191017120217 -0.049889711780838751 0.076924135814953998 0.078844086489606571 -0.0074799294207064382 -0.045264527913645047 0.062271270795375401 -0.045978845217755381 -0.048272462218085156 0.011449931713941909 0.038002021010597957 0.075460201196662108 0.077860294701693811 -0.052371370541409668 -0.016340273217205142 0.027643123240073883 0.056162035607301312 0.0063956378718874607 0.060800660933100138 0.079801903821385661 -0.019134546290154222 0.044064110001465262 -0.062739764976980417 -0.043238551102284806 0.011864764699636017 -0.060532926313621019 0.0034167682891113669
leaf_weight=739.73108121752739 44.949489235877991 6.2368071228265789 20.390939339995384 51.056459665298462 108.24639773368835 62.745832085609436 20.012699753046036 18.32548625767231 47.966249689459801 52.138071328401566 14.432080179452894 9.5733553618192655 9.1647218763828295 5.7720838040113476 11.424846917390822 674.81846661865711 20.628907412290573 24.140071362257004 12.692895531654356 11.239090591669084 5.0582985877990714 17.563054487109188 12.688155353069304 23.530538305640221 22.462588861584663 10.176772326231001 66.34899041056633 19.507138103246689 5.8480482399463636 7.6654694825410843 7.4844689965248099
leaf_count=1133 131 39 34 361 778 144 146 132 176 127 93 26 23 28 62 4877 149 57 46 52 31 75 80 168 77 58 128 51 24 17 28
internal_value=6.31336e-06 0.0571924 -0.0639014 0.0657441 0.0420278 0.0156242 -0.0192235 0.0131314 -0.018075 -0.0721725 0.00865279 0.0353944 0.0265194 0.0351796 -0.000400029 0.0737801 0.0451201 -0.0358458 0.00944106 -0.0259681 -0.0130443 0.0474805 0.0292145 0.0663378 -0.0178699 0.000570445 -0.0515764 -0.0209537 -0.00339132 -0.0292024 -0.0391535
internal_weight=2164.02 1142.07 1021.95 956.438 242.061 133.815 82.7585 185.631 156.247 865.703 62.3983 108.042 89.7168 80.1434 20.5896 714.377 39.5586 93.8491 18.9297 73.4581 49.318 59.5538 30.2512 29.3026 77.5889 32.6394 125.972 44.2597 24.7526 13.5135 59.6225
internal_count=9351 7400 1951 6540 1429 651 290 860 535 1416 269 594 462 436 85 5111 234 266 85 232 175 351 155 196 266 135 283 144 93 41 155
is_linear=0
shrinkage=0.05


Tree=8
num_leaves=32
num_cat=0
split_feature=1 10 10 7 7 0 0 1 1 10 1 1 1 10 4 6 7 7 6 1 0 5 4 3 3 0 4 10 10 10 7
split_gain=2915.35 162 146.45 68.1714 77.674 96.1584 88.5014 47.1846 27.1759 30.6802 24.6241 13.8038 13.2987 20.3369 15.2215 13.2183 12.7093 14.5312 11.0494 10.0201 9.86313 22.2364 7.20723 7.51089 8.32902 6.47778 6.28243 12.2368 6.36909 6.03578 5.98661
threshold=9.5000000000000018 24.640000000000004 1.0000000180025095e-35 1079.5000000000002 1325.5000000000002 2013.5000000000002 2016.5000000000002 31.500000000000004 4.5000000000000009 150.33900000000003 1.5000000000000002 13.500000000000002 17.500000000000004 164.53650000000002 11283.000000000002 75572.500000000015 196.50000000000003 1163.5000000000002 46272.000000000007 1.5000000000000002 2010.5000000000002 13472.000000000002 17978.500000000004 43.050000000000004 39.550000000000004 2007.5000000000002 17300.500000000004 72.884000000000015 239.65700000000001 12.011000000000001 791.50000000000011
decision_type=2 2 2 2 2 2 2 2 2 2 2 2 2 2 2 2 2 2 2 2 2 2 2 2 2 2 2 2 2 2 2
left_child=2 7 10 12 5 -5 -7 11 19 22 -1 29 13 14 -3 -9 -17 -18 -13 -4 25 -22 23 24 -10 30 27 -21 -29 -2 -20
right_child=1 3 8 4 -6 6 -8 15 9 -11 -12 18 -14 -15 -16 16 17 -19 20 26 21 -23 -24 -25 -26 -27 -28 28 -30 -31 -32
leaf_value=-0.074679178396956203 -0.03773414851278295 0.06076082739751737 -0.069300639767917324 0.069882243126989541 0.071833614695363424 -0.048685298223499839 0.074928531945568644 0.057007890630825946 0.022287939008992345 0.063558383506059066 -0.054173460795596956 -0.043542090349035084 0.074056845594103915 0.075509861680199741 -0.009702625488551133 -0.044740125668078216 0.070723422895371632 -0.026417933243886162 -0.013202696373005564 -0.032770294800111809 -0.04128604979032275 0.047691569450964311 0.042305323519734712 0.03473008363329548 -0.032626479407059032 0.069115489725575838 -0.059463736573632943 -0.0013511800808136416 0.084408443852601905 0.012821494303426217 0.049508799622195336
leaf_weight=658.71860404312611 37.757321029901505 13.589825585484506 19.977075025439262 48.607109516859055 108.82051067054272 60.916620641946793 18.994462430477142 51.969242438673973 8.183313772082327 16.548419058322906 188.24010595679283 9.4351350516080839 628.93120233714581 38.007056593894958 17.577377989888191 6.9774239510297802 10.654449924826624 6.0277228206396094 7.8052073419094086 33.51555672287941 17.125072583556179 11.901722505688666 5.4231978207826605 6.064159467816352 44.20185549557209 10.03375343978405 12.266037568449972 5.437375143170355 3.5972715765237808 6.9980638623237601 7.4267290830612183
leaf_count=1015 100 89 34 351 796 140 142 336 36 109 401 25 4664 282 76 20 71 22 29 96 46 71 29 29 129 66 27 21 25 31 43
internal_value=7.85737e-06 0.05546 -0.0619394 0.063898 0.0407486 0.014428 -0.0193029 0.0125882 -0.0172907 0.00288567 -0.0701217 -0.0085463 0.0717682 0.0509596 0.0210215 0.0429038 0.0119236 0.0356236 0.00640046 -0.0389852 0.0150796 -0.00480297 -0.0128337 -0.0179498 -0.0240481 0.037922 -0.0279371 -0.0188488 0.0327952 -0.0298291 0.0173739
internal_weight=2121.73 1119.56 1002.17 935.444 237.339 128.518 79.9111 184.112 155.214 80.4209 846.959 108.483 698.105 69.1743 31.1672 75.6288 23.6596 16.6822 63.7276 74.7933 54.2925 29.0268 63.8725 58.4493 52.3852 25.2657 54.8162 42.5502 9.03465 44.7554 15.2319
internal_count=9351 7400 1951 6540 1429 633 282 860 535 332 1416 411 5111 447 165 449 113 93 280 203 255 117 223 194 165 138 169 142 46 131 72
is_linear=0
shrinkage=0.05


Tree=9
num_leaves=32
num_cat=0
split_feature=1 10 10 7 7 0 0 1 1 1 10 1 10 1 8 10 1 6 6 6 2 10 1 7 3 3 8 2 6 7 8
split_gain=2690.62 152.955 138.725 63.9396 72.4957 89.9957 82.63 43.1205 25.0423 24.7195 17.9114 12.9627 16.9928 12.5406 12.4881 12.3604 11.6539 10.0964 9.57701 15.6736 8.95514 8.93235 8.86741 8.60458 8.53892 6.99568 6.76124 6.40031 7.11131 6.25991 5.77246
threshold=9.5000000000000018 24.640000000000004 1.0000000180025095e-35 1079.5000000000002 1331.5000000000002 2013.5000000000002 2016.5000000000002 31.500000000000004 5.5000000000000009 2.5000000000000004 150.33900000000003 14.500000000000002 71.637500000000017 13.500000000000002 69.15000000000002 6.3755000000000015 1.5000000000000002 55154.000000000007 76992.500000000015 86896.500000000015 3.0500000000000003 239.65700000000001 15.500000000000002 1019.5000000000001 42.850000000000001 39.95000000000001 70.40000000000002 4.2500000000000009 73888.000000000015 1217.5000000000002 68.90000000000002
decision_type=2 2 2 2 2 2 2 2 2 2 2 2 2 2 2 2 2 2 2 2 2 2 2 2 2 2 2 2 2 2 2
left_child=2 7 9 11 5 -5 -7 13 16 -1 -10 12 -3 -2 24 -16 -4 23 22 -20 -18 27 -19 -15 25 -9 30 28 -22 -30 -11
right_child=1 3 8 4 -6 6 -8 14 10 26 -12 -13 -14 17 15 -17 20 18 19 -21 21 -23 -24 -25 -26 -27 -28 -29 29 -31 -32
leaf_value=-0.071846176790059807 -0.028515543599782617 -0.012327897301608479 -0.067344523197916478 0.068155152826274462 0.070804040390544096 -0.046134678871102792 0.073132904406731744 0.018260485029806744 -0.0064965193536982773 -0.041216027011435272 0.057808269003944784 0.071618102890624299 0.062176801607956925 0.001900418188678673 -0.016155307089127484 0.046663355886368246 -0.04902051270718303 -0.010733362660564063 -0.056561368898991077 0.038222690112556662 0.02746465996362343 0.052170028258064022 0.056408544621510938 -0.065877109219957278 -0.011708435469782849 0.075028166361456983 -0.058715961425745283 -0.04032393627444638 0.012470654055224021 -0.056440518458799188 0.0059995371768929709
leaf_weight=704.50620067119598 44.484907284379005 10.549490898847578 19.540560156106949 48.812292203307152 103.20914483070374 61.372860237956047 19.023634165525436 6.4993979781866065 47.826628386974335 51.034346684813499 13.99836255609989 642.64135058224201 27.87468846142292 12.671753197908403 14.718783035874369 16.732430502772331 23.771803006529808 6.6204731464386013 8.6640093624591845 8.7829175591468793 11.233996629714968 4.9356912970542899 19.11809529364109 7.4274656921625128 3.9210037291049948 32.894555151462555 64.385090336203575 19.309844017028809 5.8327319920063001 7.5761822313070297 7.4137624800205222
leaf_count=1133 131 40 34 361 778 144 146 33 176 127 93 4877 194 51 52 102 57 26 20 49 52 31 118 16 15 247 128 51 24 17 28
internal_value=9.40295e-06 0.0538542 -0.0601261 0.0622038 0.0395592 0.0146015 -0.0179133 0.0120694 -0.0165571 -0.0682374 0.00806332 0.0699314 0.0417213 -0.00817213 0.0412459 0.017265 -0.0330663 0.00612793 0.0197525 -0.00884634 -0.0238478 -0.0116077 0.0391383 -0.0231461 0.0586585 0.0656624 -0.0475392 -0.0187696 -0.00187996 -0.0264649 -0.035227
internal_weight=2077.38 1096.02 981.365 913.483 232.418 129.209 80.3965 182.536 154.026 827.339 61.825 681.066 38.4242 107.77 74.7662 31.4512 92.2008 63.2847 43.1855 17.4469 72.6602 48.8884 25.7386 20.0992 43.315 39.394 122.833 43.9528 24.6429 13.4089 58.4481
internal_count=9351 7400 1951 6540 1429 651 290 860 535 1416 269 5111 234 411 449 154 266 280 213 69 232 175 144 67 295 280 283 144 93 41 155
is_linear=0
shrinkage=0.05


Tree=10
num_leaves=32
num_cat=0
split_feature=1 10 10 7 7 0 0 1 1 10 1 8 4 1 10 4 10 8 7 10 10 8 10 1 4 4 3 3 2 2 1
split_gain=2486.61 144.819 131.913 60.0775 67.8194 81.1749 72.9613 40.0375 24.5274 23.1699 16.5246 14.7567 19.2952 12.8344 19.1901 14.2158 10.6291 10.5627 15.8036 9.59887 7.82428 7.00725 6.93039 6.72825 6.4548 6.97998 8.56363 6.8 5.97815 6.39581 13.1818
threshold=9.5000000000000018 24.640000000000004 1.0000000180025095e-35 1079.5000000000002 1301.5000000000002 2013.5000000000002 2019.0000000000002 19.500000000000004 1.5000000000000002 420.95100000000008 4.5000000000000009 66.450000000000017 16064.500000000002 17.500000000000004 164.53650000000002 11283.000000000002 150.33900000000003 67.65000000000002 1019.5000000000001 18.990500000000004 1.2755000000000003 66.15000000000002 292.70450000000005 1.5000000000000002 17978.500000000004 17300.500000000004 42.650000000000013 39.550000000000004 3.2500000000000004 5.3500000000000005 12.500000000000002
decision_type=2 2 2 2 2 2 2 2 2 2 2 2 2 2 2 2 2 2 2 2 2 2 2 2 2 2 2 2 2 2 2
left_child=2 7 8 13 5 -5 -7 21 -1 10 23 -9 17 14 15 -3 24 19 -19 -13 -20 -2 -18 -4 25 26 27 -12 -23 30 -30
right_child=1 3 9 4 -6 6 -8 11 -10 -11 16 12 -14 -15 -16 -17 22 18 20 -21 -22 28 -24 -25 -26 -27 -28 -29 29 -31 -32
leaf_value=-0.071219510812986192 0.029777947706052074 0.057448713755462726 -0.064672581514892996 0.065945963306948754 0.067010915487555764 -0.046488952520827451 0.071497826766585768 0.074038152556543585 -0.050371500807150839 0.05389410679357292 0.021740516351222264 0.074717418509922945 -0.040311914117215686 0.07057418924168625 0.072130176106581165 -0.011355893978569481 0.080431581797287599 0.037023617299774124 -0.060350386045644348 -0.0033270907704870734 0.011300681380909844 -0.040182274436018198 -0.011748691881167369 -0.029382155797073813 0.040534180199148367 -0.065317660509755057 0.036183515958411606 -0.028848744272658124 -0.030507425360286829 -0.046990198725342207 0.031327286587039441
leaf_weight=624.6713028550148 7.5685225576162329 13.201404586434366 18.366718009114265 44.263626128435135 108.61139300465584 57.423126593232155 16.97657185792923 17.20490188896656 182.23645143210888 11.046302288770674 8.1870638430118543 19.656178757548336 10.46719543635845 596.68716537952423 36.13153538107872 17.404365852475166 5.6043714731931669 36.87017922103405 7.4061150699853879 4.9274507015943518 7.8471245318651199 25.400691568851471 3.2051331400871277 51.034507974982262 5.4097803384065619 6.5190688371658316 8.2801164984703046 35.209303662180901 17.371681362390518 9.0825999677181226 17.105777129530907
leaf_count=1015 37 89 33 335 827 133 134 132 401 73 36 149 29 4664 282 76 40 206 16 23 39 70 15 151 29 12 40 106 50 23 86
internal_value=1.07967e-05 0.0523641 -0.058443 0.0606479 0.0384618 0.0123311 -0.0195667 0.0115791 -0.0665111 -0.0158545 -0.0212874 0.0317201 0.0233681 0.0682484 0.0474538 0.0183221 -0.00457871 0.0320577 0.0193154 0.0590745 -0.023489 -0.0158915 0.0468939 -0.0387216 -0.0117078 -0.0165641 -0.0104138 -0.0193047 -0.0209038 -0.00966208 0.000171483
internal_weight=2031.38 1071.61 959.77 890.699 227.275 118.663 74.3997 180.908 806.908 152.862 141.816 104.379 87.1742 663.424 66.7373 30.6058 72.4148 76.707 52.1234 24.5836 15.2532 76.5293 8.8095 69.4012 63.6053 58.1956 51.6765 43.3964 68.9608 43.5601 34.4775
internal_count=9351 7400 1951 6540 1429 602 267 860 1416 535 462 594 462 5111 447 165 278 433 261 172 55 266 55 184 223 194 182 142 229 159 136
is_linear=0
shrinkage=0.05


Tree=11
num_leaves=32
num_cat=0
split_feature=1 10 10 7 7 0 0 1 1 1 10 8 2 1 10 4 4 10 1 2 8 10 10 8 8 10 5 2 4 5 10
split_gain=2300.48 137.48 125.736 56.726 63.7558 77.5267 70.4509 36.6039 24.79 21.2928 15.181 13.9733 18.0425 12.5664 18.358 13.0723 10.7342 11.7744 10.5228 8.2087 6.83657 8.17911 7.36856 6.581 6.34369 6.19654 8.70406 8.26341 5.91734 9.76376 5.83036
threshold=9.5000000000000018 24.640000000000004 1.0000000180025095e-35 1079.5000000000002 1331.5000000000002 2013.5000000000002 2016.5000000000002 19.500000000000004 2.5000000000000004 5.5000000000000009 150.33900000000003 66.450000000000017 3.0500000000000003 17.500000000000004 164.53650000000002 11283.000000000002 8913.0000000000018 1.2755000000000003 1.5000000000000002 3.0500000000000003 69.15000000000002 18.990500000000004 9.9775000000000009 70.40000000000002 66.15000000000002 141.50950000000003 14756.500000000002 4.2500000000000009 14326.500000000002 14035.000000000002 440.25200000000001
decision_type=2 2 2 2 2 2 2 2 2 2 2 2 2 2 2 2 2 2 2 2 2 2 2 2 2 2 2 2 2 2 2
left_child=2 7 8 13 5 30 -7 24 -1 18 -11 -9 -13 14 15 -3 17 -14 -4 -20 21 -18 -22 -10 -2 27 -27 -21 -17 -30 -5
right_child=1 3 9 4 -6 6 -8 11 23 10 -12 12 16 -15 -16 28 20 -19 19 25 22 -23 -24 -25 -26 26 -28 -29 29 -31 -32
leaf_value=-0.068666118885429894 0.02826921382572218 0.055492643967204582 -0.064070236309398509 0.071140164845219817 0.067603058693937484 -0.042865675682753027 0.070025304611022229 0.072350443468096409 -0.031682876453739857 -0.0056901190104460602 0.054278428464183182 -0.043106462718721553 -0.043655138486601505 0.069052419181782537 0.070590276921689565 -0.044981713630918185 0.073321920021433409 0.033277951074606175 -0.046241917924212617 0.002451160298343497 0.0039804163605528511 0.0049876013514832474 0.054708333384917367 -0.055178224379427779 -0.019948679545782496 0.080103038485356451 -0.025988006419601629 -0.042836707915420269 0.060118586484941762 -0.038383053626428437 0.015208670195397468
leaf_weight=666.61308592557907 7.5736844986677161 12.98884128034115 18.638783201575279 41.149316683411598 97.844927668571472 59.929708063602448 17.96211402118206 16.737764112651348 57.17795592546463 47.653989061713219 13.5553692728281 9.362176448106764 8.9620342403650302 579.77406623959541 35.099893987178802 7.3269313722848919 21.779502376914028 11.174666211009024 23.376754090189934 22.324622675776482 17.387047335505489 5.480907976627349 12.168715193867682 62.251872956752777 68.661721840500832 4.1555544435977927 3.6153017431497574 18.353007704019547 5.3773839473724347 4.7274769097566605 5.2542572021484366
leaf_count=1133 37 89 34 327 778 144 146 132 155 176 93 26 23 4664 282 24 169 62 57 86 75 27 80 128 229 30 13 46 34 18 34
internal_value=1.23898e-05 0.0509666 -0.0568651 0.0592048 0.0374123 0.0136462 -0.0168326 0.0111085 -0.0649077 -0.0151847 0.00759046 0.03054 0.0224324 0.0667068 0.0459512 0.0175221 0.0304059 -0.000961868 -0.0305947 -0.0219077 0.0415232 0.0595828 0.0248661 -0.0439296 -0.0151584 -0.0101663 0.0307454 -0.0179819 -0.0107707 0.0140354 0.0648071
internal_weight=1984.44 1046.72 937.716 867.435 222.14 124.295 77.8918 179.288 786.043 151.673 61.2094 103.053 86.315 645.295 65.5205 30.4206 76.9529 20.1367 90.464 71.8252 56.8162 27.2604 29.5558 119.43 76.2354 48.4485 7.77086 40.6776 17.4318 10.1049 46.4036
internal_count=9351 7400 1951 6540 1429 651 290 860 1416 535 269 594 462 5111 447 165 436 85 266 232 351 196 155 283 266 175 43 132 76 52 361
is_linear=0
shrinkage=0.05


Tree=12
num_leaves=32
num_cat=0
split_feature=1 10 10 7 7 0 9 1 10 1 7 0 1 5 4 7 7 8 1 3 7 7 7 0 5 4 7 6 4 7 4
split_gain=2132.15 210.68 63.7993 44.5783 56.8163 67.1586 57.3005 43.6092 31.0245 15.6451 14.4602 11.1774 12.595 11.734 11.1773 10.7842 13.6307 10.734 9.96821 10.6889 10.6318 9.63441 15.3997 7.79801 12.2164 9.84896 8.5334 7.32202 6.57884 7.06608 6.60441
threshold=13.500000000000002 4.3550000000000013 29.236500000000003 1079.5000000000002 1331.5000000000002 2013.5000000000002 1450.0000000000002 3.5000000000000004 235.88650000000004 31.500000000000004 581.50000000000011 2010.5000000000002 3.5000000000000004 11135.500000000002 13891.500000000002 196.50000000000003 1163.5000000000002 66.450000000000017 7.5000000000000009 41.850000000000001 419.50000000000006 1103.5000000000002 1343.5000000000002 2010.5000000000002 13472.000000000002 9780.0000000000018 731.50000000000011 85275.500000000015 17772.500000000004 1223.5000000000002 16064.500000000002
decision_type=2 2 2 2 2 2 2 2 2 2 2 2 2 2 2 2 2 2 2 2 2 2 2 2 2 2 2 2 2 2 2
left_child=1 7 9 -4 5 -5 -7 -1 10 23 18 12 -12 -14 -11 -16 -17 -13 20 -20 -3 -10 -23 25 -25 -2 -26 -19 30 -30 -9
right_child=2 8 3 4 -6 6 -8 28 21 14 11 17 13 -15 15 16 -18 27 19 -21 -22 22 -24 24 26 -27 -28 -29 29 -31 -32
leaf_value=-0.066407032943927941 -0.0014838841096961523 -0.025106997093251822 0.066875258637829615 0.066231777789471355 0.069259482495501026 0.068669775802631783 -0.039231243105815113 -0.033055402664187994 0.060354431361583638 0.05233810181894355 -0.039390756717129022 0.0064848655072855359 0.0066411656058989925 0.097501151778206924 -0.039917512449438752 0.065457859748317027 -0.01788498697313393 -0.029754250634615145 0.078863636948093452 -0.0096848992712838412 0.055596200611315975 -0.042443548321289368 0.07476478603021755 -0.033647315062072483 -0.022533670313583543 0.054193699531737582 0.059598274566520185 -0.068656687995116886 0.037088590431227079 -0.042763082519841802 -0.066867048188965758
leaf_weight=693.33207043260336 17.378042988479137 17.160883650183681 588.421500839293 41.120238356292248 89.02260422706604 15.982628107070921 53.457873567938805 98.128647074103355 22.308005355298519 52.994337931275368 9.6835106164217013 16.093554995954037 13.056559428572657 4.8820403516292563 7.1220019012689617 12.067787580192091 8.2665433362126333 50.844103574752808 9.4508043974637967 5.3302257210016242 5.3542838990688315 7.0249910503625852 4.6623760834336281 21.388245306909084 5.1998106837272635 14.628980346024035 8.0719631984829885 15.870844401419161 6.3103378862142545 4.938707172870636 16.934931725263596
leaf_count=1229 74 53 4854 332 736 134 133 263 168 371 25 71 62 34 22 88 38 158 63 21 29 25 36 64 20 93 56 28 29 12 30
internal_value=1.45062e-05 -0.0506856 0.0543062 0.0599492 0.0395295 0.0155912 -0.0143964 -0.0614844 -0.00197832 0.0240805 -0.0118889 -0.02098 0.00656266 0.031369 0.0389234 0.0130313 0.0315764 -0.0301672 0.0150289 0.0469319 -0.00591514 0.041088 0.00431372 0.00616885 -0.0102641 0.0239639 0.0274194 -0.0390088 -0.0344639 0.00203103 -0.0380318
internal_weight=1936.49 1001.37 935.123 788.005 199.583 110.561 69.4405 819.645 181.722 147.118 147.727 110.431 27.6221 17.9386 80.4507 27.4563 20.3343 82.8085 37.2962 14.781 22.5152 33.9954 11.6874 66.667 34.66 32.007 13.2718 66.7149 126.313 11.249 115.064
internal_count=9351 2336 7015 6189 1335 599 267 1563 773 826 544 378 121 96 519 148 126 257 166 84 82 229 61 307 140 167 76 186 334 41 293
is_linear=0
shrinkage=0.05


Tree=13
num_leaves=32
num_cat=0
split_feature=1 10 10 1 7 7 0 0 10 8 2 8 1 1 3 3 10 7 7 0 5 0 3 10 5 7 2 1 4 4 7
split_gain=1976.31 199.047 61.9352 43.1743 42.2507 53.546 62.5125 52.958 28.4632 14.4455 22.7391 13.3022 12.306 10.3453 11.0614 13.0578 10.5028 9.00721 14.1576 8.02692 13.3387 12.7745 7.66565 7.66301 7.37454 7.19991 6.80926 6.62171 6.05471 6.2351 6.34222
threshold=13.500000000000002 4.3550000000000013 29.236500000000003 3.5000000000000004 1079.5000000000002 1331.5000000000002 2013.5000000000002 2016.5000000000002 235.88650000000004 66.450000000000017 3.0500000000000003 73.700000000000003 75.500000000000014 5.5000000000000009 42.95000000000001 42.150000000000013 66.422500000000014 1103.5000000000002 1343.5000000000002 2010.5000000000002 14756.500000000002 2007.5000000000002 40.350000000000001 5.4170000000000007 12764.500000000002 731.50000000000011 4.1500000000000012 1.5000000000000002 17772.500000000004 16064.500000000002 1073.5000000000002
decision_type=2 2 2 2 2 2 2 2 2 2 2 2 2 2 2 2 2 2 2 2 2 2 2 2 2 2 2 2 2 2 2
left_child=1 3 9 27 -4 6 -6 -8 11 -2 24 13 19 -3 15 16 22 -10 -19 21 25 23 -15 -12 -11 -21 -24 -1 29 30 -5
right_child=2 8 4 28 5 -7 7 -9 17 10 12 -13 -14 14 -16 -17 -18 18 -20 20 -22 -23 26 -25 -26 -27 -28 -29 -30 -31 -32
leaf_value=-0.067123022358055701 0.060615093249191815 -0.030148912296578984 0.065570508307913861 -0.038914129954094379 0.064855585198143148 0.067970724707750008 -0.037749659679525982 0.067430755311641291 0.058725494997783248 0.00091717896271168136 -0.0096825490881231428 0.056620156387666293 0.060608880273475829 -0.030217097072135341 0.054426235318811501 -0.031834290143997683 0.051982837312654018 -0.040209250123777115 0.073043260622191922 0.0041436297722556607 0.053019610715591137 0.063786744938341855 0.071434314509441654 0.033098086196865682 -0.066616236939710013 -0.054347616203273955 -0.005195488794172351 -0.053042613434308487 0.0019210459009170869 -0.064870281812391864 -0.0090764211623551774
leaf_weight=574.95530142635107 21.845696732401848 61.051756635308266 570.57664670050144 73.729606419801712 39.923543736338615 86.245404720306396 52.795254617929459 15.475351095199583 21.793577544391155 7.0111660882830646 20.15542359650135 6.8600047081708899 19.727814845740795 14.669362843036653 7.6421277374029151 33.144720941781998 11.113910950720308 7.0440570861101133 4.5368306040763855 10.484107621014124 7.352974869310855 17.122861765325069 4.5998500362038595 21.777495585381985 9.5466245561838132 10.560993090271948 7.8400089740753174 97.685182504355907 11.242471322417257 16.59211365878582 23.481403529644012
leaf_count=1022 168 175 4854 185 332 736 133 134 168 30 80 43 146 46 46 107 69 25 36 46 54 119 28 134 20 29 30 207 41 30 78
internal_value=1.59474e-05 -0.0493387 0.0530226 -0.0600627 0.0587111 0.0385824 0.0151559 -0.0139077 -0.00189204 0.0231309 0.0165132 -0.0113606 0.0249377 -0.0146902 -0.00274503 -0.00886698 0.0110488 0.0397905 0.0041576 0.0168909 -0.00495353 0.0273953 -0.00573278 0.0125352 -0.0380202 -0.0252088 0.0231397 -0.0650782 -0.0330838 -0.0365419 -0.0317068
internal_weight=1888.58 977.982 910.601 797.686 765.016 194.44 108.194 68.2706 180.296 145.585 123.739 146.922 107.182 140.062 79.01 71.3679 38.2231 33.3745 11.5809 87.4539 28.3981 59.0558 27.1092 41.9329 16.5578 21.0451 12.4399 672.64 125.046 113.803 97.211
internal_count=9351 2336 7015 1563 6189 1335 599 267 773 826 658 544 608 501 326 280 173 229 61 462 129 333 104 214 50 75 58 1229 334 293 263
is_linear=0
shrinkage=0.05


Tree=14
num_leaves=32
num_cat=0
split_feature=1 10 1 7 7 0 0 1 10 1 10 7 8 8 8 10 3 10 8 5 3 2 7 0 0 2 7 5 10 7 2
split_gain=1834.08 180.164 61.9692 51.4259 58.2797 70.2838 56.3462 49.3043 27.0966 13.7122 17.6287 13.4141 12.2168 15.39 14.0231 20.595 12.126 10.7065 8.00939 9.2162 8.97343 7.73842 7.54933 9.31875 7.52438 7.24735 7.39207 11.8887 6.97239 7.5057 6.83161
threshold=6.5000000000000009 29.236500000000003 1.5000000000000002 1079.5000000000002 1331.5000000000002 2013.5000000000002 2016.5000000000002 19.500000000000004 1.9105000000000001 15.500000000000002 157.53750000000002 599.50000000000011 66.450000000000017 67.000000000000014 67.65000000000002 9.9775000000000009 42.95000000000001 384.8685000000001 66.15000000000002 11453.500000000002 42.650000000000013 3.0500000000000003 1019.5000000000001 2013.5000000000002 2007.5000000000002 4.5500000000000007 1217.5000000000002 11188.000000000002 5.4170000000000007 467.50000000000006 4.9500000000000011
decision_type=2 2 2 2 2 2 2 2 2 2 2 2 2 2 2 2 2 2 2 2 2 2 2 2 2 2 2 2 2 2 2
left_child=2 7 -1 9 5 -5 -7 16 -4 10 11 30 -9 -14 -15 22 18 21 20 28 -2 -10 23 24 -16 26 27 -23 -20 -30 -3
right_child=1 3 8 4 -6 6 -8 12 17 -11 -12 -13 13 14 15 -17 -18 -19 19 -21 -22 25 -24 -25 -26 -27 -28 -29 29 -31 -32
leaf_value=-0.06579849120737867 -0.019127688327421233 0.085386786414567914 -0.047338822175656617 0.062045159555256219 0.06421568929903658 -0.040626940055421779 0.060887496038798207 0.068883078211501456 -0.041673703306215844 0.065003493089657097 0.067896609453515278 -0.016851135606928119 -0.029905171005795081 0.069041971694577153 0.0071194418150365927 0.050591244454676047 0.053278168556430638 0.05260850062531644 -0.020470677873523625 -0.039622229250630837 0.065355101717342337 0.095718944946426854 -0.043188167553037782 -0.04144805877304638 0.081505149344092143 -0.033047214267047188 -0.014280437170379426 0.0026920603262202379 -0.01290650608457751 0.057519286782903134 0.0092539950388831182
leaf_weight=570.06565774977207 7.1003949046134931 6.7773187011480349 151.03615152090788 43.428747706115246 90.287971511483192 59.771679431200027 17.722393780946732 17.047542624175549 21.311963222920895 537.50543978065252 27.235453054308891 16.91007237881422 12.038510724902151 18.400084860622883 11.826422542333608 28.461671322584152 6.053732529282569 6.0951308682560912 43.914057835936546 49.237451061606407 5.6396098732948303 5.0534706488251677 10.178863674402235 6.676400512456893 4.7711456939578047 16.376860298216343 18.181669607758522 10.720001369714735 8.4211678281426412 6.869413547217845 5.2130939289927483
leaf_count=1049 26 49 344 364 783 147 151 145 54 4739 234 68 45 155 53 198 35 43 137 134 32 35 29 19 35 49 62 42 30 40 25
internal_value=1.74787e-05 0.0437329 -0.0569764 0.055009 0.0338201 0.0111251 -0.0174112 0.00538035 -0.0349935 0.0625477 0.0390334 0.0118331 0.0299935 0.0228148 0.0307171 0.0193275 -0.0157826 -0.0110083 -0.0192326 -0.0236385 0.0182703 -0.0164205 -0.00727173 0.00843632 0.0285024 -0.00572757 0.00744893 0.0324958 -0.0103457 0.0187328 0.0522864
internal_weight=1840.33 1041.49 798.841 804.852 211.211 120.923 77.4941 236.636 228.775 593.641 56.1359 28.9005 109.401 92.3531 80.3146 61.9145 127.236 77.7391 121.182 108.442 12.74 71.644 33.4528 23.274 16.5976 50.332 33.9551 15.7735 59.2046 15.2906 11.9904
internal_count=9351 7673 1678 6560 1445 662 298 1113 629 5115 376 142 679 534 489 334 434 285 399 341 58 242 136 107 88 188 139 77 207 70 74
is_linear=0
shrinkage=0.05


Tree=15
num_leaves=32
num_cat=0
split_feature=1 1 10 10 7 7 2 1 4 10 3 8 2 8 0 1 3 10 0 4 4 1 3 5 7 9 8 5 0 9 10
split_gain=1706.52 177.952 57.9015 49.0053 37.8075 47.6041 54.7 22.1782 18.0247 13.4601 12.9129 12.806 19.6248 11.327 10.9637 10.9154 10.8208 9.94145 11.103 8.74999 8.46317 8.20594 7.09783 6.52687 6.28642 7.19993 6.268 5.37019 11.3002 8.66645 7.29706
threshold=13.500000000000002 3.5000000000000004 29.236500000000003 103.84550000000002 1079.5000000000002 1331.5000000000002 3.3500000000000001 1.5000000000000002 17300.500000000004 4.3550000000000013 43.050000000000004 66.450000000000017 3.0500000000000003 66.550000000000011 2013.5000000000002 75.500000000000014 42.850000000000001 6.3755000000000015 2016.5000000000002 9430.5000000000018 11058.500000000002 5.5000000000000009 42.95000000000001 12764.500000000002 935.50000000000011 1315.0000000000002 67.350000000000009 14756.500000000002 2010.5000000000002 4620.0000000000009 22.425500000000003
decision_type=2 2 2 2 2 2 2 2 2 2 2 2 2 2 2 2 2 2 2 2 2 2 2 2 2 2 2 2 2 2 2
left_child=1 7 11 10 -4 6 14 -1 -5 -9 16 -2 23 -8 -6 22 17 24 19 -19 -21 -12 27 -13 -3 -26 -27 28 29 -14 -31
right_child=2 3 4 8 5 -7 13 9 -10 -11 21 12 15 -15 -16 -17 -18 18 -20 20 -22 -23 -24 -25 25 26 -28 -29 -30 30 -32
leaf_value=-0.064710614348954934 0.057856904097559558 -0.038917901913832501 0.063246307777075808 0.049343645565757481 0.042960203460843498 0.065745552257889125 0.00089896336294129325 -0.050326898736686256 -0.024352392069936547 -0.011090289245099035 -0.015738900961740687 0.0011127949875574176 0.056840375147931346 0.064757198240179337 -0.02728128549097196 0.057698060211752736 -0.060864357646145222 0.022305090907751034 0.026917435529643104 -0.056143306987917821 -0.0057057225473238849 0.061190005901865678 0.073835834254273688 -0.062683947172219728 -0.060517804731074799 0.016604080850281085 -0.027272562145486963 0.052275066090647908 -0.023024732938499961 0.0016495998430830451 0.070184241913279183
leaf_weight=551.14663325250149 20.773547038435936 73.986277244985104 534.72299900650978 38.416621424257755 6.2634888440370551 80.767984867095947 8.4198771268129331 93.435863330960274 10.582514427602289 28.532371208071709 6.6390502601861936 6.985353164374831 12.46937871724367 39.620868928730488 49.13384522497654 18.925705932080746 19.433611512184143 9.7624723017215711 18.591246075928211 17.040988385677338 16.245846942067146 7.2541170120239258 4.9566492214798918 9.4095171093940717 6.9273858219385138 17.010296270251274 15.60832132399082 7.577455908060073 20.906804986298084 35.694348439574242 4.358101174235343
leaf_count=1049 168 185 4854 285 52 736 42 207 40 101 21 30 86 352 153 146 38 50 90 39 62 43 39 20 14 68 44 58 75 168 36
internal_value=1.95114e-05 -0.0469179 0.0507527 -0.0115675 0.0565165 0.0369808 0.0145203 -0.0604411 0.0334273 -0.0411482 -0.0221417 0.0215833 0.0153703 0.0535651 -0.0193394 0.023322 -0.0254664 -0.0215394 -0.0053739 -0.0193192 -0.0315269 0.0244284 0.0157537 -0.0355021 -0.0303161 -0.0142232 -0.00439131 0.0121997 0.00806418 0.0204394 0.00910684
internal_weight=1791.6 930.614 860.986 257.499 718.929 184.206 103.438 673.115 48.9991 121.968 208.5 142.057 121.283 48.0407 55.3973 104.888 194.606 175.173 61.6406 43.0493 33.2868 13.8932 85.9627 16.3949 113.532 39.546 32.6186 81.0061 73.4286 52.5218 40.0524
internal_count=9351 2336 7015 979 6189 1335 599 1357 325 308 654 826 658 394 205 608 590 552 241 151 101 64 462 50 311 126 112 423 365 290 204
is_linear=0
shrinkage=0.05


Tree=16
num_leaves=32
num_cat=0
split_feature=1 10 1 7 7 0 0 1 10 1 10 7 8 8 8 10 3 2 8 5 3 7 0 0 2 2 2 1 10 10 7
split_gain=1584.99 162.052 60.358 47.0888 52.4186 60.4769 47.8692 41.6386 23.8355 13.6063 16.7892 12.187 11.2321 13.2166 13.0599 18.5943 9.80802 8.99495 7.07509 8.4585 7.94502 6.71548 7.91224 6.77414 6.47441 6.40609 6.2838 6.2203 6.04758 6.02033 6.71235
threshold=6.5000000000000009 29.236500000000003 1.5000000000000002 1079.5000000000002 1301.5000000000002 2013.5000000000002 2019.0000000000002 19.500000000000004 1.9105000000000001 15.500000000000002 157.53750000000002 599.50000000000011 66.450000000000017 67.000000000000014 67.65000000000002 9.9775000000000009 42.95000000000001 3.0500000000000003 66.15000000000002 11453.500000000002 42.650000000000013 1019.5000000000001 2013.5000000000002 2007.5000000000002 2.7500000000000004 4.5500000000000007 4.9500000000000011 47.500000000000007 440.25200000000001 5.4170000000000007 467.50000000000006
decision_type=2 2 2 2 2 2 2 2 2 2 2 2 2 2 2 2 2 2 2 2 2 2 2 2 2 2 2 2 2 2 2
left_child=2 7 -1 9 5 28 -7 16 -4 10 11 26 -9 -14 -15 21 18 24 20 29 -2 22 23 27 -10 -19 -3 -16 -5 -20 -31
right_child=1 3 8 4 -6 6 -8 12 17 -11 -12 -13 13 14 15 -17 -18 25 19 -21 -22 -23 -24 -25 -26 -27 -28 -29 -30 30 -32
leaf_value=-0.063704098947094168 -0.017704363419357917 0.081682861716898383 -0.044590700619169935 0.066864045386831855 0.059989322320505016 -0.040482147226370446 0.058516881173827764 0.066677253939623968 -0.004482844417056743 0.062886454688636934 0.065895367038139765 -0.017083822822680006 -0.027766454728373188 0.066937719181811142 0.041859194041111568 0.04809377276671091 0.047928096974483234 0.012631908729627979 -0.018431449435205381 -0.037158531735654282 0.061914791491737467 -0.041416996707515766 -0.038729040535117686 0.077634131919717325 -0.059071085565033099 -0.024118439419291367 0.0080560375370595828 -0.030757879533148642 0.0073910083739351018 -0.01180912828248609 0.05493892990832823
leaf_weight=532.33893816918135 7.0309652984142286 6.5786697417497653 145.2729891911149 33.488429099321365 91.584730245172977 55.312557622790337 15.669671706855295 16.038942851126194 9.1841083019971865 502.56617107987404 25.658612512052059 16.842166796326637 11.925471983850001 17.39879371970892 5.978732913732534 27.621508046984673 6.0091230720281592 36.931288346648216 43.314729541540146 48.50430953502655 5.6520798355340958 10.115567624568937 6.6055135726928702 4.5893482342362395 13.294703423976896 17.465953066945076 5.1795888841152191 5.8193881511688232 4.8998784050345412 8.4008171707391721 6.8276691138744345
leaf_count=1049 26 49 344 305 830 136 139 145 34 4739 234 68 45 155 33 198 35 165 137 134 32 29 19 35 27 59 25 20 35 30 40
internal_value=2.04054e-05 0.0416393 -0.0545684 0.0528306 0.0320831 0.00871493 -0.0186276 0.00505888 -0.0326766 0.0603183 0.0365312 0.0101874 0.0281276 0.0212617 0.0287453 0.0178034 -0.0144054 -0.0101624 -0.0175338 -0.0217175 0.0177772 -0.00746691 0.00746914 0.0260908 -0.0367681 0.000832048 0.0492498 0.00604104 0.0592729 -0.00892426 0.0181173
internal_weight=1744.1 989.613 754.488 757.78 200.955 109.371 70.9822 231.833 222.149 556.825 54.259 28.6004 106.093 90.0543 78.1289 60.7301 125.74 76.8761 119.731 107.048 12.683 33.1086 22.993 16.3875 22.4788 54.3972 11.7583 11.7981 38.3883 58.5432 15.2285
internal_count=9351 7673 1678 6560 1445 615 275 1113 629 5115 376 142 679 534 489 334 434 285 399 341 58 136 107 88 61 224 74 53 340 207 70
is_linear=0
shrinkage=0.05


Tree=17
num_leaves=32
num_cat=0
split_feature=1 1 10 10 7 7 2 1 4 10 8 10 3 8 3 8 1 10 5 10 0 8 3 4 4 4 7 9 8 7 5
split_gain=1476.76 163.132 54.2477 41.6103 34.5551 43.0884 47.6852 22.11 15.86 12.2304 11.5178 15.2179 11.0639 10.3067 9.96156 9.6369 9.17631 9.39135 8.95618 8.14707 9.81175 7.90285 9.0291 7.62042 7.65319 7.6009 5.80769 6.64911 5.62981 5.48955 12.8909
threshold=13.500000000000002 3.5000000000000004 29.236500000000003 103.84550000000002 1079.5000000000002 1331.5000000000002 3.3500000000000001 1.5000000000000002 17300.500000000004 4.3550000000000013 69.050000000000011 5.4170000000000007 43.050000000000004 66.550000000000011 42.850000000000001 66.550000000000011 55.500000000000007 18.990500000000004 11981.000000000002 6.3755000000000015 2016.5000000000002 67.65000000000002 42.850000000000001 9430.5000000000018 11058.500000000002 16823.000000000004 935.50000000000011 1315.0000000000002 67.350000000000009 497.50000000000006 11518.500000000002
decision_type=2 2 2 2 2 2 2 2 2 2 2 2 2 2 2 2 2 2 2 2 2 2 2 2 2 2 2 2 2 2 2
left_child=1 7 10 12 -4 6 15 -1 -5 -9 16 -12 14 -8 19 -6 17 21 -19 26 23 22 -2 -21 -25 -14 29 -28 -29 30 -3
right_child=2 3 4 8 5 -7 13 9 -10 -11 11 -13 25 -15 -16 -17 -18 18 -20 20 -22 -23 -24 24 -26 -27 27 28 -30 -31 -32
leaf_value=-0.06277050159427594 0.064728888179339486 0.0063564476014339559 0.061229544071264845 0.046816257657738086 0.033678654841064054 0.063885186107329989 0.00095362394846204611 -0.047828898340688174 -0.022931212803103954 -0.010143279944079528 -0.017299034959644289 0.028987046096644476 0.063414973551298395 0.062780109823393007 -0.058226698369573476 -0.026638766953468507 0.059449479458785703 0.041381544714281224 -0.05071921129706583 0.02060740679054647 0.025163348757374387 -0.014270455157482546 -0.0054607084982055132 -0.053423244168258971 -0.0052749612290271782 -0.011184792812386671 -0.05743058144714755 0.01690889079831653 -0.024900068617851889 -0.047729005892593601 -0.061995771366436969
leaf_weight=513.71592429280281 19.051998183131225 18.137187466025356 499.31681515276432 37.002510778605938 7.7289281189441672 75.43373703956604 8.2366295456886274 89.266863130033016 10.452999047935007 28.371966026723385 35.093201406300068 35.948853127658367 6.2695135921239835 37.11662133783102 18.756400808691978 46.238817669451237 24.423161350190639 4.11724094301462 7.3547988682985306 9.6827938631176931 18.536778457462788 6.4330252557992926 6.0326163098216048 16.845849648118019 16.180239155888557 7.4982364773750305 6.7745644599199286 16.954592451453209 15.33410497009754 42.868152976036072 11.131430745124815
leaf_count=1049 156 67 4854 285 58 736 42 207 40 101 124 223 37 352 38 147 211 31 27 50 90 26 28 39 62 27 14 68 44 97 21
internal_value=2.21988e-05 -0.0447099 0.048677 -0.0107366 0.0545322 0.0353964 0.0137594 -0.0582929 0.031453 -0.0387399 0.0201707 0.00612275 -0.0205045 0.0515518 -0.0236217 -0.0180005 0.034975 0.0210706 -0.0176648 -0.0198578 -0.00521384 0.0351698 0.0478489 -0.0183983 -0.0298343 0.0227862 -0.0279233 -0.0123954 -0.00294645 -0.0363319 -0.0196392
internal_weight=1696.31 883.78 812.526 252.425 674.072 174.755 99.321 631.355 47.4555 117.639 138.455 71.0421 204.97 45.3533 191.202 53.9677 67.4128 42.9897 11.472 172.446 61.2457 31.5176 25.0846 42.7089 33.0261 13.7678 111.2 39.0633 32.2887 72.1368 29.2686
internal_count=9351 2336 7015 979 6189 1335 599 1357 325 308 826 347 654 394 590 205 479 268 58 552 241 210 184 151 101 64 311 126 112 185 88
is_linear=0
shrinkage=0.05


Tree=18
num_leaves=32
num_cat=0
split_feature=1 1 10 10 7 7 0 0 4 1 10 8 2 1 4 4 10 7 8 3 8 5 2 10 5 7 1 4 6 6 1
split_gain=1372.75 156.851 52.9478 44.6707 33.4496 41.188 45.2805 38.475 15.6263 11.9329 11.1836 10.863 16.77 9.44734 9.42496 10.4177 12.4648 8.98891 7.41964 6.37744 5.72623 5.71871 5.29101 5.03242 4.99603 6.32391 5.34039 4.94507 4.86069 5.42469 8.14214
threshold=13.500000000000002 2.5000000000000004 29.236500000000003 103.84550000000002 1079.5000000000002 1331.5000000000002 2013.5000000000002 2016.5000000000002 17300.500000000004 1.5000000000000002 5.4170000000000007 66.450000000000017 3.0500000000000003 75.500000000000014 17772.500000000004 17300.500000000004 3.4510000000000005 1253.5000000000002 73.250000000000014 42.95000000000001 72.950000000000017 12764.500000000002 6.4500000000000002 72.884000000000015 7369.5000000000009 581.50000000000011 5.5000000000000009 17772.500000000004 46272.000000000007 73263.000000000015 54.500000000000007
decision_type=2 2 2 2 2 2 2 2 2 2 2 2 2 2 2 2 2 2 2 2 2 2 2 2 2 2 2 2 2 2 2
left_child=1 9 11 14 -4 6 -6 23 -5 -1 -11 -2 21 19 15 16 -3 -16 20 28 24 -13 -15 -8 -18 26 -26 -10 -14 -30 -31
right_child=2 3 4 8 5 -7 7 -9 27 10 -12 12 13 22 17 -17 18 -19 -20 -21 -22 -23 -24 -25 25 -27 -28 -29 29 30 -32
leaf_value=-0.061902450839819947 0.05424404079478258 -0.032809318533880465 0.060312644933631289 0.042677831822850308 0.059572678956934466 0.063025875963740929 -0.067886332212364495 0.06339273762560757 -0.058158272148137985 -0.048458479144717591 0.0068544056947330489 0.00074353490331519501 -0.02260279141995521 0.068297204660548214 0.027580854805136543 -0.065060941182785548 -0.042924602426274452 -0.049705322604271081 0.054198684563501257 0.070896388679574401 -0.054747591431868428 -0.059341307666496285 0.00092432256205846129 -0.024948611624984983 -0.0089572657121558524 -0.01251833550068103 0.046269783160900468 0.008740611395423285 0.026382932871267681 0.013967850734352388 -0.049422559046435818
leaf_weight=495.33956864476204 19.214885130524635 130.07881624251604 482.00173575431108 40.026532217860222 34.311956577003002 72.708176851272583 8.1580609381198865 13.422746144235132 5.4886306300759298 54.804039441049099 10.967115633189676 6.9294762462377575 9.5469494238495809 14.082845345139505 15.748779289424421 15.975742250680922 8.6187920793890935 4.9430568963289252 4.5426550507545462 4.6841337010264388 6.9799076765775672 9.2415629625320417 3.6744741052389136 41.73010915517807 7.6238296031951931 43.801944635808468 10.279386840760706 5.5611425563693047 43.112303197383881 19.654216602444652 6.8245381116867057
leaf_count=1049 168 347 4854 304 332 736 14 134 12 129 43 30 34 126 73 29 26 11 28 39 15 20 20 119 26 160 55 29 268 99 22
internal_value=2.2734e-05 -0.0436477 0.0476481 -0.0144418 0.053582 0.0345358 0.0133169 -0.0117519 0.028147 -0.0592455 -0.0392352 0.0193861 0.0136979 0.0212266 -0.0231921 -0.0261257 -0.0231906 0.00911802 -0.00790353 0.0142083 -0.0115529 -0.0335943 0.0543559 -0.0319701 -0.00726565 -0.00228492 0.0227521 -0.0244893 0.010853 0.0154426 -0.00237016
internal_weight=1650.08 860.78 789.298 299.669 652.333 170.331 97.6229 63.3109 51.0763 561.111 65.7712 136.965 117.75 101.579 248.593 227.901 211.925 20.6918 81.8465 83.8221 77.3039 16.171 17.7573 49.8882 70.324 61.7052 17.9032 11.0498 79.138 69.5911 26.4788
internal_count=9351 2336 7015 1115 6189 1335 599 267 345 1221 172 826 658 608 770 686 657 84 310 462 282 50 146 133 267 241 81 41 423 389 121
is_linear=0
shrinkage=0.05


Tree=19
num_leaves=32
num_cat=0
split_feature=1 10 1 7 7 0 0 1 10 1 10 10 7 8 8 8 10 3 2 8 5 3 10 7 0 0 2 5 3 2 1
split_gain=1280.5 139.094 58.2545 41.5362 44.9685 51.6788 40.8868 32.7305 19.5848 13.6458 16.0453 13.4428 11.886 10.0189 11.4397 11.6614 16.0795 8.07624 7.3501 6.07861 7.53661 7.02066 5.97028 5.89187 6.80958 6.24695 5.78525 5.6863 6.29966 5.58955 5.52057
threshold=6.5000000000000009 29.236500000000003 1.5000000000000002 1079.5000000000002 1331.5000000000002 2013.5000000000002 2016.5000000000002 19.500000000000004 1.9105000000000001 15.500000000000002 157.53750000000002 44.778500000000008 443.50000000000006 66.450000000000017 67.000000000000014 67.65000000000002 9.9775000000000009 42.95000000000001 3.0500000000000003 66.15000000000002 11453.500000000002 42.650000000000013 440.25200000000001 1019.5000000000001 2013.5000000000002 2007.5000000000002 4.5500000000000007 13052.500000000002 40.050000000000004 2.7500000000000004 47.500000000000007
decision_type=2 2 2 2 2 2 2 2 2 2 2 2 2 2 2 2 2 2 2 2 2 2 2 2 2 2 2 2 2 2 2
left_child=2 7 -1 9 5 22 -7 17 -4 10 11 -3 -13 -9 -15 -16 23 19 29 21 -21 -2 -5 24 25 30 27 28 -20 -10 -17
right_child=1 3 8 4 -6 6 -8 13 18 -11 -12 12 -14 14 15 16 -18 -19 26 20 -22 -23 -24 -25 -26 -27 -28 -29 -30 -31 -32
leaf_value=-0.061093492273831963 -0.016290629697267005 0.091836877921710108 -0.040912524369089681 0.064481347393612096 0.059249315904442747 -0.035336057264300801 0.056179260288794192 0.064055258167211818 -0.0038699165970527919 0.060223604879763817 0.063553787096968378 0.04553447554567823 -0.030442483024091662 -0.026553854562503188 0.064442761087629294 0.039190543050127924 0.045115664506412828 0.044302828124966505 0.0059865849723835483 -0.0072822884949246547 -0.034221530133360524 0.05894037778374045 0.0050460449670118104 -0.039258600801227964 -0.036371503195802145 0.075096905436116967 -0.023212882782879998 -0.0091150715761459736 0.063426691845370087 -0.055210470282749252 -0.029408583659073558
leaf_weight=477.2618912756443 6.9227267727255803 4.0435282960534122 136.97953920066357 32.709519937634468 76.329322390258312 56.428744994103909 15.573285125195978 14.595360614359377 9.1133871525526065 451.72733245790005 23.465585388243198 7.4847628921270397 16.486065417528152 11.767540514469145 15.927717536687849 5.9204421937465721 26.576806887984276 5.933007948100566 11.26082154363394 57.608021624386311 47.262361794710159 5.6177125200629234 4.8519188091158858 9.9903108179569227 6.4977281689643851 4.3952115327119818 17.244098953902721 17.147408716380596 8.2855985164642316 12.674516543745993 5.8118826299905777
leaf_count=1049 26 29 344 327 783 147 151 145 34 4739 234 49 64 45 155 33 198 35 48 207 134 32 37 29 19 35 59 65 52 27 20
internal_value=2.34632e-05 0.0388413 -0.0513944 0.049983 0.0297861 0.00926005 -0.0155423 0.00469162 -0.0296319 0.057444 0.0330538 0.00750626 -0.00671908 0.0257238 0.0192849 0.0264655 0.0162464 -0.0126129 -0.00922641 -0.015489 -0.0194231 0.0174104 0.0568039 -0.00727765 0.00684371 0.024255 0.00067405 0.0118996 0.0303351 -0.0337359 0.00520835
internal_weight=1603.89 913.927 689.967 689.1 185.893 109.563 72.002 224.827 212.705 503.207 51.4799 28.0144 23.9708 101.483 86.8876 75.1201 59.1924 123.344 75.7258 117.411 104.87 12.5404 37.5614 32.6156 22.6253 16.1275 53.9379 36.6938 19.5464 21.7879 11.7323
internal_count=9351 7673 1678 6560 1445 662 298 1113 629 5115 376 142 113 679 534 489 334 434 285 399 341 58 364 136 107 88 224 165 100 61 53
is_linear=0
shrinkage=0.05


Tree=20
num_leaves=32
num_cat=0
split_feature=1 10 1 7 7 0 9 1 10 1 10 10 7 8 8 8 10 4 2 3 2 10 2 10 8 5 3 6 5 7 0
split_gain=1192.35 133.036 58.0651 38.3188 41.1267 46.7748 42.6959 31.1773 18.7577 13.6591 15.5409 12.1596 10.9187 9.45096 10.5412 11.1701 15.3291 8.2754 13.883 7.49881 6.71709 6.42191 5.90233 5.80302 5.47043 6.43654 6.31758 5.36899 6.25637 5.34927 6.19536
threshold=6.5000000000000009 30.533500000000004 1.5000000000000002 1079.5000000000002 1331.5000000000002 2013.5000000000002 1450.0000000000002 19.500000000000004 72.884000000000015 15.500000000000002 157.53750000000002 44.778500000000008 599.50000000000011 66.450000000000017 67.000000000000014 67.65000000000002 9.9775000000000009 17300.500000000004 4.5500000000000007 42.95000000000001 4.9500000000000011 1.2755000000000003 3.0500000000000003 440.25200000000001 66.15000000000002 11453.500000000002 42.650000000000013 51538.500000000007 8069.5000000000009 1019.5000000000001 2013.5000000000002
decision_type=2 2 2 2 2 2 2 2 2 2 2 2 2 2 2 2 2 2 2 2 2 2 2 2 2 2 2 2 2 2 2
left_child=2 7 -1 9 5 23 -7 19 21 10 11 -3 20 -9 -15 -16 29 18 -10 24 -13 -4 -23 -5 26 27 -2 -26 -29 30 -17
right_child=1 3 8 4 -6 6 -8 13 17 -11 -12 12 -14 14 15 16 -18 -19 -20 -21 -22 22 -24 -25 25 -27 -28 28 -30 -31 -32
leaf_value=-0.060337896714908128 -0.015487710012390084 0.089123647910313769 -0.040051210668659992 0.063636976235319331 0.058343205475312854 0.062882314806233797 -0.034063270205860204 0.063178100837114975 0.062270111413301313 0.059430196583490393 0.062723286822023466 0.075335426270978348 -0.033526556454321239 -0.024555086674520776 0.06349657513653012 0.023271175095473218 0.044148061073892707 -0.034870462354686473 -0.028484485446701742 0.04263047946960611 -0.0093728866677023452 -0.045717891746433106 -0.0089270123370617481 0.0048068201900822102 -0.032689269780044092 -0.032143701360512561 0.055834237491504672 0.039735705418662025 -0.0078097195317199655 -0.037499048948281502 -0.034743622320002811
leaf_weight=459.52609278261662 6.9176661521196348 3.8713668584823635 131.15118513256311 31.335590437054634 73.162543572485447 14.270538941025732 55.630982585251331 14.25016752630472 11.678553044795995 433.66352164745331 22.609171837568283 4.9916746169328707 14.544695295393465 11.860627852380274 15.818103305995463 15.980099730193617 26.829988732933998 6.8634697347879401 6.5927506983280173 5.9942106008529654 4.4059768840670586 15.280998080968855 38.036726027727127 4.8390534967184058 15.428074955940245 47.178332880139351 5.6332755461335182 8.6375582143664342 34.776008456945419 9.9374842643737775 6.4629593938589087
leaf_count=1049 26 28 335 325 778 149 147 147 80 4722 234 40 53 46 160 88 206 21 25 36 20 36 132 37 44 137 32 45 125 29 19
internal_value=2.5651e-05 0.0379713 -0.0503903 0.0492538 0.0295042 0.00961341 -0.0142716 0.00481322 -0.0285817 0.0565663 0.0319353 0.00690846 -0.00638535 0.0254365 0.0192467 0.0261709 0.0161994 0.0119397 0.0295235 -0.0119316 0.0356209 -0.0341029 -0.0194714 0.0557673 -0.0146899 -0.0183851 0.0165239 -0.0073537 0.00164991 -0.00695841 0.00656457
internal_weight=1558.16 889.03 669.13 663.325 179.239 106.076 69.9015 225.705 209.604 484.086 50.4229 27.8137 23.9423 101.139 86.8893 75.0286 59.2105 25.1348 18.2713 124.565 9.39765 184.469 53.3177 36.1746 118.571 106.02 12.5509 58.8416 43.4136 32.3805 22.4431
internal_count=9351 7673 1678 6533 1436 658 296 1140 629 5097 375 141 113 695 548 502 342 126 105 445 60 503 168 362 409 351 58 214 170 136 107
is_linear=0
shrinkage=0.05


Tree=21
num_leaves=32
num_cat=0
split_feature=1 1 10 10 7 7 0 9 4 1 6 8 10 1 10 5 1 8 3 10 10 4 10 3 10 10 8 2 3 2 7
split_gain=1113 141.657 48.705 42.7993 28.8859 35.2626 36.7642 30.669 13.4092 11.6854 10.155 9.37831 11.5946 8.11443 8.6327 7.21677 7.11291 7.01786 7.98164 7.01225 6.97396 6.91651 6.90432 6.8501 8.18287 6.15323 6.07531 8.98147 7.02197 5.47714 5.32956
threshold=13.500000000000002 1.5000000000000002 29.236500000000003 71.637500000000017 1079.5000000000002 1331.5000000000002 2013.5000000000002 1450.0000000000002 17300.500000000004 6.5000000000000009 86896.500000000015 69.050000000000011 5.4170000000000007 55.500000000000007 18.990500000000004 11453.500000000002 11.500000000000002 67.65000000000002 42.850000000000001 21.217000000000002 147.09700000000001 17772.500000000004 5.4170000000000007 41.150000000000013 123.14900000000002 1.2755000000000003 69.350000000000009 4.9500000000000011 40.050000000000004 3.0500000000000003 455.50000000000006
decision_type=2 2 2 2 2 2 2 2 2 2 2 2 2 2 2 2 2 2 2 2 2 2 2 2 2 2 2 2 2 2 2
left_child=1 -1 11 9 -4 6 -6 -8 20 25 15 13 -13 14 17 16 26 18 -2 -16 23 -10 -12 24 -5 -3 27 -11 -28 -27 -14
right_child=2 3 4 8 5 -7 7 -9 21 10 22 12 30 -15 19 -17 -18 -19 -20 -21 -22 -23 -24 -25 -26 29 28 -29 -30 -31 -32
leaf_value=-0.059630612297699004 0.061997069662461816 -0.038855133298631883 0.057893473177297587 0.090287804928487259 0.056926300079438566 0.060873179616180106 0.061169404624973736 -0.028167924780138201 -0.055151713242770489 0.053273806894347658 0.007273896292135794 -0.015565032693688516 0.0080579225449062576 0.056216453125292512 -0.064971301509457666 -0.034134341133726251 -0.030822778938200169 -0.013948701143547107 -0.0061363065033562016 0.015230648734874811 0.048094287986838367 0.016259588091888707 0.091934271190137501 -0.016662817596776246 -0.010395294146764609 -0.044146636489553831 0.035628681427292613 -0.027216746665644539 -0.028769715392005131 -0.0084951440829569101 0.047595945759141653
leaf_weight=442.16760120540857 17.542591013014324 128.49729205667973 431.78052903711796 4.3896880894899386 30.906643554568291 65.060701854526997 12.020954228937624 47.833217062056065 7.5642009824514371 11.568439081311228 8.302679315209387 34.575226776301861 19.46897965669632 21.841358818113804 4.7640388682484609 38.898633688688278 19.430957712233067 6.3668312281370154 5.6935382336378089 6.3688201382756233 29.474998936057091 6.1455190554261208 3.3921619355678549 10.891283817589281 3.7352366149425507 15.039834171533583 5.8182589262723949 4.9481552243232718 15.536108754575251 37.973536163568497 15.159905336797236
leaf_count=1049 156 335 4854 32 332 736 134 133 17 64 32 124 111 211 15 110 63 26 28 43 262 34 24 43 15 36 28 15 45 132 112
internal_value=2.79597e-05 -0.0407952 0.0450726 -0.0171085 0.0512338 0.0327798 0.0126415 -0.0102257 0.0205198 -0.0251958 -0.0121645 0.0176006 0.00491683 0.0316275 0.0184437 -0.0175128 -0.00622957 0.032559 0.0453024 -0.0190898 0.0328638 -0.0231409 0.0318302 0.00925668 0.0440012 -0.032942 0.00638879 0.0291599 -0.0112236 -0.0186094 0.025367
internal_weight=1513.16 793.775 719.383 351.607 587.602 155.822 90.7608 59.8542 62.2009 289.406 107.895 131.781 69.2041 62.5772 40.7358 96.2006 57.3019 29.603 23.2361 11.1329 48.4912 13.7097 11.6948 19.0162 8.12492 181.511 37.871 16.5166 21.3544 53.0134 34.6289
internal_count=9351 2336 7015 1287 6189 1335 599 267 403 884 381 826 347 479 268 325 215 210 184 58 352 51 56 90 47 503 152 79 73 168 223
is_linear=0
shrinkage=0.05


Tree=22
num_leaves=32
num_cat=0
split_feature=1 1 10 10 7 7 0 9 4 1 6 6 6 6 8 10 5 10 3 0 10 4 3 10 5 1 1 10 6 3 2
split_gain=1036.37 138.076 47.7727 39.1506 27.7607 33.6608 34.4636 28.5076 12.3137 10.9332 9.21273 9.01368 12.0039 9.36604 9.17756 12.2638 12.4082 8.82427 8.007 6.70931 6.60067 6.40145 6.23269 7.54529 5.95794 7.15796 5.97098 5.88946 5.88633 5.32255 5.0845
threshold=13.500000000000002 1.5000000000000002 29.236500000000003 71.637500000000017 1079.5000000000002 1331.5000000000002 2013.5000000000002 1450.0000000000002 17300.500000000004 6.5000000000000009 86896.500000000015 78408.500000000015 86896.500000000015 89902.500000000015 67.65000000000002 18.990500000000004 11518.500000000002 9.9775000000000009 43.050000000000004 2019.0000000000002 147.09700000000001 17772.500000000004 41.150000000000013 123.14900000000002 11453.500000000002 11.500000000000002 9.5000000000000018 1.2755000000000003 40949.500000000007 41.650000000000013 3.0500000000000003
decision_type=2 2 2 2 2 2 2 2 2 2 2 2 2 2 2 2 2 2 2 2 2 2 2 2 2 2 2 2 2 2 2
left_child=1 -1 11 9 -4 6 -6 -8 20 27 18 14 -13 -14 15 -2 -17 -16 24 -12 22 -10 23 -5 25 26 -11 -3 -19 -27 -29
right_child=2 3 4 8 5 -7 7 -9 21 10 19 12 13 -15 17 16 -18 28 -20 -21 -22 -23 -24 -25 -26 29 -28 30 -30 -31 -32
leaf_value=-0.058967143090102828 0.061654146922534729 -0.037692406643799581 0.057162788563423654 0.087159543480218538 0.056107932549572997 0.060231038472960963 0.060507358099797327 -0.027102587567273885 -0.053610976089787078 -0.0064106109983725554 0.058603187773660317 -0.042000745406887946 0.066756088670829425 -0.0073558815762720213 -0.0037223830967133826 0.062048705927299823 -0.046473807247250018 -0.021126842683482392 0.040604824172467968 -0.020532935451173632 0.046839759450776848 0.015494269605516335 -0.01582844966283898 -0.0098783000589826933 -0.036006894420003814 -0.0037656164060026367 0.046474788120539581 -0.042641634501897466 0.045430536061862925 -0.057995977249204335 -0.0080837797169626465
leaf_weight=425.21505878865719 27.095994517207146 125.90483391284943 415.83922641724348 4.3215836212039012 29.817236706614494 62.530676685273647 11.556616730988024 47.24305472522974 7.3967982530593854 28.464430257678032 7.4961546957492811 13.496880903840067 6.7844159007072475 11.470791354775427 35.520291894674301 4.5138568431138975 6.3244006857275963 3.939633414149287 5.7227794155478469 4.1673289686441422 28.7693110704422 6.1270955950021744 10.892101064324377 3.7342150509357452 36.372517146170139 7.8727070838212994 6.5689045563340178 14.798335939645765 21.187320150434971 10.638780601322649 37.912229053676128
leaf_count=1049 264 335 4854 32 332 736 134 133 17 100 41 41 66 50 149 49 22 17 33 15 262 34 43 15 99 31 36 36 168 26 132
internal_value=2.93767e-05 -0.0398653 0.044218 -0.0164686 0.0504926 0.0321416 0.0123208 -0.00988354 0.019812 -0.0242396 -0.0116249 0.0169218 -0.00624702 0.0201873 0.0243843 0.043674 -0.00127696 0.0123188 -0.0167412 0.0303281 0.0317479 -0.0223024 0.00883341 0.0421783 -0.0203909 -0.00978317 0.00350563 -0.0318178 0.0349951 -0.0349325 -0.0177858
internal_weight=1469.7 772.375 697.32 347.16 566.987 151.148 88.6169 58.7997 61.2411 285.919 107.304 130.334 31.7521 18.2552 98.5815 37.9343 10.8383 60.6472 95.6401 11.6635 47.7172 13.5239 18.9479 8.0558 89.9173 53.5448 35.0333 178.615 25.127 18.5115 52.7106
internal_count=9351 2336 7015 1287 6189 1335 599 267 403 884 381 826 157 116 669 335 71 334 325 56 352 51 90 47 292 193 136 503 185 57 168
is_linear=0
shrinkage=0.05


Tree=23
num_leaves=32
num_cat=0
split_feature=1 1 10 10 7 7 2 10 8 0 8 2 8 1 1 1 6 1 7 3 5 8 4 0 5 10 0 4 0 10 3
split_gain=965.412 134.629 46.6814 35.8351 26.7076 32.1641 32.3916 12.6275 8.63745 9.14596 8.37385 13.0142 8.02871 7.94472 7.41824 7.2281 6.83978 6.40135 5.90509 6.78026 5.93623 5.57916 5.44936 5.2636 10.0338 6.51534 6.30899 5.57876 4.75542 4.75563 4.71722
threshold=13.500000000000002 1.5000000000000002 29.236500000000003 32.788000000000004 1079.5000000000002 1331.5000000000002 3.3500000000000001 445.59650000000005 73.700000000000003 2016.5000000000002 66.450000000000017 3.0500000000000003 66.550000000000011 60.500000000000007 3.5000000000000004 53.500000000000007 46272.000000000007 4.5000000000000009 389.50000000000006 43.050000000000004 7520.0000000000009 66.550000000000011 6238.5000000000009 2010.5000000000002 11103.500000000002 2.5515000000000003 2016.5000000000002 11455.000000000002 2013.5000000000002 9.9775000000000009 42.750000000000007
decision_type=2 2 2 2 2 2 2 2 2 2 2 2 2 2 2 2 2 2 2 2 2 2 2 2 2 2 2 2 2 2 2
left_child=1 -1 10 14 -4 6 21 8 9 18 -2 -12 -8 15 -3 16 -13 -11 20 -20 -5 22 -6 24 25 -16 28 -28 29 -25 -29
right_child=2 3 4 7 5 -7 12 -9 -10 17 11 13 -14 -15 23 -17 -18 -19 19 -21 -22 -23 -24 26 -26 -27 27 30 -30 -31 -32
leaf_value=-0.058343459321769126 0.049405640199052518 -0.036714307275617274 0.056467520154277265 -0.0068394919439614 -0.035161480055329118 0.059632999684823121 0.00046432790836840713 0.056010591751175391 0.069070659845476515 -0.014053427970776793 -0.030762499883288566 -0.0252980354251384 0.058586753214889375 0.043533033617166178 -0.026191461469027358 -0.039605119614833359 0.021510925227225194 0.048642316327268342 -0.02678995321533699 0.028430278787339631 0.07713979069918149 -0.021326173959955768 0.060668025887906124 0.0033346379591758014 0.037901409817762327 0.023871967762015653 0.024500705230422984 -0.028208375687908807 -0.047404375961063457 -0.04575952139110917 0.016234127127416811
leaf_weight=408.69112300127745 16.63696300983429 93.556472435593605 400.30543614923954 5.3962222263216955 2.2487351447343817 60.06237168610096 7.4095429554581633 13.348906591534613 4.6958998069167128 5.9294577538967159 15.738367609679697 9.0408586114644987 29.98891893029213 23.533066980540752 34.814028069376945 6.6432808414101592 57.049962155520916 12.991925746202467 38.368484362959862 6.5007570758461943 3.4494230672717094 42.518960177898407 4.359420508146286 11.770248822867872 10.40313448756933 7.9904430359601966 8.5518083199858648 32.401774853467941 36.79125688970089 8.4913371503353101 7.3195501118898383
leaf_count=1049 168 258 4854 25 8 736 42 131 43 21 50 32 352 198 99 30 348 93 149 40 29 147 50 43 50 36 38 94 86 22 30
internal_value=3.10257e-05 -0.0389619 0.0434065 -0.0158529 0.0497812 0.0315219 0.0120084 0.0111023 0.0033503 -0.000898491 0.016306 0.0113895 0.0470713 0.0182808 -0.0255491 0.0101104 0.0151077 0.0289951 -0.0114287 -0.0187895 0.0259088 -0.0146835 0.0280575 -0.0189601 -0.00614178 -0.016846 -0.0254356 -0.012132 -0.0366919 -0.01724 -0.0200188
internal_weight=1427 751.462 675.536 342.771 546.893 146.588 86.5256 90.6811 77.3322 72.6363 128.642 112.006 37.3985 96.2672 252.09 72.7341 66.0908 18.9214 53.7149 44.8692 8.84565 49.1271 6.60816 158.534 53.2076 42.8045 105.326 48.2731 57.0528 20.2616 39.7213
internal_count=9351 2336 7015 1287 6189 1335 599 531 400 357 826 658 394 608 756 410 380 114 243 189 54 205 58 498 185 135 313 162 151 65 124
is_linear=0
shrinkage=0.05


Tree=24
num_leaves=32
num_cat=0
split_feature=1 10 1 7 7 0 0 1 10 1 10 7 8 8 8 7 7 10 3 10 3 10 2 2 1 2 7 6 1 10 10
split_gain=900.212 112.152 56.5872 32.5844 34.1161 36.3824 32.0033 23.3764 14.4752 13.7007 14.453 9.01842 8.2684 8.7963 8.39169 9.43101 8.28086 8.26336 7.58324 6.51838 5.84508 5.37916 4.93716 5.12367 4.78236 4.70896 5.28203 9.04487 4.60692 4.17558 4.16445
threshold=6.5000000000000009 30.533500000000004 1.5000000000000002 1079.5000000000002 1301.5000000000002 2013.5000000000002 2019.0000000000002 19.500000000000004 1.9105000000000001 15.500000000000002 157.53750000000002 443.50000000000006 66.450000000000017 66.700000000000003 69.050000000000011 1019.5000000000001 98.500000000000014 61.979500000000009 39.95000000000001 440.25200000000001 42.95000000000001 8.7025000000000023 3.0500000000000003 2.7500000000000004 16.500000000000004 4.5500000000000007 1217.5000000000002 74822.500000000015 47.500000000000007 52.622500000000009 72.884000000000015
decision_type=2 2 2 2 2 2 2 2 2 2 2 2 2 2 2 2 2 2 2 2 2 2 2 2 2 2 2 2 2 2 2
left_child=2 7 -1 9 5 19 24 20 -4 10 11 29 -9 -14 18 16 -16 -13 -15 -5 -2 28 23 -10 -7 26 27 -24 -18 -3 -26
right_child=1 3 8 4 -6 6 -8 12 22 -11 -12 17 13 14 15 -17 21 -19 -20 -21 -22 -23 25 -25 30 -27 -28 -29 -30 -31 -32
leaf_value=-0.057755956584347935 -0.01291776346138733 0.0026056874452480751 -0.03533097831518859 0.061690528504647096 0.053553908291700092 -0.064285314600645113 0.060531087110381278 0.06067746914281269 0.00062529274140800525 0.056731566123757009 0.060389988780785359 0.040076110980257679 -0.026821943378256524 -0.00038512816574526879 -0.029397576060849442 -0.033521540413799525 0.036291561584426889 -0.035643940202698392 0.063013147944955439 -0.0049282722775067147 0.038184323243870971 0.052269742530293289 0.08840396567393112 -0.050062536752441836 -0.062333181198567282 -0.0209936942280015 -0.0066589818529611189 0.0075803841855346266 -0.01832889073108852 0.074793533725717606 -0.017977362371241489
leaf_weight=392.61320776492357 115.93428046256304 3.2645919695496577 124.26539181172848 25.655319474637512 69.012741044163704 9.4814103841781598 11.396688602864741 12.4060842692852 8.7553095147013682 372.31941714137793 19.829992689192295 4.9110616892576244 10.097723074257372 6.3524728864431408 6.5404694825410834 9.5985850244760496 8.4229187965393049 13.528562866151331 18.317401617765427 4.2851635590195647 5.8794669881463042 16.456294395029545 4.9436784386634853 11.579016767442225 6.2595225051045409 16.921745225787163 19.442056059837341 11.545696929097174 7.126976676285266 5.1845891028642654 34.225582920014858
leaf_count=1049 409 16 344 303 825 19 137 147 34 4722 234 28 39 32 25 37 49 53 201 35 36 138 37 27 12 59 77 51 27 44 105
internal_value=3.19542e-05 0.0347084 -0.0467753 0.0461946 0.0270237 0.00697068 -0.0150762 0.00406109 -0.0249415 0.053529 0.0280062 0.00412384 0.0226073 0.0169109 0.0229757 0.0108252 0.0218681 -0.0154773 0.0466881 0.0521559 -0.0104513 0.0323443 -0.00730115 -0.028238 -0.0323212 0.000753925 0.0109959 0.0318121 0.0112574 0.0469016 -0.0248353
internal_weight=1386.55 796.487 590.066 579.355 160.316 91.3037 61.3632 217.133 197.453 419.038 46.7188 26.8888 95.3189 82.9128 72.8151 48.1452 38.5467 18.4396 24.6699 29.9405 121.814 32.0062 73.1875 20.3343 49.9665 52.8532 35.9314 16.4894 15.5499 8.44918 40.4851
internal_count=9351 7673 1678 6533 1436 611 273 1140 629 5097 375 141 695 548 509 276 239 81 233 338 445 214 285 61 136 224 165 88 76 60 117
is_linear=0
shrinkage=0.05


Tree=25
num_leaves=32
num_cat=0
split_feature=1 10 1 7 7 0 0 1 1 10 10 7 8 4 10 10 10 8 3 10 10 0 1 6 6 7 7 3 8 4 7
split_gain=838.949 107.481 56.4294 31.3573 32.168 34.6298 30.7522 21.4415 13.645 13.8822 13.5783 8.26352 7.96491 8.51127 7.44511 6.08371 5.39512 10.8378 5.30422 5.21218 4.82005 4.65122 4.64966 8.91805 8.40682 10.7568 7.53162 4.29797 4.14513 5.73508 4.14447
threshold=6.5000000000000009 30.533500000000004 1.5000000000000002 1079.5000000000002 1331.5000000000002 2013.5000000000002 2016.5000000000002 19.500000000000004 15.500000000000002 157.53750000000002 1.2755000000000003 443.50000000000006 66.450000000000017 17300.500000000004 61.979500000000009 440.25200000000001 1.0000000180025095e-35 67.65000000000002 42.95000000000001 84.878500000000017 364.90150000000006 2016.5000000000002 24.500000000000004 54319.000000000007 65574.000000000015 1271.5000000000002 196.50000000000003 42.45000000000001 72.050000000000011 9992.0000000000018 833.50000000000011
decision_type=2 2 2 2 2 2 2 2 2 2 2 2 2 2 2 2 2 2 2 2 2 2 2 2 2 2 2 2 2 2 2
left_child=2 7 -1 8 5 15 19 18 9 11 28 -3 -9 16 -13 -5 17 -14 -2 -7 21 -12 23 -18 -24 26 -26 -22 29 -4 -16
right_child=1 3 10 4 -6 6 -8 12 -10 -11 20 14 13 -15 30 -17 22 -19 -20 -21 27 -23 24 -25 25 -27 -28 -29 -30 -31 -32
leaf_value=-0.057201389752105786 -0.012307532274814266 0.045388116428069732 0.011533435357620074 0.060936554102712273 0.05483380954123538 -0.056156531945143043 0.05989120236564708 0.060062171629126061 0.056133935881956233 0.059784773075962444 -0.018765364407821603 0.038191062284301296 0.063471072270551085 -0.04487067240532161 -0.054274273847142188 -0.0021392070932982439 -0.060458765343952892 -0.018762235254952006 0.036542065916548121 -0.019937570513260162 0.068360391089135455 0.011362083604938573 0.056325595739181306 0.042655228374705048 -0.034539715882378731 -0.050205750962437248 0.049324035459574991 -0.013725997727772006 -0.048527555134841735 -0.032721206950900222 0.0033982109001617737
leaf_weight=376.99419214576483 115.60696256160736 8.3004245758056658 8.1258840784430486 26.381751827895645 60.817416302859783 13.334839940071104 11.896584272384642 11.918853752315043 357.83624345064163 19.048972569406033 52.274071641266346 4.8961679860949543 5.1995188966393497 5.3150168657302848 8.7425880879163724 4.4706259220838538 3.8911813348531705 17.465363517403603 5.8375946134328833 38.938591465353966 3.7610851749777785 16.969826094806194 23.456571415066719 4.5473905429244041 3.3438250720501008 5.1181646212935439 13.428791582584379 2.7683802470564842 36.836366407573223 73.895667843520641 4.8394579961895934
leaf_count=1049 409 60 32 325 778 28 149 147 4722 234 175 28 58 16 31 37 12 62 36 119 34 72 210 36 14 21 119 13 91 212 22
internal_value=3.42357e-05 0.0339406 -0.0459137 0.0454894 0.0264388 0.00826511 -0.0126645 0.00390472 0.0528442 0.0271565 -0.0240498 0.00394637 0.021877 0.0163108 -0.0146693 0.0517966 0.0205643 0.000102793 -0.00995943 -0.0291769 -0.00750949 -0.0113819 0.0291865 -0.00489254 0.0355282 0.0132433 0.0326048 0.0335572 -0.0345944 -0.0283369 -0.0337248
internal_weight=1346.26 774.633 571.625 559.504 155.84 95.0224 64.17 215.129 403.664 45.8276 194.631 26.7786 93.6847 81.7658 18.4782 30.8524 76.4508 22.6649 121.445 52.2734 75.7734 69.2439 53.7859 8.43857 45.3474 21.8908 16.7726 6.52947 118.858 82.0216 13.582
internal_count=9351 7673 1678 6533 1436 658 296 1140 5097 375 629 141 695 548 81 362 532 120 445 147 294 247 412 48 364 154 133 47 335 244 53
is_linear=0
shrinkage=0.05


Tree=26
num_leaves=32
num_cat=0
split_feature=1 1 10 10 7 7 0 0 4 6 4 1 7 1 4 0 0 7 6 5 3 4 8 10 1 8 10 7 4 7 2
split_gain=783.526 124.169 43.4745 28.8414 24.1772 27.9366 26.2744 21.2304 10.1222 9.97089 9.10239 8.68032 7.98212 7.84024 7.42822 7.21982 9.72564 6.90552 6.26791 7.48483 8.0304 7.141 6.85491 5.29538 5.32992 5.0766 9.74391 5.04302 4.97986 4.61092 5.07115
threshold=13.500000000000002 1.5000000000000002 34.251000000000005 71.637500000000017 1079.5000000000002 1331.5000000000002 2013.5000000000002 2016.5000000000002 17300.500000000004 78408.500000000015 17772.500000000004 4.5000000000000009 168.50000000000003 55.500000000000007 10041.000000000002 2010.5000000000002 2016.5000000000002 1421.5000000000002 86896.500000000015 11453.500000000002 39.45000000000001 6238.5000000000009 67.350000000000009 445.59650000000005 11.500000000000002 69.15000000000002 6.3755000000000015 977.50000000000011 17772.500000000004 365.50000000000006 4.2500000000000009
decision_type=2 2 2 2 2 2 2 2 2 2 2 2 2 2 2 2 2 2 2 2 2 2 2 2 2 2 2 2 2 2 2
left_child=1 -1 9 11 -4 6 -6 -8 23 13 12 -3 -11 14 -2 -16 -17 -18 19 20 -13 -22 27 24 29 -15 -27 -23 -10 -5 -31
right_child=2 3 4 8 5 -7 7 -9 28 10 -12 18 -14 25 15 16 17 -19 -20 -21 21 22 -24 -25 -26 26 -28 -29 -30 30 -32
leaf_value=-0.056676815459577916 -0.0013635703282164854 -0.031045701806447137 0.054948692307422865 0.053720441412886982 0.053281255128031738 0.058143290419754967 -0.023004198150689072 0.058338823991432288 -0.050324025064144864 0.029886067063751257 0.043371179580676308 0.05354978836056612 -0.0375424184576632 0.062188930119924504 0.053417247032643271 -0.032076299349450187 0.07055965440085922 -0.029467611210106076 0.011958416524753851 -0.031471224112369141 -0.055314982767976598 -1.9947363116242912e-05 -0.012584747034245589 0.061153159631703348 0.063676479719576962 -0.028130352717339782 0.063422184763468226 0.074198447467212131 0.012220078482218679 0.020025144073305769 -0.027451034813764263
leaf_weight=361.84294702112675 36.254249431192875 121.17990633845329 350.46534761041403 5.2096030861139324 25.314273327589035 52.610816434025764 44.621309831738472 9.7796146944165212 6.8664895892143232 5.6596246138215127 6.6463032290339461 5.0867915451526633 19.550693146884441 17.577967248857025 17.635177440941334 8.0504295676946658 6.4767299294471723 2.3520360440015793 21.432296983897686 53.97238489985466 8.2180674374103528 4.9808579608798009 53.81325975060463 9.9995930343866331 5.7867784872651091 5.5716492235660535 6.0751059129834175 4.234750509262085 5.9321862086653709 14.637589491903784 9.1347730681300146
leaf_count=1049 191 356 4782 42 324 725 132 133 17 31 68 28 71 210 160 29 65 11 90 156 21 20 184 116 64 19 64 29 34 88 42
internal_value=3.66865e-05 -0.0364403 0.0411241 -0.0142837 0.0480734 0.0298641 0.0112002 -0.00838122 0.0178775 0.0156783 -0.00868197 -0.0210675 -0.022405 0.0234392 0.0144421 0.0310445 0.00766973 0.0439118 -0.0130987 -0.01722 -0.00714362 -0.0114769 -0.00576107 0.0290878 0.0198657 0.0452261 0.0196247 0.0340848 -0.0213348 0.0111181 0.00178194
internal_weight=1306.97 692.328 614.641 330.485 482.791 132.326 79.7152 54.4009 57.567 131.85 31.8566 272.918 25.2103 99.9933 70.7686 34.5144 16.8792 8.82877 151.738 130.306 76.3337 71.2469 63.0289 44.7683 34.7687 29.2247 11.6468 9.21561 12.7987 28.982 23.7724
internal_count=9351 2336 7015 1287 6096 1314 589 265 403 919 170 884 102 749 456 265 105 76 528 438 282 254 233 352 236 293 83 49 51 172 130
is_linear=0
shrinkage=0.05


Tree=27
num_leaves=32
num_cat=0
split_feature=1 1 10 10 7 7 0 0 10 8 6 0 0 5 4 1 1 7 4 0 7 1 8 4 2 5 1 1 1 7 10
split_gain=729.919 121.332 42.5195 26.586 23.3784 26.7891 24.6741 19.7839 13.3409 13.1075 9.17103 9.11902 9.15102 8.37206 8.33703 7.51921 7.31655 7.22001 6.64985 6.14116 6.02772 5.88453 5.67861 7.34836 6.61196 7.94495 6.31482 5.67404 5.20173 6.50053 5.26608
threshold=13.500000000000002 1.5000000000000002 34.251000000000005 5.4170000000000007 1079.5000000000002 1331.5000000000002 2013.5000000000002 2016.5000000000002 445.59650000000005 73.700000000000003 78408.500000000015 2016.5000000000002 2013.5000000000002 11103.500000000002 17772.500000000004 55.500000000000007 53.500000000000007 168.50000000000003 11455.000000000002 2010.5000000000002 1037.5000000000002 3.5000000000000004 73.90000000000002 11283.000000000002 2.3500000000000001 11453.500000000002 10.500000000000002 11.500000000000002 29.500000000000004 1019.5000000000001 1.4390000000000003
decision_type=2 2 2 2 2 2 2 2 2 2 2 2 2 2 2 2 2 2 2 2 2 2 2 2 2 2 2 2 2 2 2
left_child=1 -1 10 21 -4 6 -6 -8 9 11 15 12 13 -5 17 16 18 -12 19 28 -15 -3 23 27 -25 26 -26 -23 29 -2 -30
right_child=2 3 4 8 5 -7 7 -9 -10 -11 14 -13 -14 20 -16 -17 -18 -19 -20 -21 -22 22 -24 24 25 -27 -28 -29 30 -31 -32
leaf_value=-0.056179581440562489 0.025756171667259489 -0.037119172010465773 0.054372359681378872 -0.017330870857167856 0.052592257717450554 0.057683312194579645 -0.022106235141090867 0.05786686067471411 0.053322411390772963 0.071811198447353591 0.028420168311040009 0.016763649810303153 -0.037015322899460766 0.069814904096949168 0.04224574739988269 0.044388115510279602 -0.060769659133465416 -0.035749486639973259 0.043597290483182949 -0.014856576116332731 0.0075716210085278492 0.013314129178827468 -0.056186299889685598 0.02017360952248845 0.013122520886047729 -0.044027327353764585 -0.048046359082010534 -0.035881950400044292 -0.013521536576932877 -0.036349543056064026 0.067008944906211884
leaf_weight=347.16491965949535 13.105823628604417 74.20815347135067 336.8172572851181 38.323684588074684 24.387166656553745 50.433899834752083 44.125047281384468 9.3766045421361905 11.855940274894236 5.7368005141615859 5.6541053652763429 33.593800216913223 28.801042564213276 4.9112863019108799 6.4863017350435248 28.319456845521927 3.137099213898181 19.505793437361717 17.746858805418015 18.506053008139133 18.698142938315868 27.831522583961487 9.3573150485753995 7.1248345971107474 14.027937747538092 38.820496402680874 6.0342733561992636 7.424505688250064 2.6415091305971137 6.2096460685133925 8.7698567733168584
leaf_count=1049 78 215 4782 158 324 725 132 133 131 53 31 175 88 36 68 293 16 71 151 90 89 109 20 30 55 95 14 19 11 22 88
internal_value=3.88661e-05 -0.0355972 0.0403863 -0.0137289 0.0474534 0.0292928 0.0109096 -0.00809029 0.00254721 -0.00208116 0.0151162 -0.00549073 -0.0137303 -0.00290195 -0.0082984 0.0226437 0.0138614 -0.0213288 0.0173569 0.00789803 0.0205196 -0.0262265 -0.0189194 -0.0154757 -0.0253194 -0.0308241 -0.00527574 0.00295401 0.0216026 0.00579008 0.0483677
internal_weight=1269.14 673.915 595.222 326.75 465.14 128.323 77.8888 53.5017 141.921 130.065 130.083 124.328 90.7342 61.9331 31.6462 98.4363 70.1168 25.1599 66.9797 49.2329 23.6094 184.829 110.621 101.264 66.0075 58.8827 20.0622 35.256 30.7268 19.3155 11.4114
internal_count=9351 2336 7015 1287 6096 1314 589 265 730 599 919 546 371 283 170 749 456 102 440 289 125 557 342 322 194 164 69 128 199 100 99
is_linear=0
shrinkage=0.05


Tree=28
num_leaves=32
num_cat=0
split_feature=1 10 1 7 7 0 0 1 10 0 0 1 10 2 0 10 6 5 8 10 8 3 10 7 3 7 8 4 7 2 2
split_gain=682.107 94.7918 55.141 23.2025 25.6425 19.9862 21.1868 19.9686 11.6259 10.9573 23.5674 10.9326 15.6934 9.72069 8.42633 10.0522 7.11291 6.734 6.2621 10.8587 6.13654 6.12471 5.98575 4.52738 8.10015 5.73906 4.07647 5.34316 4.10114 3.98679 4.56585
threshold=6.5000000000000009 51.473500000000008 1.5000000000000002 1079.5000000000002 1331.5000000000002 2013.5000000000002 2016.5000000000002 19.500000000000004 1.2755000000000003 2010.5000000000002 2016.5000000000002 17.500000000000004 164.53650000000002 5.1500000000000012 2007.5000000000002 22.425500000000003 63075.000000000007 11103.500000000002 69.050000000000011 9.9775000000000009 67.65000000000002 42.95000000000001 440.25200000000001 1085.5000000000002 41.850000000000001 217.50000000000003 72.050000000000011 9992.0000000000018 1283.5000000000002 3.0500000000000003 2.7500000000000004
decision_type=2 2 2 2 2 2 2 2 2 2 2 2 2 2 2 2 2 2 2 2 2 2 2 2 2 2 2 2 2 2 2
left_child=2 7 -1 11 5 22 -7 21 26 14 23 12 13 16 15 20 -3 -18 -12 -20 -9 -2 -5 24 25 -11 27 -4 -29 30 -10
right_child=1 3 8 4 -6 6 -8 9 29 10 18 -13 -14 -15 -16 -17 17 -19 19 -21 -22 -23 -24 -25 -26 -27 -28 28 -30 -31 -32
